number;id;nodes_x;nodes_y;weights

number: 1
id: a6a068a075e6d37a96b3922d38cc56b0
nodes_x: [-0.9659789 -0.8257621 -0.5936736 -0.30094892 0.01309774 0.3063359 0.5382866 0.674109 -0.9684984 -0.8385497 -0.62338036 -0.35186914 -0.06065254 0.21102092 0.4257691 0.55328095 -0.97202635 -0.85686475 -0.66598463 -0.4250131 -0.1664746 0.07465374 0.2653081 0.37953007 -0.9757316 -0.8759065 -0.71036094 -0.5013383 -0.2769606 -0.06773168 0.09793594 0.19758634 -0.9789982 -0.8926492 -0.74936754 -0.5683695 -0.3740375 -0.19278924 -0.0491393 0.03749884 -0.9815151 -0.9056371 -0.77970886 -0.62063235 -0.4498409 -0.29039776 -0.16388701 -0.08740464 -0.9831972 -0.9145098 -0.80051947 -0.6565934 -0.5021815 -0.3580203 -0.24347246 -0.17409776 -0.98423785 -0.91944873 -0.81200516 -0.67644525 -0.53107387 -0.39534914 -0.28742582 -0.22203234]
nodes_y: [-0.96029377 -0.9602997 -0.9603107 -0.960311 -0.96028996 -0.96027446 -0.9602761 -0.9602845 -0.79665965 -0.7966622 -0.7966655 -0.7966765 -0.7966821 -0.7966878 -0.796698 -0.79671997 -0.5255208 -0.52551365 -0.5255157 -0.52552015 -0.5255325 -0.5255571 -0.5255759 -0.5255935 -0.18341911 -0.18340895 -0.18340977 -0.18341753 -0.18342684 -0.18344118 -0.18346217 -0.18347938 0.18344991 0.18346056 0.18345618 0.18344258 0.1834304 0.18341106 0.18340172 0.18338418 0.52552813 0.5255374 0.525541 0.5255277 0.5255089 0.5254899 0.52548605 0.52548516 0.79664785 0.79666215 0.79667145 0.7966707 0.7966635 0.7966541 0.79664654 0.7966422 0.96025914 0.96027523 0.96030134 0.9603185 0.96032435 0.9603264 0.9603238 0.96031344]
weights: [0.00875053570041909 0.01922358619039794 0.02711869420435696 0.03135285833669574 0.03135261037116249 0.02711853634478153 0.01922383612230098 0.008750740868743553 0.01783667880878061 0.03918445043480215 0.05527746583714745 0.06390818608534539 0.06390768064411029 0.05527714406364234 0.03918495988419258 0.017837097014206025 0.022347166168867068 0.04909330007507845 0.06925587031642336 0.0800691019505849 0.08006846869484316 0.06925546717377194 0.04909393835254617 0.02234769012886179 0.0224289223683737 0.04927290591883721 0.06950924010424384 0.08036203150701823 0.0803613959345361 0.06950883548671143 0.04927354653141712 0.022429448245254772 0.01943116389905506 0.042687289873618146 0.06021891800155475 0.06962116948051673 0.06962061885606552 0.06021856746355477 0.04268784486452816 0.019431619489372734 0.014783574497720317 0.03247724805528016 0.045815622011782256 0.052969021875405205 0.052968602950546305 0.04581535531624801 0.032477670302218445 0.014783921118923078 0.009483402988510956 0.020833583333553694 0.02938991559680129 0.03397869577680151 0.03397842704387366 0.029389744516307402 0.020833854197537034 0.009483625339915255 0.004066676259431668 0.008933864652181886 0.012602994111819215 0.014570756468893484 0.014570641230743302 0.012602920749020672 0.008933980804172046 0.004066771608240341]

number: 2
id: d04baa82e0f807196c45450786d616ab
nodes_x: [0.7336695 0.75580066 0.7925163 0.83882874 0.8886043 0.9351882 0.9722207 0.9945495 0.6128914 0.64504945 0.6984127 0.76587075 0.83832425 0.9060235 0.95973474 0.9921312 0.4376478 0.48435074 0.5619359 0.65999955 0.7653069 0.8636027 0.941542 0.9885571 0.25242049 0.31462625 0.4178977 0.54840887 0.68838614 0.8189551 0.92242146 0.9848375 0.0886626 0.1645757 0.2905391 0.44962063 0.6202902 0.77944183 0.90551496 0.98156923 -0.03890371 0.04755967 0.19102821 0.37236413 0.5669539 0.7484311 0.8922384 0.9790102 -0.12644662 -0.03290648 0.12260275 0.3191883 0.53019005 0.72701347 0.88299054 0.97719 -0.17479116 -0.07720293 0.08516076 0.29019696 0.5101663 0.7153517 0.8780168 0.97616947]
nodes_y: [-0.96018213 -0.96018094 -0.96020865 -0.9602521 -0.9602795 -0.96028304 -0.9602702 -0.9602695 -0.79668313 -0.7966859 -0.7966831 -0.7966811 -0.7966806 -0.7966738 -0.7966739 -0.79667836 -0.5255352 -0.52554166 -0.525547 -0.5255565 -0.5255618 -0.5255662 -0.5255682 -0.52556086 -0.18343116 -0.1834314 -0.18343323 -0.18343861 -0.18344262 -0.18344861 -0.18345109 -0.18344726 0.1834551 0.18345731 0.18345658 0.183454 0.18345498 0.18344525 0.18343714 0.18343098 0.5255222 0.525523 0.52553153 0.5255496 0.5255555 0.5255491 0.5255406 0.5255332 0.7966265 0.7966355 0.7966491 0.79666746 0.79667825 0.79667735 0.7966669 0.79666585 0.9602827 0.9602914 0.9602894 0.9602942 0.9603018 0.96030414 0.96029615 0.96028525]
weights: [0.001391837021906636 0.003057629581925216 0.004313369455951508 0.0049869152508556225 0.0049870061323062705 0.004313569638721602 0.0030577792574769066 0.0013919021904965807 0.0044448416766724305 0.009764562361583278 0.013774776804281057 0.015925750210805435 0.015926040441380653 0.013775416089416787 0.009765040351548817 0.004445049793039532 0.009108533593099972 0.020009901535792216 0.02822778096185828 0.03263563504449447 0.03263622979569966 0.028229091008550145 0.020010881050468995 0.009108960072839616 0.01400010202862979 0.030755846725552302 0.04338698534385392 0.050161995421323095 0.05016290957259335 0.04338899892673868 0.030757352270355236 0.014000757541375844 0.017067850352137492 0.03749516884173598 0.05289408402631172 0.06115365655656881 0.061154771019666876 0.05289653883208944 0.03749700428645934 0.017068649502988725 0.016829817619921725 0.036972251350654746 0.052156409212022255 0.06030079157036266 0.060301890490865095 0.05215882978243265 0.03697406119778302 0.016830605625604907 0.012935061258016417 0.0284161330127191 0.04008637309040651 0.046345982498718755 0.04634682710704059 0.0400882334924171 0.028417524025028354 0.01293566690342588 0.006140561237315951 0.01348977027721283 0.019029892772327143 0.022001468563636137 0.022001869517989454 0.019030775946534375 0.013490430621690253 0.006140848750660551]

number: 3
id: 9c469d7854cdb09290680f17cdd18fee
nodes_x: [-0.9764635 -0.9764734 -0.9764725 -0.97644067 -0.9764067 -0.9763938 -0.97640264 -0.9764537 -0.87975585 -0.8796463 -0.8796129 -0.87952954 -0.8794345 -0.8793615 -0.879361 -0.8793539 -0.7191601 -0.719214 -0.71918625 -0.7191446 -0.71908146 -0.71899205 -0.7189148 -0.71871614 -0.5160074 -0.5161145 -0.5161557 -0.51625246 -0.5163137 -0.5162636 -0.51613456 -0.5159044 -0.29781854 -0.29777732 -0.29784876 -0.29803005 -0.29822823 -0.29830498 -0.29822388 -0.29802725 -0.09407964 -0.09404568 -0.09410077 -0.09437625 -0.09461428 -0.09470835 -0.09474509 -0.09457231 0.06788469 0.06790671 0.06778336 0.06752888 0.06718168 0.06688121 0.06672307 0.06676555 0.16590802 0.16556436 0.16521007 0.1649053 0.1645694 0.16434392 0.16424753 0.1641599]
nodes_y: [-0.9788237 -0.891962 -0.74796027 -0.56585205 -0.3698682 -0.18616092 -0.03990246 0.04759895 -0.98004603 -0.8980324 -0.76220524 -0.59043837 -0.40566632 -0.23264354 -0.09502034 -0.01214614 -0.9821879 -0.9090486 -0.7878534 -0.63474995 -0.47007698 -0.31599468 -0.1934804 -0.11942459 -0.98519015 -0.92456573 -0.8241135 -0.6972835 -0.5610877 -0.43371588 -0.33239067 -0.27103707 -0.98890734 -0.94377935 -0.86898226 -0.7745995 -0.6733056 -0.5786456 -0.5033159 -0.45766845 -0.99292624 -0.96471536 -0.91787165 -0.8587632 -0.795307 -0.73602283 -0.68889284 -0.6602669 -0.99658924 -0.9838135 -0.96255165 -0.93568593 -0.9067928 -0.87971896 -0.8581429 -0.84506917 -0.99891186 -0.9965218 -0.9922061 -0.986758 -0.98088235 -0.97536206 -0.9709394 -0.9682306]
weights: [-5.468994350558258e-10 -6.253553197949082e-09 -2.060702204899215e-08 -4.105608758926364e-08 -5.959965750229826e-08 -6.658490461462432e-08 -5.568381953241807e-08 -2.7655923041633137e-08 -4.9277449431059566e-08 -5.6346584348715e-07 -1.856760899451807e-06 -3.699289394604285e-06 -5.370126426219805e-06 -5.9995203134268125e-06 -5.017296463026852e-06 -2.4918902119806363e-06 -7.67796280460055e-08 -8.779410943356101e-07 -2.8930355137337915e-06 -5.76389539295485e-06 -8.367241290400442e-06 -9.347905450419335e-06 -7.817493816653033e-06 -3.882636090470259e-06 -2.0594146792070633e-08 -2.354849617232462e-07 -7.759818530093393e-07 -1.5460156663630438e-06 -2.2442957821563195e-06 -2.507333545937235e-06 -2.0968402596296885e-06 -1.041416579140301e-06 4.173013958227739e-08 4.771656928279221e-07 1.5723803159382146e-06 3.132708055599458e-06 4.54764051159233e-06 5.080636741482954e-06 4.248849811528796e-06 2.110233536237365e-06 8.5203665531633e-08 9.742662378284196e-07 3.2104509562824613e-06 6.396293231928407e-06 9.285270669748167e-06 1.0373530449269938e-05 8.67520650205035e-06 4.308627630173653e-06 1.3720205188774152e-07 1.568844791840349e-06 5.169736019436644e-06 1.0299845087890448e-05 1.4951917623186507e-05 1.670432432782358e-05 1.3969541394780557e-05 6.938111734882685e-06 9.755569800040364e-08 1.1155062669726564e-06 3.6758721820473796e-06 7.3235681465413836e-06 1.0631362578804265e-05 1.1877388107572113e-05 9.932857000042514e-06 4.933252264004559e-06]

number: 4
id: c462ab1cc4dd0821f5a42dd03d2c9dc0
nodes_x: [-0.9109472 -0.91096056 -0.91095674 -0.9107581 -0.91058534 -0.9105548 -0.9108305 -0.911245 -0.7511318 -0.75088125 -0.75067616 -0.7503833 -0.75015765 -0.75015664 -0.7504391 -0.751007 -0.49054027 -0.49052802 -0.49024975 -0.48991394 -0.48951575 -0.4890789 -0.4885984 -0.48821402 -0.15578927 -0.15600039 -0.15588985 -0.1554176 -0.15497677 -0.15465516 -0.15442325 -0.1544663 0.20465872 0.20451075 0.20460917 0.20488882 0.2051489 0.20518237 0.20487696 0.2040077 0.5396818 0.5396551 0.53964406 0.53982866 0.5399454 0.5397549 0.5394247 0.53830934 0.80353934 0.80322266 0.8029952 0.8031229 0.8033887 0.8034735 0.80333215 0.80302054 0.96035427 0.9601632 0.9605193 0.96098554 0.9613892 0.96162623 0.96172535 0.9617755]
nodes_y: [0.9863973 0.9874002 0.9891752 0.99151146 0.9941311 0.99664813 0.9986163 0.9996506 0.93791765 0.94271517 0.95100373 0.9617329 0.9735425 0.98481846 0.9937707 0.99887466 0.8488892 0.86098576 0.8814002 0.90773594 0.93638444 0.96338147 0.98475593 0.9972204 0.71009994 0.73411006 0.77389115 0.8244422 0.87908 0.93026674 0.9707558 0.9945765 0.518984 0.55970716 0.6264786 0.71045274 0.8008735 0.88503915 0.9515244 0.9909068 0.28796905 0.34906605 0.4487484 0.573414 0.7065075 0.83035207 0.9280189 0.98639923 0.05439528 0.13537581 0.26834235 0.43437284 0.6109255 0.77461 0.90362215 0.98139113 -0.11778852 -0.02388451 0.13311546 0.33005634 0.539328 0.73307025 0.8857777 0.9775276]
weights: [9.134990483518444e-07 1.8379519932318923e-06 2.194778861057026e-06 1.960611277359685e-06 1.3480764754502837e-06 6.757649405007941e-07 2.050776875520013e-07 1.8302480507028928e-08 -8.409937728494028e-07 -1.6920720211947315e-06 -2.020577206140159e-06 -1.8049957229979846e-06 -1.2410783823190072e-06 -6.221288439177689e-07 -1.8880047931386588e-07 -1.6849795478035795e-08 -2.2113656236824718e-05 -4.449248045900803e-05 -5.313041686998136e-05 -4.746177226982148e-05 -3.26337502078884e-05 -1.6358674503377435e-05 -4.964446862369573e-06 -4.4305986190555395e-07 -1.453980500582215e-05 -2.9253958873705388e-05 -3.493343176245812e-05 -3.1206278448191614e-05 -2.145680296147792e-05 -1.0755884729579003e-05 -3.2641408805305614e-06 -2.913133825100216e-07 7.154889268003295e-06 1.4395573827040408e-05 1.7190384321636506e-05 1.535629031296376e-05 1.055867318531889e-05 5.292860818197321e-06 1.6062503277043336e-06 1.433523347329674e-07 1.3046795760899829e-05 2.6250037498451028e-05 3.134631786668522e-05 2.8001884565047114e-05 1.92535268394711e-05 9.651424571265326e-06 2.928964961086692e-06 2.6140008084724854e-07 3.496054241620026e-06 7.034030165029197e-06 8.399643065266795e-06 7.5034597843842904e-06 5.159226480344285e-06 2.5862215082089046e-06 7.848532745834393e-07 7.0045463894256e-08 -4.359611324677886e-06 -8.77149936649069e-06 -1.0474431029885947e-05 -9.356882356352813e-06 -6.433602180000609e-06 -3.2250416601340853e-06 -9.787191466740327e-07 -8.734732831096163e-08]

number: 5
id: 86791adeb24851ae9bd3f4419416f295
nodes_x: [-0.9602348 -0.96028686 -0.9602414 -0.9602615 -0.96028924 -0.9603366 -0.9603555 -0.96017396 -0.79659843 -0.7966549 -0.7966683 -0.7966827 -0.7967264 -0.79676396 -0.79672223 -0.79663455 -0.52552354 -0.5255154 -0.52551466 -0.52552 -0.52553916 -0.5255485 -0.5255313 -0.52549475 -0.18345168 -0.18343651 -0.18339787 -0.1833909 -0.18341698 -0.18339424 -0.18339695 -0.18337636 0.18341458 0.18341431 0.18344352 0.18347323 0.18348001 0.18347663 0.18347962 0.18347369 0.52550733 0.52547544 0.5254528 0.5254715 0.5255376 0.5255876 0.5255909 0.5256098 0.7966574 0.7966047 0.79661244 0.7966419 0.79668695 0.79673594 0.7967232 0.7966933 0.9603106 0.96035004 0.9603291 0.96031296 0.96027184 0.96021044 0.96014977 0.96014583]
nodes_y: [-0.9638209 -0.81027436 -0.5548015 -0.2329988 0.11128433 0.4325053 0.6879901 0.8431878 -0.96348923 -0.81277984 -0.56168926 -0.24540238 0.09359048 0.41027915 0.6630491 0.8157061 -0.96397495 -0.81612563 -0.57140625 -0.2630511 0.06800111 0.37816435 0.6251213 0.77269006 -0.9648993 -0.8208819 -0.58294296 -0.28299916 0.03884271 0.3400881 0.5786916 0.7198835 -0.9659152 -0.8261376 -0.59529674 -0.3041614 0.00798669 0.29903704 0.529066 0.66545475 -0.9667639 -0.8305854 -0.6059812 -0.32298815 -0.02029939 0.26149654 0.48428673 0.61720765 -0.96719545 -0.83337903 -0.6135155 -0.33712438 -0.04184362 0.23255514 0.44984725 0.5807236 -0.9676771 -0.83573717 -0.6190562 -0.346827 -0.05624503 0.21426025 0.42862985 0.55859464]
weights: [-6.517634405921969e-10 -9.454347563090243e-09 -3.365550472334574e-08 -6.89295580745713e-08 -1.0144871612935781e-07 -1.1431299673209628e-07 -9.63005240800199e-08 -4.810108841102814e-08 8.500477478226035e-10 1.2330619290082956e-08 4.389443195205747e-08 8.989981939836684e-08 1.3231219687146053e-07 1.4909014431782237e-07 1.2559778365902e-07 6.273475823445861e-08 -9.557916178352785e-10 -1.3864518305433825e-08 -4.9354792406523644e-08 -1.0108313803073118e-07 -1.4877151198982378e-07 -1.6763659524519404e-07 -1.412218421229584e-07 -7.053880940336494e-08 -2.890921387507946e-09 -4.193511613697964e-08 -1.4928026390018376e-07 -3.0573966144555624e-07 -4.499796167258266e-07 -5.070396198084933e-07 -4.271446162095249e-07 -2.1335419661388823e-07 -2.2687515031274294e-09 -3.2910046665644365e-08 -1.1715289961680784e-07 -2.399398750404003e-07 -3.531372164718254e-07 -3.979170462941264e-07 -3.3521665247131696e-07 -1.6743715562724674e-07 -3.4018745077994295e-09 -4.934689790751269e-08 -1.756646605729298e-07 -3.597773238626356e-07 -5.295108313161421e-07 -5.966558497661974e-07 -5.026398805951481e-07 -2.51063278901014e-07 -8.448702698459568e-10 -1.2255515850333424e-08 -4.362707937649767e-08 -8.93522568217565e-08 -1.315063086291842e-07 -1.4818206481203242e-07 -1.2483279162124814e-07 -6.235265284101319e-08 1.7651390878745985e-09 2.56047476655019e-08 9.114755938956692e-08 1.8667855496282134e-07 2.7474860217983145e-07 3.0958830492328184e-07 2.6080600513892524e-07 1.3026982803219562e-07]

number: 6
id: 7ab7046e3fa23fd4161c3d644e6640d6
nodes_x: [-0.96028227 -0.9603495 -0.9603984 -0.96045375 -0.960506 -0.96055555 -0.9606143 -0.96064115 -0.7963967 -0.7965744 -0.7967166 -0.79679745 -0.79689145 -0.7970082 -0.7971221 -0.79722565 -0.52520895 -0.52539104 -0.5255103 -0.52560246 -0.525708 -0.52581817 -0.5259487 -0.5260686 -0.18335162 -0.18339393 -0.18340157 -0.18346107 -0.18354808 -0.1836488 -0.18377596 -0.1839089 0.18329936 0.18333232 0.18338937 0.1833494 0.18324977 0.18315095 0.1830708 0.18303673 0.5257684 0.5256722 0.52556527 0.52543366 0.52534634 0.5252797 0.52525955 0.52533376 0.79737735 0.79716134 0.79694986 0.7968107 0.79673946 0.79667956 0.7966532 0.79678404 0.9601175 0.9600712 0.9601346 0.96021515 0.96030444 0.96041346 0.9605192 0.9605216]
nodes_y: [0.8874016 0.89703184 0.9121947 0.9311337 0.9517155 0.9714188 0.9875662 0.99753934 0.85849714 0.87029517 0.8898577 0.91437334 0.94058424 0.96513903 0.98484063 0.99688834 0.8082819 0.8240094 0.85063267 0.88415134 0.9199237 0.95321256 0.9796409 0.99579644 0.7492938 0.76984876 0.8047658 0.8489678 0.8960066 0.93950826 0.97384757 0.9946937 0.68882984 0.71480006 0.7584416 0.8133892 0.87165433 0.92561924 0.9680931 0.9936785 0.63373315 0.66477674 0.71654135 0.7812769 0.849717 0.9128956 0.96277124 0.9927341 0.5902838 0.6252595 0.68370914 0.7563681 0.8327762 0.9031362 0.95856476 0.9918835 0.56272054 0.6003994 0.6638647 0.7418651 0.82310426 0.8976792 0.95634395 0.9913343]
weights: [3.2370354207316406e-07 6.496866300656362e-07 7.672562716511081e-07 6.760740186288459e-07 4.59403820114055e-07 2.27830590621528e-07 6.838320982548888e-08 6.1863584734682845e-09 1.6425602933833288e-06 3.296687626132428e-06 3.893268138470341e-06 3.430584451673525e-06 2.331140613152168e-06 1.1560747200239503e-06 3.4699510692428935e-07 3.139127463380612e-08 2.4029272638691268e-06 4.822776131387278e-06 5.69552313736597e-06 5.018655901484182e-06 3.4102622337947175e-06 1.6912398741195655e-06 5.076245944921126e-07 4.592278893446534e-08 1.8009300004331538e-06 3.6145422922220166e-06 4.268642934171721e-06 3.7613489641299506e-06 2.55590073762615e-06 1.2675392522395564e-06 3.8045111682096696e-07 3.441790749940181e-08 8.487263960912638e-07 1.7034295905222306e-06 2.0116883681479194e-06 1.7726153431836918e-06 1.2045223419514926e-06 5.9735471184263e-07 1.7929564457846397e-07 1.6220167683332474e-08 1.214922708041866e-06 2.438400997785602e-06 2.879662858634343e-06 2.5374380282921196e-06 1.724232393761061e-06 8.550927690192606e-07 2.5665556185665753e-07 2.3218613368787495e-08 1.1756408078498518e-06 2.359560571156732e-06 2.7865551833470466e-06 2.455395453310997e-06 1.668483065551759e-06 8.274451922761563e-07 2.4835715892300264e-07 2.246788968331149e-08 -3.644911985949318e-07 -7.315491730090575e-07 -8.6393295634801e-07 -7.612614548815266e-07 -5.172901351651423e-07 -2.5653795605814727e-07 -7.699970767520225e-08 -6.9658589476377035e-09]

number: 7
id: 5e9ca2a2b1419a14102e743419fc21cc
nodes_x: [-0.9651768 -0.82163095 -0.5836202 -0.2833015 0.03895117 0.33988282 0.5787362 0.72337884 -0.96782476 -0.8352665 -0.6156266 -0.33847132 -0.04139926 0.23541787 0.45405805 0.5855143 -0.9722459 -0.85781777 -0.6681139 -0.42871824 -0.17221294 0.06657326 0.2551185 0.36851335 -0.97763157 -0.8854826 -0.7325669 -0.5394872 -0.33246154 -0.13984632 0.01229401 0.10380209 -0.98315454 -0.91392636 -0.79893416 -0.65361536 -0.4978699 -0.35301015 -0.23856124 -0.16971226 -0.9880572 -0.9392354 -0.8581569 -0.75569886 -0.6459113 -0.5438027 -0.46319494 -0.4146502 -0.9918024 -0.9585321 -0.9033108 -0.83355933 -0.7588952 -0.68953115 -0.63478374 -0.6018639 -0.9940817 -0.9696804 -0.929353 -0.8786226 -0.82455873 -0.77448857 -0.73500866 -0.71115166]
nodes_y: [-0.9602918 -0.96028984 -0.9603013 -0.96031785 -0.9603259 -0.9603408 -0.9603393 -0.96028364 -0.7966637 -0.7966636 -0.7966603 -0.79666466 -0.79666954 -0.79668283 -0.7967041 -0.79668844 -0.5255287 -0.5255229 -0.5255211 -0.52551943 -0.5255247 -0.5255436 -0.5255546 -0.5255481 -0.18343353 -0.18342774 -0.18342629 -0.1834254 -0.183421 -0.18341935 -0.18342756 -0.18342848 0.18343876 0.1834425 0.18344145 0.18344414 0.18345071 0.18345162 0.18344277 0.1834364 0.5255347 0.5255331 0.52553374 0.52553374 0.52553827 0.5255369 0.5255355 0.5255299 0.79666704 0.7966704 0.7966686 0.796672 0.79667956 0.7966878 0.7966974 0.79670817 0.9602861 0.96029115 0.9603022 0.9602994 0.960292 0.9602826 0.96027905 0.96032006]
weights: [0.009009248022885039 0.019791742445223613 0.027919979433217848 0.032279189493657816 0.032279200417996416 0.02792026872124149 0.01979212744304542 0.009009369048227979 0.018206825060923765 0.039997210803355415 0.056423597169700586 0.0652331420698568 0.065233164146896 0.056424181793014914 0.03999798884698044 0.01820706964151931 0.022168929963197952 0.04870126241427523 0.06870230090865287 0.07942894782516376 0.07942897470653018 0.06870301275562601 0.048702209773003276 0.022169227768558022 0.020672748952326323 0.04541441437286422 0.06406558284452636 0.07406828839564654 0.07406831346278964 0.06406624664894961 0.045415297794354804 0.020673026658803613 0.015549810093434613 0.03416021355607466 0.0481894134667312 0.0557133364872814 0.05571335534250552 0.04818991277297947 0.03416087805581985 0.015550018981134723 0.009481060543425263 0.02082823204626954 0.02938214318277342 0.033969644203896913 0.03396965570034094 0.02938244762075312 0.020828637206350423 0.009481187906841255 0.004570503785579834 0.010040597565894083 0.014164153475260765 0.016375635058714647 0.01637564060076775 0.014164300234679959 0.010040792880086516 0.004570565183244396 0.0015095664265376443 0.003316253458901014 0.004678199942430978 0.005408617968080807 0.005408619798534885 0.004678248414788159 0.0033163179681458045 0.0015095867052328249]

number: 8
id: b162bd935fa02286f7fe201ceaa327c6
nodes_x: [0.76678085 0.78560531 0.81747568 0.8580395 0.90178901 0.94278258 0.97542036 0.99515742 0.63964939 0.66902047 0.71848822 0.78145075 0.84915584 0.91233993 0.96243382 0.99268001 0.4281987 0.47534487 0.55409575 0.65409541 0.7614581 0.8615002 0.94067073 0.98844939 0.16503373 0.23449527 0.34997457 0.49594253 0.65242743 0.79819363 0.91351956 0.98314703 -0.10813231 -0.015885217 0.13733289 0.33098885 0.53860486 0.73196071 0.88505042 0.97756368 -0.3530027 -0.24086842 -0.054134727 0.1820989 0.43564588 0.67210644 0.85933322 0.97249389 -0.53996164 -0.41329962 -0.2011793 0.067654222 0.35648471 0.62601805 0.83962268 0.96860093 -0.64971226 -0.51448894 -0.28732318 0.00057037541 0.30999139 0.5988816 0.82797545 0.96628082]
nodes_y: [-0.9601272 -0.9601489 -0.9601925 -0.96023536 -0.9602622 -0.9602801 -0.9602812 -0.9602727 -0.79667586 -0.7966862 -0.7966938 -0.7966906 -0.7966857 -0.7966839 -0.7966791 -0.79667 -0.52553666 -0.5255345 -0.52553374 -0.52553463 -0.52553123 -0.52552795 -0.5255287 -0.5255259 -0.18343674 -0.18343243 -0.18343498 -0.18344241 -0.1834411 -0.18343613 -0.18343118 -0.18343113 0.18345048 0.1834583 0.18345092 0.18343627 0.18342713 0.183427 0.18343526 0.18343414 0.52556044 0.52557826 0.52557105 0.5255517 0.52553356 0.52553123 0.5255309 0.52552986 0.79671115 0.796729 0.7967213 0.79669666 0.7966784 0.796676 0.79667467 0.7966642 0.9602343 0.9602367 0.9602385 0.9602318 0.9602399 0.9602587 0.96028185 0.9602953]
weights: [0.0012183604053442574 0.002676554037338291 0.003775828464561262 0.004365408116423222 0.004365487538431974 0.0037760404140186913 0.0026768013598103646 0.0012184914178769 0.004137437010782592 0.009089325036226819 0.012822357298477687 0.014824514182202686 0.01482478389185267 0.012823077058842301 0.009090164920012491 0.004137881916985267 0.009262482339253477 0.020348276579045976 0.028705417802187366 0.033187647435553996 0.033188251234684524 0.028707029130081513 0.020350156827303904 0.009263478350995566 0.015637339457642403 0.03435287610709567 0.04846177795599803 0.056028879704416265 0.05602989906527682 0.04846449827225186 0.03435605042680792 0.015639020969481714 0.02075188943075627 0.04558877093727798 0.0643123122373117 0.0743544079032539 0.07435576066942781 0.06431592229529305 0.04559298349094575 0.020754120919550152 0.021914098411223215 0.04814196876384447 0.06791412146466906 0.07851862441427619 0.0785200529420814 0.06791793370384554 0.04814641724146122 0.02191645487448387 0.017680003536801724 0.03884030098073554 0.05479221116754619 0.06334778329909495 0.06334893581635459 0.054795286831479904 0.038843889953392406 0.017681904700062055 0.00862112073923483 0.018939301884535444 0.026717769997149993 0.030889636828838267 0.030890198819135885 0.026719269751947588 0.018941051938857558 0.008622047784185821]

number: 9
id: e0beaea894bc6ef9bb57456b39a0fea5
nodes_x: [-0.96991515 -0.969595 -0.9695293 -0.96955025 -0.9696217 -0.9697116 -0.9697701 -0.9697604 -0.84545505 -0.84523207 -0.844738 -0.84455884 -0.8445564 -0.8445914 -0.84456044 -0.84447116 -0.6384758 -0.63853544 -0.6381895 -0.63774806 -0.6375557 -0.63739717 -0.63721603 -0.6370525 -0.37719816 -0.3771745 -0.37691998 -0.3765553 -0.37600935 -0.37577802 -0.37561637 -0.37548152 -0.0973734 -0.09714477 -0.09681863 -0.09649989 -0.09617835 -0.09600545 -0.09574188 -0.09557066 0.1631396 0.16353053 0.16394682 0.16427667 0.16429715 0.1640729 0.16404007 0.1640149 0.36889237 0.36947066 0.37008226 0.37038836 0.3701915 0.3696171 0.3691313 0.36909696 0.4921293 0.49306053 0.49355423 0.49362913 0.49333608 0.49279377 0.49247864 0.49254158]
nodes_y: [-0.9710158 -0.85103875 -0.6523417 -0.40174672 -0.13302097 0.11787673 0.31753013 0.43967095 -0.97198033 -0.8564346 -0.66501635 -0.423499 -0.16449727 0.07707583 0.2689455 0.3854489 -0.97392935 -0.86670727 -0.6890068 -0.46505815 -0.2249158 -0.00102337 0.17646737 0.28358015 -0.9770255 -0.8827624 -0.7266575 -0.5297584 -0.3188958 -0.12230787 0.03336648 0.12699217 -0.9814185 -0.9052363 -0.7793103 -0.6206327 -0.45061013 -0.29210573 -0.16682898 -0.0917274 -0.9870985 -0.93411636 -0.84665304 -0.73664224 -0.61898345 -0.5094798 -0.42301604 -0.371079 -0.9934344 -0.96639425 -0.92173225 -0.8656808 -0.8057819 -0.7501749 -0.7062585 -0.67999774 -0.9983601 -0.992496 -0.98266035 -0.9702897 -0.9571035 -0.9449008 -0.93529207 -0.9294666]
weights: [-1.1755435097394983e-08 -1.3359552092342492e-07 -4.4007404474908216e-07 -8.757101423625029e-07 -1.2693102457526632e-06 -1.4159079612838668e-06 -1.1831944593397024e-06 -5.885982675889083e-07 -1.6419101431347876e-07 -1.8659610560068141e-06 -6.146620961430776e-06 -1.223125603840583e-05 -1.7728764184560422e-05 -1.977633004747273e-05 -1.6525964100820416e-05 -8.221094819365328e-06 -3.3506206583196837e-07 -3.80783789418566e-06 -1.2543314418479764e-05 -2.4960135200355873e-05 -3.617881512678482e-05 -4.0357251144267255e-05 -3.372427958154879e-05 -1.677666116562209e-05 -4.6721035379119804e-07 -5.30964699123595e-06 -1.749039048219534e-05 -3.480439830954377e-05 -5.04477192103516e-05 -5.627412801367127e-05 -4.702511624383762e-05 -2.339336677568321e-05 -4.906438118612797e-07 -5.57595827720473e-06 -1.8367640587352578e-05 -3.655005185044455e-05 -5.2977981014813564e-05 -5.909661987100736e-05 -4.938371356686091e-05 -2.4566687261857634e-05 -2.0605622582921174e-07 -2.3417413818454672e-06 -7.713878388600546e-06 -1.534996581245776e-05 -2.2249221443458324e-05 -2.4818872989936446e-05 -2.073973295702183e-05 -1.0317298895713321e-05 -3.4141865064577007e-08 -3.8800777774786193e-07 -1.278127821706517e-06 -2.543366304055186e-06 -3.6865176640867975e-06 -4.112288329398092e-06 -3.4364075205419804e-06 -1.7094937331343487e-06 -3.131845416448748e-08 -3.5592091351414906e-07 -1.172431193338726e-06 -2.3330389498755742e-06 -3.38165575521134e-06 -3.7722166996973506e-06 -3.152228831642108e-06 -1.568124676973033e-06]

number: 10
id: b8c54ff4220583c23f543c02db5f54e2
nodes_x: [-0.9602841 -0.960295 -0.9603161 -0.9603347 -0.96034425 -0.96034706 -0.96033263 -0.960296 -0.7966675 -0.796667 -0.7966809 -0.7966966 -0.7967054 -0.7967046 -0.79668164 -0.7966491 -0.5255326 -0.5255439 -0.525551 -0.5255545 -0.52554965 -0.52553904 -0.5255194 -0.525504 -0.18344077 -0.1834529 -0.18345894 -0.1834561 -0.18345182 -0.18344598 -0.1834381 -0.18343735 0.18342555 0.18341833 0.1834164 0.18341914 0.18342668 0.18343683 0.18344228 0.18343452 0.5255243 0.52551806 0.52551395 0.5255165 0.5255322 0.5255546 0.52555656 0.5255498 0.7966596 0.7966545 0.79665965 0.7966658 0.7966757 0.7966881 0.7966892 0.7966747 0.96030045 0.9602939 0.9602974 0.9602996 0.96029633 0.9602917 0.9602811 0.9602646]
nodes_y: [-0.97632664 -0.879304 -0.7186419 -0.5159501 -0.29872605 -0.09641494 0.06406146 0.16141015 -0.97736573 -0.88391036 -0.7293273 -0.5344215 -0.32558575 -0.13103266 0.02306189 0.11616042 -0.97909653 -0.89264536 -0.7493597 -0.568731 -0.37529856 -0.19511753 -0.05240162 0.03371966 -0.9815201 -0.90512973 -0.7784883 -0.618829 -0.44778144 -0.28846902 -0.16226424 -0.08608447 -0.9845864 -0.9209605 -0.81555486 -0.6826552 -0.5402571 -0.40755695 -0.3024397 -0.23905943 -0.9880341 -0.9387537 -0.85716397 -0.7542749 -0.6440252 -0.5412926 -0.45997122 -0.41095388 -0.99132395 -0.95558894 -0.89637774 -0.82166404 -0.7416433 -0.66709596 -0.6081749 -0.5728208 -0.9935894 -0.9670811 -0.92306733 -0.8675693 -0.80816495 -0.7528779 -0.7091968 -0.6831734]
weights: [5.706875974826731e-10 6.374765578434969e-09 2.0943240679597335e-08 4.1647214851232925e-08 6.03400250096575e-08 6.72541658272206e-08 5.6157473180231684e-08 2.7920990445495906e-08 -1.9384923202897717e-09 -2.1653588008488237e-08 -7.113929126629111e-08 -1.414658501546011e-07 -2.049609551762953e-07 -2.2844667474575744e-07 -1.9075380465064883e-07 -9.484107555906929e-08 -4.250482849311673e-09 -4.747927216053248e-08 -1.5598531615248177e-07 -3.101885746730962e-07 -4.494126779027707e-07 -5.009092183785256e-07 -4.1826101998037947e-07 -2.0795561625636818e-07 -5.876283759106001e-10 -6.563999568573544e-09 -2.15649377367628e-08 -4.288350637403307e-08 -6.213120988652039e-08 -6.925059596984099e-08 -5.782449961363415e-08 -2.874982099080976e-08 -1.5412358280439224e-09 -1.7216104131583855e-08 -5.6560670028793436e-08 -1.1247516145453286e-07 -1.6295817329861282e-07 -1.8163094907852228e-07 -1.5166250337237543e-07 -7.540523224771303e-08 -3.789766176813065e-09 -4.233291748555746e-08 -1.3907781684847856e-07 -2.7656673615806303e-07 -4.007001149111136e-07 -4.466148625378462e-07 -3.7292503529514766e-07 -1.854149725352562e-07 -1.5908279367549005e-09 -1.7770064072131447e-08 -5.838061402814469e-08 -1.1609425746349162e-07 -1.6820165343222995e-07 -1.8747526025276495e-07 -1.5654252446828237e-07 -7.78315348335744e-08 1.719256333580947e-09 1.9204650923136432e-08 6.309371246709295e-08 1.2546660944591955e-07 1.817806635782655e-07 2.0261023906632724e-07 1.6918028684852726e-07 8.411491659362616e-08]

number: 11
id: 372a56cac67dbaa6ce4091cd1fdc1159
nodes_x: [-0.9602768 -0.9602595 -0.9602534 -0.9602609 -0.960276 -0.96028113 -0.9602744 -0.9602612 -0.79663754 -0.7966215 -0.7966194 -0.79665303 -0.7966775 -0.7966866 -0.7966846 -0.79668045 -0.5254971 -0.52549714 -0.5254935 -0.5255098 -0.5255321 -0.5255461 -0.5255488 -0.5255466 -0.18341473 -0.1834153 -0.1834074 -0.18340561 -0.18340293 -0.18341589 -0.18342526 -0.18343146 0.18341678 0.18343064 0.18343608 0.18344377 0.18346296 0.18346368 0.1834628 0.18345313 0.52548605 0.5254977 0.5254934 0.52549946 0.52550626 0.5255317 0.5255491 0.5255516 0.7966174 0.7966207 0.796609 0.79659927 0.7965928 0.796598 0.7966335 0.796667 0.9602892 0.9602794 0.9602757 0.96027124 0.9602617 0.9602523 0.9602488 0.9602681]
nodes_y: [0.2140996 0.27993754 0.38902417 0.5263858 0.6734786 0.8105439 0.91902107 0.98420787 0.16749407 0.23703371 0.35234058 0.4978593 0.653845 0.7991514 0.9140138 0.9831449 0.08418528 0.16048495 0.28717914 0.44723865 0.6188588 0.7787557 0.9051938 0.9814009 -0.03567388 0.050531 0.19362557 0.37449583 0.5685779 0.749452 0.892605 0.97894305 -0.18694295 -0.08823119 0.07562356 0.2827491 0.5051031 0.71249384 0.87677044 0.9758655 -0.3557679 -0.243296 -0.05635223 0.18021765 0.43428862 0.6712541 0.85907835 0.9724324 -0.5167201 -0.39050788 -0.18108794 0.0836098 0.36767712 0.6325835 0.84247774 0.9691621 -0.6310708 -0.4926704 -0.26669738 0.01745171 0.32197577 0.6060571 0.83127475 0.96700424]
weights: [-3.662773953036565e-08 -7.35562862954087e-08 -8.806555115895734e-08 -7.902282678173368e-08 -5.4578279966231355e-08 -2.7463246780178987e-08 -8.353905132386484e-09 -7.455657209679674e-10 2.213292550134972e-07 4.444761881585816e-07 5.321508528858557e-07 4.775086752531339e-07 3.297984041529377e-07 1.6595127157846099e-07 5.04798718979553e-08 4.505205827638849e-09 3.601732708199248e-07 7.233044835436965e-07 8.65979118945767e-07 7.770588727654754e-07 5.366871628773671e-07 2.7005563398067247e-07 8.21468475595267e-08 7.331406408785486e-09 1.4073646555612813e-07 2.8262873672748166e-07 3.3837835930576504e-07 3.0363307924845665e-07 2.0970866116955697e-07 1.0552330922124811e-07 3.2098597865931035e-08 2.8647218134181895e-09 -3.0578425122332314e-07 -6.140797716704031e-07 -7.352094059035754e-07 -6.597168219177181e-07 -4.556431460558753e-07 -2.292750920617497e-07 -6.974202226101657e-08 -6.224305912598344e-09 -4.769567252984071e-07 -9.578304827543368e-07 -1.1467662878172794e-06 -1.0290143254511319e-06 -7.107039096292684e-07 -3.5761912742327047e-07 -1.087823405562161e-07 -9.708559395886852e-09 -2.558361931639217e-07 -5.137734545013852e-07 -6.15117275766139e-07 -5.51955961140606e-07 -3.812165193655883e-07 -1.918243549356206e-07 -5.835007331944324e-08 -5.2076021685102134e-09 4.9541365646817335e-08 9.94895923610507e-08 1.1911430317007196e-07 1.0688343878806368e-07 7.38206222619832e-08 3.714580173471173e-08 1.1299192198286642e-08 1.0084254302831209e-09]

number: 12
id: c2f7797bc14d819a0c24c6b87c4e0a1c
nodes_x: [-0.38049674 -0.3808905 -0.3810813 -0.38106441 -0.38099745 -0.3809847 -0.38130927 -0.38229525 -0.26580626 -0.26620463 -0.26638886 -0.266663 -0.26680663 -0.26684386 -0.26676822 -0.266537 -0.07532467 -0.07572719 -0.07583485 -0.07592776 -0.07608946 -0.07626277 -0.07631679 -0.07607195 0.1651071 0.16479646 0.16474901 0.16473167 0.16462822 0.16438481 0.16411303 0.16416036 0.42325065 0.42302912 0.42299488 0.42302737 0.42296767 0.42276412 0.42246267 0.42235225 0.66449094 0.6643593 0.6642859 0.66422826 0.6641572 0.6640787 0.6639073 0.663708 0.856431 0.8563548 0.8561627 0.85590416 0.85569674 0.8555904 0.8556172 0.8555349 0.97291225 0.972759 0.972337 0.9719653 0.97173256 0.97162944 0.9716762 0.97178465]
nodes_y: [0.9816767 0.9831424 0.9856616 0.9888859 0.9923644 0.99560934 0.99815756 0.99955064 0.90518105 0.9129454 0.92606616 0.9427401 0.96060956 0.9772816 0.9904216 0.99818707 0.7898283 0.8073018 0.8364833 0.8734243 0.91287166 0.94956046 0.9785505 0.9958587 0.65985906 0.68844706 0.73586535 0.79549444 0.85922337 0.9184587 0.9652936 0.9932901 0.5359867 0.57527024 0.6400718 0.72128826 0.8080814 0.8888513 0.95270187 0.9908945 0.4321104 0.48057166 0.56012434 0.6595459 0.76549137 0.8640419 0.94201493 0.98883617 0.35690287 0.4119511 0.5021548 0.61496496 0.7349656 0.84628624 0.9342272 0.98717374 0.31421897 0.37263012 0.4688949 0.58950377 0.71769774 0.83638275 0.9300095 0.9862296]
weights: [3.3348619782189372e-06 6.7010566572204944e-06 8.001462598818765e-06 7.149372183173712e-06 4.9168303515463555e-06 2.4654173820071035e-06 7.480013524701935e-07 6.655676878044938e-08 2.976615076153394e-06 5.981196943776809e-06 7.141907028980443e-06 6.381352261190781e-06 4.388640803394783e-06 2.200570397282928e-06 6.676474520648763e-07 5.9406920785893704e-08 4.294070085690689e-06 8.628485113394963e-06 1.0302927500978826e-05 9.205749870233428e-06 6.331060855558184e-06 3.1745466822805733e-06 9.631493754994517e-07 8.570052724430823e-08 6.289569408349607e-06 1.2638232475630367e-05 1.5090805770157157e-05 1.3483758208251378e-05 9.27317111386028e-06 4.64979175928799e-06 1.4107349733296212e-06 1.2552645943796543e-07 5.9684276110245815e-06 1.1992931592735677e-05 1.4320277905137093e-05 1.2795285267648254e-05 8.799688329100134e-06 4.412376065809433e-06 1.3387036568005576e-06 1.1911715060002817e-07 4.498981951732545e-06 9.04023409522737e-06 1.0794580421818368e-05 9.645045770528613e-06 6.633177371602032e-06 3.3260351935349175e-06 1.0091106038614001e-06 8.979013328425659e-08 3.650196745410442e-06 7.334688919887703e-06 8.758057433108606e-06 7.825395847022775e-06 5.38175140805528e-06 2.698540018344907e-06 8.187301664003254e-07 7.285018161896534e-08 2.0908365072419646e-06 4.201317472064084e-06 5.016624442693236e-06 4.4823949123145455e-06 3.082672826063673e-06 1.545726540275708e-06 4.6896949421766144e-07 4.1728660100214156e-08]

number: 13
id: e4666d7885f2f45be9f58617a3839c55
nodes_x: [-0.97521406 -0.87338096 -0.7047703 -0.4920924 -0.26401028 -0.05120799 0.11734744 0.21907854 -0.97610956 -0.87848604 -0.7166691 -0.5124355 -0.2933576 -0.08895738 0.07304665 0.17067859 -0.97790796 -0.8877723 -0.73867965 -0.55034536 -0.3482648 -0.15970899 -0.01025517 0.07961444 -0.9808478 -0.9021876 -0.77218866 -0.60817176 -0.43199527 -0.26766273 -0.13748936 -0.05928006 -0.98493314 -0.9223612 -0.81896514 -0.6884379 -0.5483361 -0.41757587 -0.31407183 -0.2518407 -0.9899511 -0.94769645 -0.8778016 -0.789464 -0.69448024 -0.6057895 -0.5357164 -0.49355334 -0.9951517 -0.9745939 -0.94040364 -0.8969453 -0.85002816 -0.80617666 -0.7714335 -0.7505973 -0.9990104 -0.9947446 -0.9874554 -0.97808176 -0.9678706 -0.95825624 -0.95068175 -0.94617456]
nodes_y: [-0.96420884 -0.96403354 -0.96402687 -0.9641086 -0.96423155 -0.96431607 -0.96441954 -0.96453935 -0.81726027 -0.8171228 -0.8170319 -0.81714714 -0.81742305 -0.8177461 -0.8180062 -0.81809396 -0.5736226 -0.5735144 -0.57339406 -0.57342243 -0.57356596 -0.57375187 -0.57390034 -0.5740335 -0.26620916 -0.26598293 -0.2656739 -0.26548842 -0.26547402 -0.2655173 -0.26561907 -0.2658432 0.06313471 0.06337278 0.06373685 0.06405623 0.0642439 0.06434961 0.06431574 0.06395712 0.36955652 0.3696998 0.36987162 0.37003466 0.37018025 0.37035227 0.37046912 0.37024936 0.6116675 0.6118758 0.61179173 0.6117632 0.6118299 0.61197305 0.61209357 0.6120304 0.7570001 0.7573948 0.7575234 0.75766313 0.7578756 0.7580654 0.75809795 0.7577662]
weights: [0.005710650410749649 0.012546879266825125 0.01770078196277681 0.02046693143381357 0.020470918616331386 0.01770932826562015 0.01255481769402301 0.005714288758309552 0.012046276265074195 0.026466893092982405 0.03733874327696076 0.04317377051936964 0.04318218124296051 0.037356771192818154 0.026483638731439958 0.012053951142137663 0.015670583600333556 0.03442986460946129 0.048572677994231796 0.05616326285218491 0.05617420407121974 0.04859612988561852 0.03445164843058707 0.015680567582105093 0.01578800579916119 0.03468785311269066 0.048936640868780266 0.05658410319774151 0.056595126401087166 0.048960268488954344 0.034709800163485516 0.015798064592511065 0.012559106825984628 0.027593633948974808 0.038928317369158166 0.045011751690053864 0.0450205204725172 0.038947112764193166 0.027611092477870365 0.012567108435676733 0.007355723715259658 0.01616127248863935 0.02279986556647684 0.02636286273852525 0.02636799851306823 0.022810873812119797 0.016171497747235357 0.007360410165577184 0.002568887605125201 0.005644107117969831 0.007962546490257308 0.009206875345810057 0.009208668946015408 0.007966390972035178 0.005647678152049319 0.0025705242848862624 0.00025264077781131904 0.0005550774621238457 0.0007830875646890558 0.0009054627940656615 0.000905639188139913 0.0007834656555267807 0.0005554286603723143 0.0002528017393290739]

number: 14
id: b82cb4a2b13b42c5d4a9a76d868c5d30
nodes_x: [-0.9865782 -0.9309945 -0.83854145 -0.72139746 -0.5948705 -0.4755946 -0.37976754 -0.3207525 -0.98728865 -0.9350849 -0.8482355 -0.7381915 -0.6194007 -0.5075939 -0.41795936 -0.3630736 -0.9886508 -0.9422966 -0.86539906 -0.7680675 -0.6631679 -0.5646311 -0.48586762 -0.43788972 -0.9906763 -0.9525665 -0.8895133 -0.8098001 -0.72397935 -0.6435555 -0.57939106 -0.5404442 -0.9931682 -0.9651642 -0.9188605 -0.86038303 -0.79749465 -0.7385922 -0.6916695 -0.6632054 -0.99574566 -0.9785277 -0.95001704 -0.91403985 -0.8753589 -0.839122 -0.8102463 -0.7927628 -0.9979368 -0.9903167 -0.97761685 -0.96161443 -0.9444193 -0.9283064 -0.9154298 -0.90758425 -0.99940443 -0.9979562 -0.9955421 -0.9924246 -0.98906475 -0.98590916 -0.98339164 -0.9818747]
nodes_y: [-0.98018545 -0.98019415 -0.9801868 -0.9802063 -0.98026115 -0.9803273 -0.98038197 -0.9804162 -0.89878595 -0.89871955 -0.8986894 -0.8986815 -0.8987829 -0.89889556 -0.89893335 -0.89882344 -0.76399875 -0.76395893 -0.7638121 -0.76369536 -0.76367855 -0.763696 -0.76362324 -0.76347846 -0.59360766 -0.5936056 -0.59351856 -0.5933806 -0.5933202 -0.5933163 -0.5932758 -0.5931496 -0.41010416 -0.4101764 -0.41023877 -0.41020685 -0.41018787 -0.41019523 -0.41022822 -0.41019773 -0.23843466 -0.23858148 -0.23875079 -0.23880032 -0.23884845 -0.23888049 -0.23901401 -0.23906709 -0.10268368 -0.1026812 -0.10281767 -0.10281876 -0.10292882 -0.10306095 -0.10322277 -0.10328704 -0.02043936 -0.01987618 -0.01948675 -0.01945705 -0.01969711 -0.02007679 -0.02049153 -0.02079193]
weights: [0.0017752443783693038 0.003902218999743604 0.005506940320202067 0.00636703194631514 0.006365804531371255 0.005504363459764157 0.0039004817463118477 0.001775019047656914 0.0036561719800478026 0.00803674352709581 0.011341717872675745 0.013113103796768605 0.01311057589684654 0.011336410747051589 0.008033165598672646 0.0036557079043143875 0.004550735528441233 0.010003111041085883 0.014116720646184593 0.01632151541605335 0.016318369009360654 0.014110115014594082 0.009998657693135524 0.00455015790628903 0.004300898836476889 0.009453937362185466 0.013341708614484395 0.015425459516098963 0.01542248584804044 0.013335465633971847 0.009449728504320968 0.004300352925947303 0.0031520112017793854 0.006928532290459369 0.009777773577715566 0.01130489765882677 0.01130271833878526 0.009773198267935865 0.006925447733570218 0.003151611118873499 0.001677172455008282 0.003686644103496185 0.005202713907423518 0.0060152904752903006 0.006014130867880846 0.005200279403532378 0.003685002823209024 0.001676959572506756 0.0005292157913140159 0.0011632854276248232 0.001641666812065535 0.001898067607393838 0.0018977017043222868 0.0016408986275539426 0.0011627675372651621 0.0005291486182685931 4.6738289971131733e-05 0.000102736865618698 0.00014498565756662125 0.0001676299832227549 0.0001675976680799716 0.00014491781448437878 0.00010269112754700706 4.673235750780252e-05]

number: 15
id: c7a14376ff2627413a7afdb816ee5572
nodes_x: [-0.586958 -0.58662194 -0.5866098 -0.5867105 -0.5869049 -0.58712393 -0.5873909 -0.5877727 -0.45663342 -0.45648274 -0.45641154 -0.4565328 -0.4565788 -0.4564889 -0.456326 -0.45640388 -0.23834415 -0.2385124 -0.23836759 -0.23839204 -0.23841918 -0.23828927 -0.23802254 -0.2381426 0.03838897 0.03818626 0.03838857 0.03861028 0.0387884 0.03894936 0.03913033 0.03900469 0.33576474 0.3358128 0.3360775 0.33632395 0.3365529 0.33671215 0.33686286 0.3368101 0.61349165 0.61353594 0.6137484 0.613979 0.6140682 0.6140686 0.6141471 0.61422 0.8340547 0.83389735 0.8339194 0.8339553 0.8339645 0.8338963 0.83381206 0.833884 0.96746784 0.96738786 0.96728516 0.9672285 0.9672159 0.96722335 0.9672533 0.96722317]
nodes_y: [0.9611985 0.9643964 0.96973556 0.97650456 0.9837935 0.9906009 0.9960407 0.99922353 0.8151317 0.8303943 0.8558966 0.88820064 0.92287225 0.9552267 0.980859 0.9964123 0.6127907 0.6448465 0.6981748 0.7657524 0.83833313 0.90603894 0.95976233 0.9922489 0.4081131 0.4573099 0.5390196 0.6422246 0.7530184 0.8564264 0.93848175 0.98806095 0.23220442 0.29615718 0.40221837 0.5360948 0.67985374 0.8139206 0.92028177 0.9844996 0.0973518 0.1726176 0.29733026 0.45475018 0.62363213 0.78125614 0.9062564 0.9817633 0.00563891 0.08847497 0.22580452 0.39919493 0.585259 0.7588677 0.89653623 0.9797928 -0.04421225 0.04256372 0.18678828 0.3688678 0.56427276 0.74665606 0.8912811 0.9786753]
weights: [2.2755295572057198e-06 4.583379792907778e-06 5.4915158107101535e-06 4.9272905936692995e-06 3.4018688995234324e-06 1.7110053001284567e-06 5.208678800073582e-07 4.6506469831619734e-08 -1.408438638708085e-06 -2.836882155963827e-06 -3.3989727922401575e-06 -3.049745688554616e-06 -2.105586186185053e-06 -1.0590264442420421e-06 -3.2239108718288e-07 -2.8785171721170235e-08 -1.744569715950193e-06 -3.5139185769240676e-06 -4.210155015429006e-06 -3.777583079148105e-06 -2.608095087558053e-06 -1.3117685160283415e-06 -3.993313673270233e-07 -3.565490002407388e-08 -6.16159580549956e-06 -1.2410708363494518e-05 -1.4869725896532137e-05 -1.334193746606891e-05 -9.211456329269733e-06 -4.632997645350258e-06 -1.4103870171714237e-06 -1.2592852003864082e-07 -1.0461063131353518e-05 -2.10707108667293e-05 -2.524559322938797e-05 -2.265173739610493e-05 -1.563906968811369e-05 -7.86583255139239e-06 -2.394533509176756e-06 -2.137995155388698e-07 -6.304427450321209e-06 -1.269840037460916e-05 -1.5214420270342421e-05 -1.3651216252529603e-05 -9.424986638664269e-06 -4.740394932518877e-06 -1.4430811282193912e-06 -1.288476627761474e-07 1.047401218208383e-06 2.1096792891138387e-06 2.527684306158373e-06 2.2679776467563417e-06 1.5658428247011902e-06 7.875569139678414e-07 2.397497542133676e-07 2.140641636667002e-08 6.833850702852138e-07 1.3764766588074434e-06 1.649207282933678e-06 1.4797596533113063e-06 1.0216463282756343e-06 5.138476332175148e-07 1.5642659163049432e-07 1.3966782832575342e-08]

number: 16
id: a17c9d2e4ea7cce7a03918940cb72d87
nodes_x: [-0.9944797 -0.9707637 -0.9312093 -0.8810025 -0.82635975 -0.77353483 -0.7293372 -0.70086515 -0.99485755 -0.9727709 -0.93587095 -0.8892479 -0.83855724 -0.78982943 -0.74940884 -0.7235694 -0.9954463 -0.9763 -0.9441801 -0.90367794 -0.86004096 -0.8185151 -0.78447324 -0.7631043 -0.99635255 -0.9811086 -0.95558256 -0.9234211 -0.88892907 -0.85652125 -0.83039236 -0.81416863 -0.99741673 -0.98667115 -0.96863115 -0.94600224 -0.92183584 -0.89927083 -0.88120747 -0.87000585 -0.99844325 -0.99216884 -0.98157215 -0.96824753 -0.95409995 -0.94097 -0.9303312 -0.923735 -0.999223 -0.9966012 -0.992168 -0.9865647 -0.98058146 -0.97500604 -0.9705392 -0.96768254 -0.99971074 -0.9992522 -0.9984661 -0.9974176 -0.9962673 -0.9951638 -0.9942509 -0.9936709]
nodes_y: [-0.98208076 -0.98201686 -0.9821109 -0.9820748 -0.98191744 -0.9816223 -0.98132044 -0.98130304 -0.90834373 -0.9082515 -0.90828377 -0.9080968 -0.90747494 -0.90653294 -0.90592533 -0.9062649 -0.78612065 -0.78605855 -0.7859397 -0.7856315 -0.78500825 -0.7841176 -0.78358346 -0.7838321 -0.6318719 -0.6319089 -0.63183784 -0.6316498 -0.6311915 -0.63065463 -0.6304246 -0.6304816 -0.4656762 -0.4659656 -0.46618566 -0.46619985 -0.46616313 -0.46598607 -0.46589372 -0.46576852 -0.31038153 -0.31096193 -0.31153396 -0.31189325 -0.3120805 -0.31207803 -0.31195956 -0.31192544 -0.18913282 -0.18990204 -0.19058967 -0.19105536 -0.19138838 -0.19148305 -0.1913403 -0.19118778 -0.11696061 -0.11632561 -0.11608835 -0.11640907 -0.11687308 -0.11722036 -0.11736439 -0.11741906]
weights: [0.0007056595784235243 0.0015512315536013053 0.002189116004272296 0.0025298467779597176 0.002528030868148409 0.0021850194558767793 0.0015481222499184864 0.0007046512616006417 0.00143233063438834 0.003148652045816115 0.004443414375744662 0.005135021405754282 0.005131335516224043 0.004435099301533862 0.0031423408568906175 0.001430283977446744 0.0017304782826279006 0.0038040616140026153 0.0053683359786732094 0.006203904887702035 0.006199451759610583 0.0053582900751682734 0.0037964367157347655 0.001728005602574574 0.001568746935469918 0.0034485321539216036 0.0048666086709435825 0.005624084900822839 0.005620047964262091 0.004857501662496495 0.00344161988237735 0.0015665053533044583 0.0010971079530264 0.0024117414777300155 0.0034034776141634903 0.003933220925362405 0.003930397681468492 0.00339710860003529 0.0024069073595473986 0.0010955402957035499 0.0005564254597022316 0.001223174398405415 0.0017261579326110343 0.0019948303678485406 0.001993398489812119 0.0017229277294169383 0.0012207226556898531 0.0005556303834801367 0.00016652539773926746 0.00036606808629489104 0.0005165995395729577 0.0005970070467410267 0.0005965785184352645 0.0005156328137298172 0.0003653343358459418 0.00016628744963353517 1.451587105661335e-05 3.1909830036363456e-05 4.5031523155933616e-05 5.2040574158849665e-05 5.200321972694316e-05 4.49472545225802e-05 3.184586966125385e-05 1.449512933151996e-05]

number: 17
id: d867dcf7063faaeb15b41bc2985ce00b
nodes_x: [-0.96033096 -0.96030957 -0.9603212 -0.96030366 -0.960277 -0.96023333 -0.96022373 -0.9603517 -0.7966784 -0.79666066 -0.79664916 -0.7966537 -0.79662806 -0.79659224 -0.7966164 -0.79667455 -0.5255164 -0.5255248 -0.52553576 -0.52553385 -0.52552396 -0.52550274 -0.5254984 -0.52550685 -0.18343458 -0.18344627 -0.18346506 -0.18346485 -0.18344775 -0.18342945 -0.1834265 -0.18343355 0.18341146 0.1834113 0.183408 0.18340075 0.18340461 0.18341775 0.18343471 0.1834287 0.5255001 0.5255445 0.5255685 0.52556807 0.52554077 0.52551526 0.525537 0.5255313 0.7966338 0.7967113 0.7967479 0.7967402 0.7967042 0.79667294 0.79668844 0.7967227 0.96022975 0.9602875 0.9603279 0.9603171 0.9602883 0.96025854 0.96028656 0.96033627]
nodes_y: [-0.98260057 -0.9115387 -0.7938707 -0.64496005 -0.484719 -0.33479357 -0.21579204 -0.14415507 -0.98285663 -0.9124855 -0.79604983 -0.6487704 -0.49037662 -0.3423714 -0.22549498 -0.15549533 -0.983187 -0.91430485 -0.8001531 -0.6558893 -0.5008855 -0.35641134 -0.24261574 -0.17486233 -0.9836394 -0.9167161 -0.80582285 -0.66564655 -0.515149 -0.37498412 -0.264681 -0.19889791 -0.98420495 -0.9195023 -0.81224287 -0.676688 -0.5311628 -0.39563283 -0.28890938 -0.22512852 -0.98472416 -0.9221361 -0.8184178 -0.68742055 -0.54678375 -0.4156845 -0.31233954 -0.25056368 -0.9850822 -0.9241388 -0.8232828 -0.6960342 -0.5595153 -0.43230245 -0.33190778 -0.27210137 -0.985455 -0.92575157 -0.82665485 -0.7016526 -0.567773 -0.44311306 -0.34483704 -0.28627828]
weights: [1.6446344738061617e-10 1.7989809516679535e-09 5.8537568972720155e-09 1.1703106691143284e-08 1.7144930385495355e-08 1.9340930348857208e-08 1.633375221950191e-08 8.18870074564784e-09 -6.706812356020175e-11 -7.336236633158163e-10 -2.3871595611700345e-09 -4.7725219074565706e-09 -6.9916952845108945e-09 -7.887223131133854e-09 -6.660897175066679e-09 -3.339348664725575e-09 -2.346846966848124e-10 -2.5670950336269615e-09 -8.35314584354765e-09 -1.6700002874952935e-08 -2.4465331666618305e-08 -2.7598961622268723e-08 -2.3307803322931456e-08 -1.1685044800791166e-08 -2.926328266424088e-11 -3.2009597837512595e-10 -1.0415696950349241e-09 -2.0823552260832563e-09 -3.0506288912232534e-09 -3.4413671901098092e-09 -2.9062944732076155e-09 -1.457030534074866e-09 -4.898048476943808e-10 -5.3577229777847115e-09 -1.7433651982696927e-08 -3.4854178735171843e-08 -5.1061011732069966e-08 -5.760113626869142e-08 -4.86451618616248e-08 -2.4387579036055322e-08 -7.667185902145794e-10 -8.386739795704311e-09 -2.7289858672050746e-08 -5.455917169605527e-08 -7.992862282688249e-08 -9.016624111128743e-08 -7.614695954699282e-08 -3.817522489883164e-08 -1.5486639440164548e-09 -1.6940037316455585e-08 -5.512168441211499e-08 -1.1020186949873856e-07 -1.614446002049341e-07 -1.8212315229954856e-07 -1.538061711323625e-07 -7.710859643952792e-08 -8.446791906904551e-10 -9.239510654338436e-09 -3.006471478761648e-08 -6.010679482816229e-08 -8.805583339712522e-08 -9.933442144420627e-08 -8.388964736813247e-08 -4.2056914340562265e-08]

number: 18
id: 0a96c8d6dc0ed2d3d4032f3df7e72eef
nodes_x: [-0.96029806 -0.9603071 -0.96031845 -0.96031326 -0.9602988 -0.9602692 -0.96024925 -0.9602681 -0.79668903 -0.7966836 -0.7966722 -0.79668814 -0.79668194 -0.7966633 -0.79665333 -0.79667586 -0.5255399 -0.5255557 -0.52554774 -0.5255469 -0.5255442 -0.52552545 -0.52552223 -0.5255395 -0.18341886 -0.18343484 -0.1834349 -0.18343292 -0.18341771 -0.18340841 -0.18340752 -0.18342672 0.18343475 0.18343598 0.18344517 0.1834449 0.18344624 0.18345287 0.18345731 0.18344097 0.52550113 0.52550954 0.52550924 0.5255155 0.52551407 0.5255137 0.5255239 0.5255245 0.7966228 0.7966287 0.7966396 0.7966429 0.79663575 0.7966189 0.7966101 0.79662824 0.96028763 0.9602835 0.96029013 0.96028847 0.96027845 0.96026516 0.96026313 0.96025354]
nodes_y: [-0.11729926 -0.02410594 0.13087413 0.32637668 0.5358127 0.7308435 0.8852082 0.97760487 -0.12682858 -0.0333 0.12284474 0.32013988 0.53154963 0.72854227 0.88415915 0.97742546 -0.1433794 -0.04853854 0.10949842 0.30948642 0.5239425 0.7237586 0.88177145 0.9768713 -0.16470891 -0.06789521 0.09296312 0.29628208 0.5144371 0.71791446 0.8791458 0.97636205 -0.18708402 -0.08833002 0.07552447 0.28248656 0.5047641 0.7121439 0.8766239 0.97589463 -0.20777541 -0.1074577 0.05904669 0.26967743 0.49579304 0.70677 0.87418747 0.97542965 -0.22405463 -0.12291426 0.04559153 0.2592239 0.48860615 0.7025843 0.8720497 0.9748289 -0.23284894 -0.13179275 0.03763067 0.25276142 0.48416868 0.7001091 0.87117183 0.9743483]
weights: [-9.61726972396543e-09 -1.968975672162463e-08 -2.4050393802735275e-08 -2.1952100373823664e-08 -1.5400267699221027e-08 -7.927359444735164e-09 -2.5664490438031426e-09 -2.710462899159412e-10 -9.2873230258074e-09 -1.9014245853748475e-08 -2.3225279372925883e-08 -2.1198973629553636e-08 -1.4871919464852009e-08 -7.6553897330628e-09 -2.478400001580322e-09 -2.617473068393935e-10 -3.9791539380164154e-10 -8.146654429603837e-10 -9.950871916644154e-10 -9.082701136327833e-10 -6.371874515399901e-10 -3.279952050630762e-10 -1.0618705841138629e-10 -1.1214564453944116e-11 9.039776927159198e-09 1.8507436478565365e-08 2.2606228298379837e-08 2.0633932098989895e-08 1.4475520455933688e-08 7.451341499057669e-09 2.412340250070003e-09 2.547706436545645e-10 -7.153614820222972e-09 -1.4645833956325996e-08 -1.7889407126714815e-08 -1.6328633289537933e-08 -1.1455182854445716e-08 -5.896608667195562e-09 -1.9090020808449597e-09 -2.016123923068729e-10 -2.3248206888612263e-08 -4.759682851673536e-08 -5.8137969187376176e-08 -5.306568140212324e-08 -3.722767686543364e-08 -1.9163119860550977e-08 -6.203978889220041e-09 -6.552109283837771e-10 -3.836221508016835e-09 -7.854024103627911e-09 -9.593433545116978e-09 -8.756447725528037e-09 -6.142994828329409e-09 -3.1621351668958085e-09 -1.023727867019553e-09 -1.0811733858858318e-10 1.0943014849462675e-08 2.240399888651603e-08 2.736575182693745e-08 2.497820766834001e-08 1.752320179794116e-08 9.020149648563284e-09 2.920235243765949e-09 3.0841014763792354e-10]

number: 19
id: 1917fa1202fd8f18b45641f183544c2f
nodes_x: [0.9862179 0.9872607 0.98908895 0.9914583 0.9940364 0.99647766 0.9984435 0.9996293 0.92903084 0.9346847 0.94426453 0.9565876 0.9698491 0.98226315 0.99220663 0.9984013 0.8389855 0.85226685 0.8743818 0.9024806 0.9326371 0.9606903 0.98292816 0.9965304 0.7327848 0.7553133 0.79245913 0.8391902 0.88912433 0.9355138 0.9721513 0.994366 0.62866104 0.66024524 0.71220094 0.7773393 0.84668463 0.9109658 0.96162826 0.99223167 0.5400119 0.57928115 0.64380056 0.72466046 0.81069505 0.890258 0.9528227 0.9904584 0.4741902 0.5193768 0.5935065 0.6860634 0.7842982 0.8750859 0.9464574 0.9893054 0.4357896 0.48496538 0.56495667 0.66430324 0.7694805 0.8665226 0.94294 0.9887999]
nodes_y: [0.38250256 0.3824906 0.38219035 0.38147578 0.38062608 0.3799647 0.37984374 0.3805675 0.43693694 0.43665954 0.43617722 0.43545398 0.43481186 0.4343223 0.43416482 0.43426657 0.52520156 0.52484894 0.5245549 0.52395386 0.5234505 0.52312136 0.522883 0.52273184 0.63251644 0.6322638 0.6321264 0.6319755 0.63176155 0.63172233 0.63164467 0.6314452 0.74548656 0.74547106 0.74568725 0.7459943 0.7460945 0.7462214 0.7463701 0.74629617 0.85100645 0.85121673 0.85168934 0.8520997 0.85236704 0.85262537 0.85290265 0.8528955 0.93538827 0.9357574 0.93619496 0.9364554 0.93656975 0.93675256 0.93713695 0.93728524 0.987053 0.9871893 0.9872503 0.98726076 0.9872452 0.9873158 0.98757356 0.98784]
weights: [2.252412337563452e-05 4.949361546029106e-05 6.986095613040562e-05 8.086471072260997e-05 8.097605796961857e-05 7.012549508995529e-05 4.9741707754344264e-05 2.262554091041604e-05 0.0002559429345141962 0.0005623988543024586 0.0007938341404809427 0.0009188704490659602 0.0009201356943620452 0.000796840112188313 0.0005652179415855192 0.00025709534790806254 0.0008199717549845203 0.0018017734165585737 0.002543229312316424 0.0029438117373864784 0.0029478652402029795 0.002552859630500455 0.0018108050077268677 0.0008236637749843293 0.0015740027609884874 0.0034586512463376175 0.004881936402173359 0.005650887087646216 0.0056586681174025 0.0049004225845555175 0.003475988123307584 0.0015810898949513322 0.0021876999395764067 0.004807165089009658 0.006785383251388485 0.007854144634684757 0.007864959455820759 0.006811077119965341 0.00483126154273876 0.002197550317813703 0.0023444326482903273 0.005151563327545681 0.007271506360601581 0.008416836684428747 0.008428426308443444 0.007299041007041314 0.005177386116040827 0.0023549887341226448 0.0019005221516603325 0.0041761320065310465 0.005894670902292831 0.006823136752224242 0.006832531919615981 0.005916991955335241 0.0041970653362167825 0.001909079477874749 0.0009287674832751682 0.002040836835362456 0.002880670795588994 0.0033344034132248316 0.0033389947440681743 0.0028915788864208427 0.0020510667587084197 0.0009329493689347407]

number: 20
id: 8975ef7df607253689476eae7028baf9
nodes_x: [0.9087351 0.91667813 0.92962164 0.94570637 0.9627283 0.97842574 0.9908454 0.9982641 0.6150573 0.6474361 0.7012862 0.7690206 0.8410273 0.90772367 0.9604523 0.9921454 0.2793416 0.33957338 0.4392377 0.56531805 0.7002605 0.82576644 0.9250519 0.98477393 0.00258263 0.08531484 0.22250083 0.39669833 0.58363956 0.7579029 0.895781 0.97869563 -0.20043458 -0.10063187 0.06535762 0.27528584 0.49944735 0.7090411 0.8748206 0.9745342 -0.33947673 -0.22802861 -0.04255366 0.1918344 0.44308978 0.6762701 0.8608955 0.97209936 -0.42632738 -0.3076171 -0.10996992 0.13967115 0.40713826 0.6559903 0.8523686 0.97085106 -0.47027722 -0.3477861 -0.14430676 0.11277971 0.38824758 0.6447598 0.8477337 0.97004986]
nodes_y: [-0.52197003 -0.52254826 -0.5225201 -0.5226185 -0.52267224 -0.5228386 -0.5231458 -0.52293533 -0.39390504 -0.39457667 -0.39463937 -0.39498377 -0.3953294 -0.39550075 -0.39565456 -0.39571407 -0.18388975 -0.18514144 -0.18485534 -0.18469205 -0.18439314 -0.18406919 -0.18401067 -0.18408062 0.07697589 0.07866406 0.08001567 0.08039375 0.08083058 0.08131643 0.08151453 0.08172578 0.36323163 0.3643988 0.36453024 0.3648547 0.3658501 0.36594206 0.36606127 0.36630046 0.63069594 0.6306593 0.630364 0.63036215 0.63039106 0.630907 0.6309747 0.6312116 0.84157044 0.84042877 0.84018964 0.8403506 0.8404422 0.84039694 0.8407782 0.8412343 0.9684344 0.96821654 0.96837854 0.9685921 0.9687338 0.968786 0.96864957 0.9687375]
weights: [0.00037068849459289787 0.0008145333907885374 0.0011491424142932639 0.0013288291186140302 0.0013290032766859632 0.0011497019636849517 0.0008150964800676409 0.0003710039668748353 0.0034299120912168364 0.0075367268380791535 0.01063280225528232 0.012295410101953019 0.012297021554386584 0.01063797966232942 0.007541936999049896 0.0034328310979031625 0.00905151956767901 0.01988938160421566 0.02805990798405714 0.03244752115235193 0.03245177376666007 0.028073571133417925 0.019903131191004838 0.009059222810630084 0.014480069622994765 0.03181782111102511 0.04488853149860228 0.05190756776987537 0.05191437084319375 0.04491038897264674 0.03183981686240211 0.014492392801817987 0.017429979663466443 0.03829981411279167 0.05403331693247021 0.06248228593957645 0.062490474949206634 0.054059627256799365 0.03832629088460049 0.01744481334602947 0.016829050978050472 0.03697936180069192 0.05217042490736062 0.060328101099639174 0.06033600777900353 0.05219582813776785 0.03700492574001417 0.01684337324375963 0.01270843398384483 0.027924912630055324 0.03939642239536023 0.04555668000503587 0.045562650722746824 0.03941560560878254 0.027944217202586923 0.012719249422487288 0.005963572440288448 0.013104072427000783 0.018487204571515013 0.021377973217977644 0.021380775042941686 0.018496206505429675 0.013113131310012438 0.0059686477038417545]

number: 21
id: 96ddb7ad56e07aa198b48366f12c121a
nodes_x: [-0.9602838 -0.9602877 -0.9602886 -0.9602838 -0.960281 -0.96028274 -0.96028364 -0.96028626 -0.79666305 -0.7966633 -0.796666 -0.79667103 -0.7966686 -0.7966681 -0.7966692 -0.7966768 -0.52553064 -0.5255298 -0.5255306 -0.52553195 -0.5255352 -0.52553684 -0.52554077 -0.52554774 -0.18343556 -0.18343572 -0.18343419 -0.18342796 -0.18342793 -0.18343075 -0.1834405 -0.18345608 0.18343306 0.18343352 0.18343808 0.18344498 0.18344845 0.18344669 0.18344215 0.18342571 0.5255323 0.5255297 0.5255298 0.525535 0.525542 0.5255521 0.52554905 0.52553487 0.7966614 0.79665244 0.7966527 0.7966571 0.7966698 0.7966849 0.7966888 0.7966805 0.9602865 0.9602796 0.9602716 0.96027553 0.96029365 0.96031815 0.9603323 0.9603323]
nodes_y: [-0.9679099 -0.83541536 -0.6158202 -0.33901653 -0.04262222 0.23325679 0.4520268 0.5853928 -0.9697789 -0.84536093 -0.63907236 -0.37878552 -0.09977592 0.16016054 0.36597613 0.49039933 -0.9728694 -0.861156 -0.6760591 -0.44246623 -0.19186687 0.04180936 0.22687203 0.3383861 -0.9766386 -0.88028044 -0.7205715 -0.51898277 -0.30269933 -0.10090476 0.05903367 0.15541685 -0.98044246 -0.89968777 -0.7657441 -0.59666264 -0.4152587 -0.2460504 -0.11190309 -0.03111126 -0.9837754 -0.9167864 -0.8056616 -0.6654142 -0.51499736 -0.37476444 -0.2636823 -0.1968137 -0.98626405 -0.9297199 -0.83599335 -0.7177222 -0.5908804 -0.47273988 -0.3792386 -0.322863 -0.98772675 -0.9373208 -0.85374045 -0.7482359 -0.6351982 -0.5299254 -0.4467217 -0.39652485]
weights: [1.354287810058847e-10 1.5299192344189116e-09 5.038816199716629e-09 1.0019769017489406e-08 1.4509270284327992e-08 1.6163125174537333e-08 1.3493024681068513e-08 6.7104464325895854e-09 1.662927630231326e-09 1.8785851486228883e-08 6.187153587243686e-08 1.2303256829133614e-07 1.7815907572301735e-07 1.98466730956234e-07 1.6568061375792102e-07 8.239745422692369e-08 2.9173782095034602e-09 3.295719716032891e-08 1.0854511480914515e-07 2.1584374886023168e-07 3.125556373534461e-07 3.481826302462478e-07 2.9066388911180693e-07 1.4455502038098113e-07 4.047421170594367e-09 4.5723128072884015e-08 1.5058993524117127e-07 2.994505668930887e-07 4.3362368975404956e-07 4.830507557440583e-07 4.032521990073586e-07 2.005482346785826e-07 1.4497341912253082e-09 1.6377436224977667e-08 5.3939377389151515e-08 1.0725934048098103e-07 1.553184268859781e-07 1.7302256601987072e-07 1.4443974964481143e-07 7.183379750932188e-08 -4.384597659958821e-10 -4.953216181475981e-09 -1.631350555926523e-08 -3.243967453676111e-08 -4.6974736140916945e-08 -5.2329202324296546e-08 -4.368457280864761e-08 -2.172552060727242e-08 -2.3099576536492705e-09 -2.6095255519265394e-08 -8.594518801259533e-08 -1.7090342213699588e-07 -2.474791524609014e-07 -2.7568833173054525e-07 -2.30145434385608e-07 -1.1445755459978783e-07 -2.5213976301841473e-09 -2.848386217010526e-08 -9.381210648530423e-08 -1.865469191116219e-07 -2.7013194269995113e-07 -3.009232248031334e-07 -2.512115977281377e-07 -1.2493432789499782e-07]

number: 22
id: 1ebda8d24d83ec4312619f4fe54d034f
nodes_x: [-0.96029955 -0.960298 -0.96029246 -0.96028274 -0.96027595 -0.960274 -0.9602869 -0.96030957 -0.7966804 -0.7966654 -0.7966566 -0.79665333 -0.79665095 -0.79665506 -0.7966729 -0.7966948 -0.5255034 -0.5255014 -0.5254988 -0.52549756 -0.5255006 -0.52550435 -0.5255193 -0.5255448 -0.18338253 -0.18338892 -0.18338993 -0.1833918 -0.18339425 -0.1834015 -0.18341602 -0.1834415 0.18341805 0.1834421 0.18346319 0.18345639 0.18344301 0.18343477 0.18342659 0.18341511 0.5254684 0.5254981 0.5255346 0.5255557 0.5255401 0.5255247 0.52551156 0.52550584 0.79662144 0.7966457 0.79668826 0.7967197 0.7967269 0.7967094 0.7966756 0.79666024 0.96024054 0.96025544 0.9602782 0.9602962 0.9603048 0.9603106 0.9603184 0.96030843]
nodes_y: [0.64030355 0.6701818 0.7197814 0.7824213 0.849681 0.91253644 0.9624634 0.9926424 0.54275906 0.5806266 0.64367384 0.7233657 0.8089569 0.888897 0.9523319 0.99065834 0.3886494 0.43943432 0.52382296 0.6304836 0.7449219 0.85171455 0.93640465 0.98754334 0.20433143 0.2707683 0.3808928 0.5197684 0.6685931 0.8073903 0.9174473 0.983869 0.01780626 0.09995733 0.23600204 0.4074377 0.5911776 0.7624252 0.8981866 0.98012924 -0.14688598 -0.05109085 0.10761447 0.3078022 0.52238435 0.7224428 0.8810098 0.9767673 -0.27199772 -0.16581866 0.01002287 0.23196068 0.47002 0.6919896 0.8679016 0.97414315 -0.3448524 -0.23277417 -0.04698484 0.18755691 0.43928126 0.6741396 0.8603159 0.97265154]
weights: [2.742293576829495e-08 5.521668432334817e-08 6.61443429783717e-08 5.932696256507734e-08 4.0929950457611813e-08 2.056507123986054e-08 6.246424465103436e-09 5.564683131974976e-10 8.657719396568872e-08 1.7432508427240324e-07 2.088248924242579e-07 1.873016801990348e-07 1.2922030995206662e-07 6.492616898115263e-08 1.972064213243454e-08 1.7568310517344312e-09 3.511295081258746e-07 7.070069875310225e-07 8.469272149248393e-07 7.59635925201053e-07 5.240763969703609e-07 2.6331985058194863e-07 7.998063987419571e-08 7.1251468752873495e-09 5.782325466667733e-07 1.1642839506519429e-06 1.394701581593735e-06 1.250952156977682e-06 8.630377756787222e-07 4.3362948503698944e-07 1.3171040316530522e-07 1.1733539129372323e-08 2.8828280264604118e-08 5.804637637652264e-08 6.953404527545804e-08 6.236729424320369e-08 4.3027489579455735e-08 2.1618970425831647e-08 6.566535277374425e-09 5.849856713654985e-10 -3.1754320734846963e-07 -6.393802322016714e-07 -7.659167856708035e-07 -6.869750975728073e-07 -4.7394735030341075e-07 -2.381327344392169e-07 -7.233031779923907e-08 -6.4436110872133955e-09 -2.3327743929515968e-07 -4.6970925484251046e-07 -5.626670712511644e-07 -5.046739716446315e-07 -3.481769462578255e-07 -1.7493995530936849e-07 -5.313617463432388e-08 -4.733683667147368e-09 -1.858027055208425e-07 -3.7411783420467354e-07 -4.481576292239601e-07 -4.019668152258698e-07 -2.7731879606598236e-07 -1.3933759346118806e-07 -4.232233103173554e-08 -3.770322732850976e-09]

number: 23
id: 9e71237cdf2f4382f6a710dd85355af3
nodes_x: [0.9943424 0.99475497 0.9955195 0.9965175 0.9975928 0.9986 0.9993989 0.99987185 0.9674304 0.96998537 0.9744995 0.9802687 0.98642087 0.9921127 0.99661314 0.9993649 0.92242134 0.9288203 0.9396733 0.95336205 0.9679535 0.98145 0.9920823 0.9985151 0.86604726 0.8775165 0.89639896 0.91998756 0.9450334 0.9682316 0.9864743 0.997457 0.80640304 0.8235028 0.8509249 0.88489217 0.9209472 0.9542963 0.98052037 0.9963093 0.75227314 0.774522 0.809716 0.8530919 0.89904344 0.9415707 0.97503483 0.9951827 0.71133196 0.73741853 0.77853805 0.82906777 0.8824586 0.93192667 0.97086143 0.99426514 0.6875274 0.7158224 0.7607188 0.8152792 0.87289315 0.92634004 0.96862286 0.9938479]
nodes_y: [0.412752 0.41319168 0.4131861 0.41281846 0.41244715 0.41219252 0.41189766 0.41165215 0.46598697 0.46596807 0.46583423 0.46569005 0.46565256 0.46546036 0.46510786 0.4648458 0.54991883 0.54991543 0.54980624 0.5496877 0.5495833 0.54938704 0.5490205 0.54868895 0.65194464 0.65209 0.65216124 0.6522347 0.6522314 0.65207726 0.65172476 0.6513479 0.75993913 0.76014066 0.76034504 0.76046205 0.7605015 0.76055753 0.76049906 0.76033413 0.8603554 0.86050284 0.86068934 0.86084116 0.8609147 0.8609535 0.86110914 0.8612424 0.94007057 0.9401655 0.94031745 0.9404173 0.9404355 0.9404979 0.9405413 0.94072336 0.9880076 0.98805267 0.98811984 0.9881501 0.9881555 0.98822635 0.98843914 0.9884476]
weights: [8.836576278038736e-06 1.9399065208714142e-05 2.7369176708889852e-05 3.1664061050776624e-05 3.168479373364878e-05 2.7421545452470094e-05 1.9455774457836422e-05 8.860230114666729e-06 0.00011211326618719665 0.00024612389381309884 0.0003472439661177494 0.00040173492464224775 0.0004019979686901328 0.000347908389838449 0.00024684338730719376 0.00011241337211043904 0.0003768529348050666 0.000827310762262934 0.0011672116260204824 0.001350375299140225 0.0013512594846144307 0.0011694449926649049 0.0008297292381850437 0.0003778616985470616 0.0007524104723967404 0.0016517777200677718 0.002330411069706313 0.002696108807709161 0.0026978741393515362 0.0023348701260032588 0.001656606358624019 0.0007544245323483865 0.0010873429838434972 0.002387059963511056 0.0033677842335775496 0.00389627085652179 0.003898822018481803 0.0033742282209447147 0.0023940380512015784 0.0010902535945245082 0.0012030050897499003 0.0026409746770898667 0.0037260198799943622 0.004310722321370639 0.004313544853789825 0.003733149322788559 0.002648695033162563 0.0012062253059241565 0.0009933007538095178 0.0021806076797984135 0.0030765109699386925 0.0035592897883508934 0.0035616203051571115 0.003082397629074266 0.002186982245934523 0.000995959631299374 0.0004895286988356784 0.0010746695158227076 0.001516197794365701 0.0017541258195850114 0.0017552743688591234 0.0015190989182962673 0.001077811095101978 0.0004908390742008242]

number: 24
id: f98c6489e96a73c08ba73e4e2c799a2f
nodes_x: [-0.96028 -0.9602953 -0.960316 -0.96034145 -0.96036255 -0.96037406 -0.96035564 -0.96029603 -0.7966705 -0.7966712 -0.79668725 -0.7967098 -0.79673046 -0.79674006 -0.79671055 -0.7966684 -0.5255378 -0.52554387 -0.5255486 -0.5255562 -0.5255632 -0.52556795 -0.525552 -0.5255355 -0.18343984 -0.18344545 -0.18344538 -0.18344368 -0.18344688 -0.18345305 -0.1834501 -0.18344697 0.18343669 0.18343364 0.183437 0.18344057 0.18344375 0.18344833 0.18345091 0.18344532 0.52554184 0.52553064 0.5255252 0.52552843 0.52554405 0.5255658 0.52556425 0.5255601 0.7966648 0.79664654 0.7966456 0.79665035 0.79666185 0.7966751 0.79667336 0.79666066 0.9602927 0.9602938 0.96029747 0.960295 0.9602851 0.9602719 0.96025556 0.96023864]
nodes_y: [-0.97836584 -0.8892598 -0.74161446 -0.55512136 -0.35487735 -0.16804308 -0.02036367 0.06780162 -0.97933924 -0.89408976 -0.7528158 -0.57457256 -0.38336957 -0.20512347 -0.06419098 0.02051124 -0.9811146 -0.9031468 -0.77373195 -0.61043245 -0.43545195 -0.2724909 -0.14356697 -0.06593162 -0.9836894 -0.91628695 -0.8043268 -0.6630369 -0.5116203 -0.3706664 -0.25915608 -0.19203562 -0.986972 -0.933149 -0.84372306 -0.73082715 -0.60984564 -0.49720734 -0.4081054 -0.35453862 -0.99070674 -0.9523799 -0.8886666 -0.808215 -0.72200793 -0.6417742 -0.5783341 -0.54028606 -0.9942693 -0.9707632 -0.93164927 -0.8822577 -0.8294327 -0.78032917 -0.74150795 -0.71820104 -0.9968043 -0.98381656 -0.96219295 -0.9348522 -0.90561885 -0.87849534 -0.85706985 -0.84410673]
weights: [8.211063449455916e-10 9.250434536950773e-09 3.04409838055571e-08 6.058649277209585e-08 8.78714404893825e-08 9.804612290745772e-08 8.185449400711443e-08 4.060934222239103e-08 -2.363088405426323e-10 -2.6622123594565632e-09 -8.760708807511284e-09 -1.743638195910814e-08 -2.528880497231185e-08 -2.8217009607320707e-08 -2.3557168558119906e-08 -1.1687093437827546e-08 -3.6510222853639186e-10 -4.113175211908179e-09 -1.3535483064602985e-08 -2.6939584216417098e-08 -3.907174624195885e-08 -4.359588522633785e-08 -3.639633083056553e-08 -1.8056810102684563e-08 1.308520695511324e-09 1.4741555839365558e-08 4.851096029946758e-08 9.655104987160689e-08 1.4003252944339097e-07 1.5624697303679523e-07 1.3044388231589432e-07 6.471532592117716e-08 -1.5838055543125046e-09 -1.7842864921958014e-08 -5.8716632171650086e-08 -1.1686333245314058e-07 -1.6949238837235695e-07 -1.8911800523223047e-07 -1.5788649430360666e-07 -7.833005086943035e-08 -2.898594214356777e-09 -3.2655034508189475e-08 -1.0745996554680486e-07 -2.138768729512161e-07 -3.1019568972712934e-07 -3.461134192289086e-07 -2.88955217809022e-07 -1.4335537064015348e-07 4.658659999426092e-10 5.2483615088198765e-09 1.7271111649675933e-08 3.437458157768634e-08 4.985507266138126e-08 5.562781894202191e-08 4.644127515900205e-08 2.3040269921065344e-08 2.769120961190558e-09 3.119641241852638e-08 1.026599865585207e-07 2.043235058807733e-07 2.963399920692138e-07 3.3065336271941397e-07 2.760482811002597e-07 1.3695202997808413e-07]

number: 25
id: c911783c6f928ba623f2b30bcbf7db83
nodes_x: [-0.9603182 -0.9602904 -0.9602702 -0.96028364 -0.9603114 -0.96033335 -0.9603374 -0.9603225 -0.7966635 -0.7966662 -0.7966612 -0.7966707 -0.7966889 -0.7967092 -0.79671824 -0.79672295 -0.5255121 -0.5255113 -0.5255118 -0.52551794 -0.5255319 -0.52554256 -0.52554816 -0.52554995 -0.18339285 -0.18339647 -0.1833898 -0.18339387 -0.18339449 -0.18340357 -0.18341382 -0.18342064 0.18346584 0.18347643 0.18348253 0.18347149 0.1834638 0.18345106 0.18344732 0.18344617 0.5255871 0.5255777 0.52556235 0.52555203 0.5255408 0.52553177 0.5255331 0.5255426 0.7967267 0.7967117 0.79668814 0.7966741 0.79667014 0.7966747 0.7966807 0.7966939 0.96026397 0.9602698 0.9602699 0.9602775 0.9602883 0.9603146 0.96034116 0.9603376]
nodes_y: [0.11158069 0.18475676 0.3075619 0.46307036 0.6297302 0.78498673 0.9078715 0.982001 0.06337043 0.14080079 0.27032167 0.43428618 0.6099421 0.77348983 0.90292084 0.9810033 -0.0231783 0.06188194 0.20350276 0.3824595 0.5741581 0.75267035 0.8939631 0.9792392 -0.1480725 -0.05259674 0.10630544 0.30691934 0.52198154 0.72233 0.8809873 0.97671604 -0.30878145 -0.19989958 -0.01885119 0.20965008 0.4547753 0.6832457 0.8642784 0.97347283 -0.49263507 -0.36816603 -0.16171777 0.09863699 0.3780071 0.63864106 0.8451292 0.96975535 -0.6694541 -0.5300189 -0.29932785 -0.0081647 0.30422658 0.59562445 0.8265567 0.96609145 -0.7933355 -0.6452988 -0.39760962 -0.08408825 0.25208947 0.5652941 0.8133449 0.96331984]
weights: [1.0809809838976929e-08 2.1782696860990683e-08 2.610509162651341e-08 2.341790897903616e-08 1.616269228024534e-08 8.132909615833192e-09 2.4806101812029573e-09 2.231585525854079e-10 3.2831917392547067e-07 6.615913828088448e-07 7.928726079122931e-07 7.112565942960824e-07 4.908987167126666e-07 2.4701546155353873e-07 7.534192531186535e-08 6.777846486722199e-09 2.948738393504946e-07 5.941961561292547e-07 7.121039786241964e-07 6.388020541592018e-07 4.4089167135317584e-07 2.2185240251536745e-07 6.766696722321529e-08 6.087398406167181e-09 2.5030142698947143e-07 5.043789103787844e-07 6.044640732020145e-07 5.422422893534507e-07 3.742475586527065e-07 1.8831773294284927e-07 5.743859303805063e-08 5.167242068924226e-09 1.7716549366256918e-07 3.5700371238396824e-07 4.27844847782777e-07 3.8380373629298836e-07 2.648956271571997e-07 1.3329290417365117e-07 4.065552806975286e-08 3.6574181898430135e-09 3.466812642297436e-07 6.985925745772626e-07 8.372160382767189e-07 7.510354401606831e-07 5.183534841536199e-07 2.608304336045691e-07 7.955561536150074e-08 7.156914902890741e-09 1.8114161320034428e-07 3.6501593534298137e-07 4.374469560897453e-07 3.924174313359528e-07 2.7084067128987353e-07 1.3628439258132639e-07 4.1567958792772703e-08 3.739501509917442e-09 -1.8509913917495676e-07 -3.7299069067250157e-07 -4.4700416197222587e-07 -4.0099084608016806e-07 -2.767579145597879e-07 -1.3926189186515116e-07 -4.247612270788632e-08 -3.821200983032064e-09]

number: 26
id: f5f6edafb4b092756eb6acc36ead3b95
nodes_x: [-0.15936743 -0.15898398 -0.15864527 -0.15825865 -0.15788472 -0.15769495 -0.15750973 -0.15794717 -0.05879403 -0.05854787 -0.05828969 -0.05789249 -0.05770004 -0.05790948 -0.05829031 -0.05846208 0.10371833 0.10410693 0.10428496 0.10457163 0.10475532 0.10480613 0.10472099 0.10464086 0.30583277 0.30643395 0.30668056 0.30669224 0.30663773 0.30668658 0.30688027 0.30690354 0.52113277 0.52181935 0.52210796 0.52214473 0.5220246 0.52185667 0.52183056 0.52170837 0.72104686 0.72153175 0.72174054 0.72175604 0.72179073 0.7218184 0.72175056 0.72181636 0.8796177 0.8799593 0.880226 0.88022923 0.880023 0.8799627 0.88014317 0.88053346 0.9774464 0.97771126 0.97745234 0.9771226 0.9767613 0.97644234 0.9762621 0.9764874]
nodes_y: [0.99375874 0.9942039 0.9949792 0.99601406 0.9972081 0.9983839 0.9993139 0.9997733 0.96913123 0.97156024 0.9756728 0.98091847 0.98666286 0.9921872 0.99673194 0.99937797 0.9251311 0.93137604 0.9416459 0.95458525 0.96848387 0.9815828 0.9922193 0.99856806 0.8604192 0.87234217 0.8919265 0.9162622 0.9422347 0.96640766 0.98574406 0.9973216 0.7779201 0.7971088 0.8285287 0.8675048 0.9089724 0.94731355 0.97759575 0.99573594 0.6859605 0.71328586 0.7579674 0.8134031 0.8720833 0.92622256 0.9686464 0.9940353 0.60018575 0.63527423 0.69250536 0.7634222 0.83811444 0.9067009 0.96035045 0.9924499 0.5418999 0.58251566 0.64866966 0.7299926 0.8153706 0.89355916 0.9546238 0.9912795]
weights: [-1.782837987311e-06 -3.568390268719296e-06 -4.234423718493852e-06 -3.7605463765995773e-06 -2.5705007098108775e-06 -1.2817214487967938e-06 -3.8736039180544007e-07 -3.3512831787516124e-08 -9.154012163623899e-07 -1.8321960916752366e-06 -2.1741721065464706e-06 -1.930858974190084e-06 -1.3198279895136637e-06 -6.581020718747341e-07 -1.988908562376603e-07 -1.720722084697704e-08 -3.58876717053686e-06 -7.182998084620184e-06 -8.52369140394723e-06 -7.569799093173405e-06 -5.174294369352456e-06 -2.580043666307903e-06 -7.797378489642651e-07 -6.745971948475317e-08 -4.815766247179434e-06 -9.638864291186012e-06 -1.143794049987422e-05 -1.0157912519407214e-05 -6.943385010170646e-06 -3.462160294616155e-06 -1.0463301284960958e-06 -9.052418970113023e-08 -2.5887492663004486e-06 -5.181439791931757e-06 -6.148545954525918e-06 -5.460457844514597e-06 -3.732465806713201e-06 -1.8611087960823462e-06 -5.624621739144386e-07 -4.866191954572082e-08 -2.9934596573861237e-06 -5.991476728253657e-06 -7.109774788178296e-06 -6.314114882115035e-06 -4.315978360830713e-06 -2.1520639992457176e-06 -6.503943229792729e-07 -5.62694483036035e-08 -2.5253436297516735e-06 -5.054531986481719e-06 -5.997951041696355e-06 -5.326716114488351e-06 -3.641047385681876e-06 -1.8155250891400496e-06 -5.486859180846808e-07 -4.7470054414305035e-08 1.203822982996999e-06 2.409478734669668e-06 2.8592034881189133e-06 2.539228011180446e-06 1.735675285306022e-06 8.654548247477045e-07 2.615567682969541e-07 2.262881844467158e-08]

number: 27
id: 20d5b2348ee91b6b3810e5cf0f4ce92d
nodes_x: [-0.98091334 -0.9022994 -0.7718991 -0.60692 -0.42929578 -0.26280108 -0.13024633 -0.04977089 -0.9818798 -0.90691364 -0.782772 -0.6258544 -0.45699817 -0.2988989 -0.17311412 -0.09689236 -0.98359233 -0.91559386 -0.8028744 -0.66063386 -0.50781643 -0.36490503 -0.25125873 -0.18245338 -0.9861301 -0.9284527 -0.8327936 -0.7121298 -0.5825663 -0.4615709 -0.36530244 -0.30701652 -0.9894298 -0.9451507 -0.8717508 -0.7791805 -0.67989516 -0.5870977 -0.5133206 -0.46861786 -0.9931551 -0.9644177 -0.9167483 -0.8566837 -0.79231346 -0.73216796 -0.6843784 -0.6554291 -0.9967308 -0.98321295 -0.9606559 -0.9322957 -0.90195125 -0.8736418 -0.85114527 -0.8375615 -0.99925125 -0.99653727 -0.9919052 -0.98603016 -0.97975993 -0.97394216 -0.96935177 -0.9666324]
nodes_y: [-0.9715337 -0.9715063 -0.97148 -0.97147906 -0.9714963 -0.97148347 -0.9714228 -0.97133815 -0.85395795 -0.8539447 -0.8539762 -0.8540404 -0.85405916 -0.8539745 -0.8538223 -0.85376495 -0.65919226 -0.65924746 -0.6593883 -0.6595113 -0.65951586 -0.65940243 -0.65927947 -0.65923345 -0.41380516 -0.41396326 -0.41422173 -0.41436598 -0.41442037 -0.41434148 -0.4142344 -0.41416013 -0.15090111 -0.15110008 -0.15146703 -0.1517113 -0.15179972 -0.15173873 -0.15157264 -0.15142271 0.09419068 0.0939559 0.09358311 0.09331618 0.0931792 0.09315187 0.09330617 0.09351796 0.28833392 0.2880209 0.2876717 0.28745824 0.2873812 0.28736523 0.28742018 0.2875524 0.4055614 0.40501451 0.4046431 0.4045695 0.40462768 0.40468055 0.40474468 0.40460977]
weights: [0.0035622246078607926 0.007822308442845607 0.011031521446700396 0.012753115909223236 0.012753814896184766 0.011031849476843629 0.00782030058635551 0.0035592571201210964 0.00743767280597497 0.016332426275680472 0.02303303584271336 0.026627603206199387 0.026629062641492725 0.023033720746430685 0.01632823401346833 0.007431476901647405 0.009498035362907258 0.0208567876505498 0.02941358065300434 0.03400390464592261 0.03400576836974961 0.029414455286763716 0.020851434060014124 0.009490123087126434 0.009308351366729684 0.02044025952890966 0.02882616596070471 0.033324817206001195 0.033326643709648475 0.028827023127270045 0.020435012854215832 0.009300597105952135 0.007138571037716753 0.01567562707162317 0.022106775448013545 0.025556789335891148 0.02555819008082686 0.022107432808718658 0.015671603398843954 0.007132624298146589 0.004003966466707449 0.008792331799707878 0.012399510646207555 0.01433459539128494 0.01433538105773294 0.012399879354483466 0.008790074954353836 0.004000630988822678 0.0013377016674452154 0.0029374663866434864 0.0041426036418772206 0.0047891040837918725 0.004789366570335225 0.0041427268251455086 0.002936712387872924 0.0013365873038846596 0.0001247882857774558 0.00027402327726645386 0.00038644521398600634 0.0004467543874469127 0.0004467788736582868 0.0003864567052095432 0.00027395294004826346 0.0001246843317181623]

number: 28
id: b37cb180d2e68189e6fbde47a6798268
nodes_x: [-0.9974956 -0.9866203 -0.9686433 -0.9460992 -0.92186064 -0.8982349 -0.87776667 -0.8643482 -0.99767584 -0.987665 -0.97091603 -0.94998324 -0.9273583 -0.90543103 -0.8869511 -0.875068 -0.99794114 -0.98946637 -0.9751465 -0.95705396 -0.9375482 -0.9188617 -0.9034605 -0.8939135 -0.99837106 -0.9917054 -0.9804918 -0.9662608 -0.95088404 -0.93628013 -0.9244737 -0.9171882 -0.99885607 -0.994197 -0.98631036 -0.97633296 -0.96556026 -0.95539474 -0.9472148 -0.9421509 -0.9993047 -0.9965872 -0.99196136 -0.9860732 -0.97974515 -0.97382766 -0.9689824 -0.9660073 -0.99963737 -0.99849623 -0.9965706 -0.99409074 -0.9913963 -0.9888606 -0.9868393 -0.98558533 -0.9998461 -0.999653 -0.9993187 -0.99885803 -0.9983375 -0.99782383 -0.9973951 -0.9971218]
nodes_y: [-0.99218816 -0.99189466 -0.9919624 -0.99200666 -0.9920163 -0.99194 -0.99179715 -0.9919904 -0.96114606 -0.9609964 -0.96089745 -0.96078116 -0.9606197 -0.9604178 -0.96048343 -0.9610469 -0.90922135 -0.90928215 -0.9090503 -0.9087023 -0.90841115 -0.9082836 -0.9084876 -0.9089368 -0.84328073 -0.84335136 -0.84301746 -0.8425789 -0.84220093 -0.8420859 -0.842365 -0.8426196 -0.7722673 -0.77222914 -0.7718103 -0.77133846 -0.7711687 -0.7711793 -0.77146554 -0.7715278 -0.70536196 -0.7051999 -0.7049052 -0.704789 -0.7048422 -0.7050577 -0.7054116 -0.7055258 -0.6513046 -0.6513712 -0.6516689 -0.6521026 -0.65258104 -0.65296966 -0.6532029 -0.6532683 -0.6193431 -0.6191113 -0.61896425 -0.6195115 -0.62006265 -0.62057865 -0.6209123 -0.6208548]
weights: [0.00013791208483650662 0.00030291810955960217 0.00042756423532212546 0.0004936506860337231 0.0004929330477616066 0.0004256879870340971 0.0003013754091016741 0.00013727977072580175 0.0002789861629752046 0.000612781404776251 0.000864931492982343 0.0009986195982019525 0.0009971678679335043 0.0008611359785335086 0.0006096606334392962 0.00027770703730793796 0.0003339174703738187 0.0007334357173591677 0.0010352331925830432 0.0011952439738989915 0.0011935064034985972 0.001030690355870261 0.0007297004780937574 0.0003323864897597663 0.0003012722707446493 0.0006617319056911261 0.0009340243693466248 0.001078391812525665 0.0010768241144369143 0.0009299256597746161 0.0006583618393870035 0.0002998909653414152 0.00021043475591844588 0.0004622111145953625 0.0006524038528322745 0.0007532426309676199 0.0007521476142777512 0.0006495409575972287 0.0004598571671896349 0.00020946993209094945 0.00010688105178609459 0.00023475974707486567 0.00033135975887480163 0.0003825763681316266 0.0003820202027062638 0.00032990567752526605 0.0002335641633250462 0.00010639101208223944 3.19745027852548e-05 7.023065418306064e-05 9.912948418834834e-05 0.00011445142935980026 0.00011428504708113486 9.869448165624599e-05 6.987298371388228e-05 3.182790265722499e-05 2.8217891804128116e-06 6.197941573573558e-06 8.748298849906734e-06 1.01004793481636e-05 1.0085795907520169e-05 8.709909341654406e-06 6.166376714946702e-06 2.8088515388832483e-06]

number: 29
id: 884353989b8bb9c30d609ebddf84f980
nodes_x: [-0.98388606 -0.9174132 -0.8070236 -0.66713846 -0.51584524 -0.37248254 -0.25641268 -0.18532704 -0.9847259 -0.92189264 -0.81753063 -0.685176 -0.54200894 -0.40676773 -0.29777983 -0.23120618 -0.9861242 -0.92933905 -0.83507395 -0.71557003 -0.5864855 -0.4649727 -0.3676802 -0.3086443 -0.988025 -0.93903977 -0.8577961 -0.7549742 -0.64408785 -0.5400394 -0.45706555 -0.4069014 -0.99014956 -0.9498217 -0.88297945 -0.79844725 -0.7074881 -0.6222819 -0.5545299 -0.51361436 -0.9921706 -0.96016407 -0.9071789 -0.8402282 -0.76819247 -0.70071596 -0.6472295 -0.61501175 -0.993802 -0.9685154 -0.9267508 -0.87396514 -0.8171122 -0.7638325 -0.7215748 -0.69631135 -0.99475 -0.97329617 -0.93802464 -0.89350396 -0.84559673 -0.8007736 -0.7653358 -0.744251]
nodes_y: [-0.96026254 -0.9602423 -0.96022916 -0.96025157 -0.96030307 -0.9603339 -0.96032864 -0.960353 -0.7966323 -0.79660356 -0.796566 -0.7965561 -0.79655707 -0.7965456 -0.79655623 -0.79663754 -0.52551174 -0.52550095 -0.5254912 -0.52546686 -0.52545595 -0.5254581 -0.52545464 -0.5254696 -0.18340813 -0.18340753 -0.1834163 -0.18340667 -0.18339734 -0.18337794 -0.18337026 -0.18337575 0.18347085 0.183464 0.1834446 0.1834446 0.18345952 0.18347272 0.18347782 0.18346152 0.52556914 0.52554566 0.52551055 0.5255095 0.5255356 0.5255496 0.5255443 0.5255365 0.79672253 0.79668933 0.7966335 0.7966356 0.7966841 0.7967198 0.7967116 0.7966605 0.9603752 0.960293 0.960213 0.96021223 0.9602573 0.96029645 0.9603034 0.9602412]
weights: [0.0042608252047865326 0.009359773574475469 0.013202927955315118 0.015264393927415186 0.015265161493313365 0.01320422175060022 0.009360245039121598 0.004260728613781599 0.008832346735119328 0.019402055141596982 0.027368603971160914 0.031641856539180724 0.03164344764133323 0.02737128590435766 0.01940303244975393 0.008832146509762488 0.011202214272272476 0.024607953643214723 0.034712061835032774 0.04013190011155282 0.040133918133237884 0.03471546337612201 0.024609193179627016 0.011201960323076717 0.01110913876930567 0.02440349427414202 0.03442365076416909 0.03979845739236274 0.039800458646971335 0.03442702404297553 0.024404723511655162 0.011108886930090005 0.009109758518254692 0.020011446832699828 0.02822821393182702 0.0326356834469656 0.03263732452343394 0.028230980100832515 0.020012454836752964 0.009109552004096593 0.006236368418286468 0.013699458090089723 0.019324501469091336 0.022341771754982157 0.022342895204900026 0.019326395136084917 0.01370014815060339 0.006236227042598966 0.003487022969028636 0.007659958780388028 0.010805163513137041 0.012492249664079956 0.012492877833457615 0.010806222344152053 0.007660344623029095 0.003486943919774885 0.0013365730349822128 0.0029360558980756745 0.0041416102843325 0.004788269017891222 0.004788509794696834 0.004142016133389371 0.0029362037912425325 0.0013365427354682902]

number: 30
id: b4a23d916a4dea7cca2f852d9be8ae34
nodes_x: [-0.1682886 -0.07076619 0.09053297 0.29406184 0.5123666 0.7159912 0.8776801 0.97583556 -0.21031862 -0.1088479 0.05845967 0.26934445 0.49543756 0.7064162 0.8738415 0.9751756 -0.2806699 -0.17314225 0.00455928 0.22813353 0.4674457 0.6904542 0.86722964 0.97394705 -0.3732925 -0.25761762 -0.06665081 0.17345953 0.43001503 0.66888994 0.8580001 0.97214407 -0.47576207 -0.35070324 -0.14521705 0.11261766 0.38811305 0.6444814 0.8475393 0.9700927 -0.5721659 -0.43826666 -0.21963239 0.05444053 0.34767115 0.6208589 0.8374284 0.96817064 -0.6477995 -0.5069797 -0.2791067 0.00732653 0.31458676 0.6013679 0.82905966 0.96666855 -0.6925052 -0.5475773 -0.31528893 -0.021788 0.29408652 0.589354 0.8238131 0.9658276]
nodes_y: [-0.9603036 -0.9603031 -0.96030897 -0.96030957 -0.96030486 -0.9603024 -0.9603002 -0.9602901 -0.79664725 -0.7966536 -0.7966598 -0.79666257 -0.79666466 -0.79666936 -0.79666704 -0.79665726 -0.5255192 -0.525521 -0.52551794 -0.5255194 -0.5255227 -0.5255242 -0.52552307 -0.525519 -0.18343057 -0.18342978 -0.18342808 -0.18343161 -0.1834278 -0.18342099 -0.18342543 -0.18342753 0.18345262 0.18344526 0.18344417 0.18343905 0.18344216 0.18344375 0.18344447 0.1834366 0.52556324 0.5255479 0.52554005 0.52552867 0.52553135 0.52554053 0.5255371 0.5255267 0.7966798 0.7966687 0.7966576 0.79665095 0.79665065 0.796663 0.796667 0.7966479 0.96026325 0.960248 0.9602554 0.960255 0.96025854 0.96026474 0.96027833 0.9602827]
weights: [0.006104411828155049 0.013410193748930682 0.018917512364004185 0.021870992409386163 0.021870979085667965 0.018917539648436857 0.01341038527813005 0.006104430739889559 0.0138952030799659 0.030525031850512984 0.04306109801655527 0.04978397422125801 0.04978394389306663 0.043061160122904514 0.030525467819971782 0.013895246127912044 0.020744481360678066 0.04557155088795038 0.06428694420901938 0.07432368705588566 0.07432364177820264 0.06428703692907513 0.045572201757193516 0.020744545627987526 0.02571929600972921 0.056500241511524725 0.07970384599765536 0.09214753913049 0.09214748299458994 0.0797039609532678 0.056501048468249104 0.02571937568923177 0.02763888513652408 0.06071720177458089 0.08565263386816921 0.0990250762959272 0.09902501597025992 0.0856527574036255 0.06071806895944501 0.02763897076299762 0.025468715884319388 0.05594976619531517 0.0789273006474956 0.09124975631781934 0.09124970072884485 0.07892741448310882 0.055950565289953555 0.02546879478751378 0.01892321450615469 0.04157058534446974 0.058642856095617965 0.06779842063021167 0.06779837932769398 0.058642940675293555 0.041571179070487234 0.018923273131099875 0.008847943879917265 0.019437194778062127 0.0274196912751442 0.03170056655480128 0.03170054724294713 0.027419730822136744 0.019437472387052988 0.008847971291233922]

number: 31
id: a2b50c81e5a508d1e458af5b888a0b93
nodes_x: [-0.9750331 -0.8720159 -0.7011517 -0.48556042 -0.25416586 -0.03801417 0.13356523 0.23705938 -0.9759587 -0.8772259 -0.7134018 -0.5066122 -0.28472966 -0.07762215 0.08663861 0.1857505 -0.97780335 -0.886832 -0.73590004 -0.5453588 -0.34094247 -0.15020718 0.00101511 0.09227561 -0.9805782 -0.90090114 -0.76877445 -0.601911 -0.42292637 -0.2560209 -0.12364524 -0.04373423 -0.98411965 -0.9188995 -0.8107271 -0.6741417 -0.527622 -0.39100042 -0.28271037 -0.21732591 -0.9880635 -0.93899864 -0.8576106 -0.754908 -0.64488405 -0.5423869 -0.46114576 -0.41204593 -0.99177384 -0.95789194 -0.90177846 -0.83105797 -0.75539416 -0.6850415 -0.6293911 -0.5958263 -0.9943541 -0.97092885 -0.9323603 -0.88391924 -0.8322443 -0.7842837 -0.7463981 -0.72352815]
nodes_y: [-0.96028525 -0.9602887 -0.96029073 -0.96029186 -0.9602927 -0.96029466 -0.96028256 -0.9602647 -0.7966632 -0.7966764 -0.7966786 -0.79667485 -0.7966542 -0.79662645 -0.7966224 -0.79665184 -0.52553 -0.52553046 -0.52554166 -0.52553946 -0.52553654 -0.5255422 -0.525548 -0.5255507 -0.18342595 -0.18341342 -0.18341137 -0.18341853 -0.18342827 -0.1834348 -0.1834476 -0.18344414 0.18344836 0.18346417 0.18346603 0.18345658 0.18344668 0.18343104 0.18342385 0.18342635 0.5255314 0.5255327 0.5255292 0.5255199 0.5255123 0.5255119 0.52551216 0.52551925 0.7966503 0.79664767 0.7966459 0.7966534 0.79666483 0.7966718 0.7966595 0.7966611 0.960322 0.9603108 0.9603116 0.960317 0.96032387 0.9603163 0.96030104 0.96027565]
weights: [0.006467189116450302 0.014207203374721955 0.020041730159993294 0.0231708040908972 0.02317089710666072 0.02004182021514348 0.01420708575804359 0.006466963846576989 0.013616704779966654 0.0299133503936743 0.042197980908616546 0.04878626450209134 0.04878646034732934 0.04219817052026574 0.02991310275106518 0.013616230472921433 0.01769360759085417 0.03886954238532683 0.054832246669685496 0.06339309207860616 0.06339334656079153 0.05483249305191745 0.03886922059740388 0.017692991274140892 0.017909037679860795 0.03934280194716124 0.05549986155375185 0.06416494029547055 0.06416519787612635 0.05550011093583252 0.039342476241280885 0.01790841385912869 0.014658297883201814 0.032201535381759516 0.04542586361556406 0.05251810986843474 0.05251832069461362 0.04542606773132341 0.03220126879603325 0.014657787294621881 0.00952437084550973 0.020923259113334928 0.029515894307755405 0.03412414991684816 0.0341242869031973 0.029516026933944544 0.02092308589668049 0.00952403908564078 0.004641007199163127 0.010195423692550056 0.014382417504943306 0.016627914641110172 0.01662798139141241 0.014382482130639697 0.010195339288052026 0.00464084554019739 0.0014450074273972175 0.003174410710643365 0.004478058151325083 0.005177208120440711 0.005177228903576434 0.004478078272951118 0.0031743844307602874 0.0014449570938389678]

number: 32
id: 164c47bbcbd5b04286fb328de5856aca
nodes_x: [0.28960386 0.34912476 0.44766787 0.5717682 0.7046354 0.8284637 0.9265613 0.985692 0.23689993 0.30077434 0.40653956 0.5397375 0.68247473 0.8155096 0.92094487 0.9845663 0.14217544 0.21409306 0.33301416 0.4827858 0.6431944 0.79265743 0.91114545 0.9826539 0.00682932 0.09006339 0.22781178 0.40132293 0.5870701 0.76002496 0.89711964 0.97990626 -0.16405594 -0.06659885 0.09479351 0.29818282 0.51594204 0.7187279 0.87941736 0.9764504 -0.35539818 -0.24232687 -0.05448345 0.18233459 0.4360423 0.67237544 0.8595729 0.9725868 -0.53657955 -0.4090871 -0.19631925 0.07231947 0.36012095 0.6282438 0.84065557 0.9688891 -0.6633091 -0.52560157 -0.2949662 -0.00412096 0.30731428 0.5974986 0.82743764 0.96626824]
nodes_y: [-0.9603011 -0.96030694 -0.96029 -0.9602606 -0.9602447 -0.96025956 -0.9602887 -0.9602955 -0.7966806 -0.7966765 -0.7966718 -0.79666 -0.7966526 -0.7966551 -0.79665965 -0.7966628 -0.5255549 -0.52554905 -0.52554643 -0.5255491 -0.5255481 -0.5255413 -0.5255342 -0.52553064 -0.18345825 -0.18344541 -0.18344241 -0.18344632 -0.18344605 -0.18344301 -0.1834362 -0.18343492 0.18341857 0.18343383 0.18343985 0.18343733 0.1834311 0.18342835 0.18343298 0.18343078 0.5255211 0.5255334 0.52553797 0.52553856 0.5255356 0.5255298 0.52553004 0.52553 0.7966637 0.79666334 0.7966629 0.7966624 0.79666597 0.7966734 0.7966716 0.796667 0.9602526 0.96025175 0.9602673 0.9602758 0.9602784 0.9602815 0.96029335 0.960295]
weights: [0.003713914739105631 0.008158829295492163 0.01150942177444821 0.013306173977838844 0.013306081830606484 0.011509324452171173 0.00815892853237221 0.0037139859019491364 0.008763353493657403 0.01925157421035024 0.027157632472030378 0.031397249104320575 0.03139703167370427 0.027157402830378267 0.019251808369699756 0.008763521409508214 0.013896807602665482 0.03052888634964987 0.043066206753026484 0.04978933354354562 0.04978898874501115 0.04306584259039637 0.03052925767638352 0.01389707388135364 0.01860116118503659 0.040863538736808834 0.05764499850221035 0.06664404120852925 0.06664357968863925 0.057644511063082306 0.040864035765235965 0.018601517604506457 0.02180171103725482 0.047894594032991955 0.06756350249247649 0.07811093696408926 0.07811039603424194 0.06756293118367958 0.04789517658104032 0.021802128782911274 0.021957435728084656 0.04823669428537415 0.06804609330927261 0.07866886571969824 0.07866832092611137 0.06804551791974618 0.04823728099443145 0.021957856457603852 0.01764550939153408 0.038764136785811025 0.054683433594671024 0.06322014219095505 0.0632197043820746 0.05468297119817727 0.03876460827894478 0.017645847499625306 0.008694461166280677 0.019100229664683256 0.02694413514952775 0.03115042241113868 0.03115020668983391 0.02694390731318315 0.01910046198320978 0.008694627762075897]

number: 33
id: cf81ff07d517b6afd7502217312e91bf
nodes_x: [-0.96991056 -0.96989673 -0.96990854 -0.96992314 -0.9699635 -0.9700546 -0.9701747 -0.9702499 -0.8460423 -0.8460673 -0.84599173 -0.8459875 -0.8460352 -0.8461053 -0.84616077 -0.84610075 -0.6405941 -0.6406553 -0.6405876 -0.6405488 -0.64059913 -0.6406815 -0.6408414 -0.6409006 -0.38081 -0.3808971 -0.38094023 -0.3809932 -0.38110003 -0.38130805 -0.38156942 -0.3817676 -0.10220899 -0.10214428 -0.10218829 -0.10230786 -0.10249357 -0.10272577 -0.10299135 -0.10320966 0.15718505 0.15743792 0.15756309 0.15741764 0.1572283 0.157041 0.15676118 0.15662287 0.36137697 0.3618551 0.36218676 0.36221159 0.36213404 0.36199948 0.36180225 0.3615991 0.483161 0.48306695 0.4830826 0.4830856 0.48314843 0.4831737 0.48296395 0.48233476]
nodes_y: [-0.98773456 -0.93695897 -0.8525569 -0.7457739 -0.63070077 -0.5223226 -0.43521503 -0.38196832 -0.98854727 -0.94162637 -0.8634356 -0.7644127 -0.65759826 -0.5569039 -0.47611272 -0.426814 -0.9900037 -0.94931585 -0.88174987 -0.7961187 -0.70362127 -0.61636686 -0.5462754 -0.5035656 -0.9919905 -0.95951974 -0.90568763 -0.8374732 -0.76378226 -0.6943589 -0.63860667 -0.6046029 -0.99427396 -0.9711367 -0.93279797 -0.8842379 -0.83184373 -0.7825001 -0.74295485 -0.7189485 -0.9965296 -0.98269075 -0.9597331 -0.9306644 -0.89928925 -0.8697751 -0.8461385 -0.83188653 -0.99840045 -0.99237436 -0.98235637 -0.9696588 -0.95596206 -0.94311607 -0.9328776 -0.9266757 -0.9997351 -0.9985032 -0.9965806 -0.9941522 -0.9915421 -0.98910457 -0.98718315 -0.98603505]
weights: [1.131298169967798e-08 1.2745545481936076e-07 4.207566819828461e-07 8.389095266146857e-07 1.2187587616684448e-06 1.3636757902110298e-06 1.1431022498841465e-06 5.694573629081982e-07 4.280764470948794e-09 4.822838020102776e-08 1.5921180666258284e-07 3.1743833687761027e-07 4.611710108004802e-07 5.1600674584266e-07 4.325430401876255e-07 2.1547925308913009e-07 3.166600456494866e-08 3.567587326913442e-07 1.1777339843819168e-06 2.3481796050386716e-06 3.411410142355547e-06 3.81704531522062e-06 3.1996410870234864e-06 1.5939599242795484e-06 1.1438033040300416e-07 1.2886432083876367e-06 4.254076386054756e-06 8.481826575848424e-06 1.2322306668732697e-05 1.378749578029948e-05 1.1557378637842911e-05 5.757520258493585e-06 1.195248174857699e-07 1.3466025473446598e-06 4.44541208984271e-06 8.8633139094133e-06 1.287652737489625e-05 1.4407616335079544e-05 1.2077195156150976e-05 6.016476396268516e-06 5.808154794885294e-08 6.543641903570198e-07 2.1601908363453437e-06 4.3070134106384474e-06 6.257182883619919e-06 7.001195873770959e-06 5.868757671461414e-06 2.9236293319135602e-06 -1.6268369750776794e-08 -1.8328434720386831e-07 -6.050593432677247e-07 -1.2063742988999367e-06 -1.7526076412185386e-06 -1.9610021976759007e-06 -1.643811557176786e-06 -8.188948928783786e-07 2.7545346848416712e-08 3.103341633463379e-07 1.0244769285126983e-06 2.042613918990106e-06 2.967487591327028e-06 3.320337964589899e-06 2.783275779289964e-06 1.386539905490833e-06]

number: 34
id: a7442cb5ceb788b85f4541265c2d9228
nodes_x: [-0.9828287 -0.9121542 -0.7948503 -0.64631146 -0.48606455 -0.33550352 -0.21517445 -0.14197028 -0.9837697 -0.91732323 -0.8069911 -0.6671906 -0.5164649 -0.37498203 -0.2620049 -0.1934062 -0.98551786 -0.92643064 -0.82845163 -0.70438415 -0.5706296 -0.44520107 -0.3452565 -0.2846559 -0.98802465 -0.9392793 -0.85853034 -0.7563621 -0.6463962 -0.5433366 -0.4612671 -0.41154966 -0.99110574 -0.95506924 -0.89536834 -0.8198979 -0.73872256 -0.66273355 -0.6022661 -0.5656027 -0.9943969 -0.9719786 -0.9348529 -0.8879779 -0.8375271 -0.79029137 -0.75277025 -0.7299996 -0.9973262 -0.98718786 -0.97037566 -0.9491536 -0.92631567 -0.90490997 -0.8878483 -0.8775178 -0.99926305 -0.99724066 -0.99391425 -0.9896453 -0.98503387 -0.98069686 -0.97724724 -0.97515464]
nodes_y: [-0.98000497 -0.98005474 -0.9800514 -0.98005795 -0.98010015 -0.98016185 -0.9802004 -0.9801513 -0.897787 -0.8977316 -0.897736 -0.8977386 -0.89783317 -0.8979525 -0.89797795 -0.89776593 -0.761198 -0.7611528 -0.760997 -0.7608865 -0.7609281 -0.7610358 -0.7610082 -0.7608076 -0.5885378 -0.5884367 -0.5881578 -0.5879594 -0.58792245 -0.58802736 -0.58804977 -0.5879174 -0.4028764 -0.40271991 -0.40237498 -0.40210477 -0.40207162 -0.40214652 -0.40226185 -0.40226343 -0.22904488 -0.22897893 -0.22870062 -0.22847363 -0.22840148 -0.22843537 -0.22858903 -0.2286517 -0.09079496 -0.09090564 -0.09087709 -0.09075068 -0.0906859 -0.09062894 -0.09067624 -0.09072312 -0.00736643 -0.00723521 -0.00674779 -0.00645553 -0.00625254 -0.00621782 -0.00639531 -0.00664171]
weights: [0.0022720380054258886 0.004992190934096415 0.007045847091041093 0.0081483737788929 0.008150425848326795 0.0070504831587055745 0.004997248504946178 0.002274072737367136 0.004691528717119293 0.010308369434280526 0.014548961718558262 0.01682556783390253 0.016829805149764166 0.014558534729454418 0.010318812806628991 0.004695730232811902 0.005868754806603393 0.012895006364327251 0.018199673105551293 0.021047538670866058 0.021052839239045325 0.01821164823287077 0.012908070249334193 0.005874010591423818 0.0055808244944632514 0.012262357134655526 0.01730676860863251 0.02001491342428643 0.02001995393828033 0.017318156217430485 0.01227478008498181 0.005585822422240103 0.0041192728727061974 0.009050991506780919 0.012774331555215781 0.014773245422790475 0.014776965886062553 0.012782736884581189 0.009060161034030668 0.004122961902585448 0.0022139636815614303 0.004864588265299693 0.00686575203766285 0.007940097642369656 0.007942097259976329 0.006870269605331134 0.004869516562340305 0.002215946404829649 0.0007111722000726441 0.0015626091646818905 0.002205425510112393 0.00255052815732423 0.0025511704770083713 0.0022068766488841747 0.001564192238459556 0.0007118090929361259 6.514202922578776e-05 0.00014313204574615518 0.00020201280789710894 0.00023362355804773893 0.0002336823933166547 0.00020214572946557357 0.00014327705231176717 6.520036740818913e-05]

number: 35
id: 50ba9f665df9dd61c85ab87c0f7bf910
nodes_x: [0.96291405 0.9659571 0.9710414 0.97749305 0.98444855 0.990945 0.99609387 0.99915105 0.8216191 0.8363357 0.8609258 0.89209324 0.9255581 0.95676535 0.9814678 0.9963492 0.62187254 0.65324986 0.7054108 0.77144253 0.8423197 0.90842205 0.9608008 0.99230844 0.4169474 0.46547973 0.546105 0.6478735 0.75700897 0.8587892 0.93948466 0.9881646 0.23946975 0.30290672 0.40811762 0.54084146 0.6830617 0.81574 0.92095506 0.98454946 0.10252119 0.17736045 0.30148178 0.4581194 0.6260186 0.78251565 0.9066591 0.981745 0.00913294 0.0914903 0.22846614 0.40140992 0.5868408 0.7597488 0.896802 0.97979045 -0.0421683 0.04435848 0.18828002 0.37014925 0.5652463 0.7472027 0.891461 0.97863925]
nodes_y: [-0.23137042 -0.23147914 -0.23163657 -0.23184073 -0.23195435 -0.23180237 -0.23110218 -0.22976293 -0.12734976 -0.12748037 -0.12758566 -0.12771098 -0.1278753 -0.12796609 -0.1280277 -0.12812787 0.04403361 0.04403513 0.04399896 0.04393766 0.04382479 0.04367406 0.04331703 0.04277625 0.25863725 0.25880167 0.25881428 0.2587566 0.25864142 0.25844276 0.2580862 0.25760144 0.48814833 0.48830503 0.48836195 0.48834947 0.48837116 0.48825556 0.4880541 0.48777702 0.7022924 0.7024285 0.702497 0.702516 0.7025343 0.7026171 0.70255494 0.702511 0.87220305 0.87229156 0.8723357 0.8724219 0.872526 0.8725822 0.87260866 0.87266123 0.9749694 0.9750239 0.9750826 0.97513646 0.9751917 0.9752289 0.97519946 0.9751795]
