number;id;nodes_x;nodes_y;weights
1;a6a068a075e6d37a96b3922d38cc56b0;-0.9744110703468323,-0.8330334424972534,-0.5987619161605835,-0.303174614906311,0.01381625235080719,0.3094035089015961,0.5436750650405884,0.6850526928901672,-0.9737359881401062,-0.8431134819984436,-0.6266638040542603,-0.3535629510879517,-0.06068670749664307,0.2124141454696655,0.4288638234138489,0.5594863295555115,-0.9740955233573914,-0.8583455681800842,-0.6665406823158264,-0.424534797668457,-0.1650051921606064,0.07700067758560181,0.2688055634498596,0.3845555186271667,-0.9763298034667969,-0.8756294846534729,-0.7087627649307251,-0.4982221126556396,-0.2724360823631287,-0.0618954598903656,0.1049712896347046,0.205671638250351,-0.9802924394607544,-0.8924070596694946,-0.7467755079269409,-0.5630279183387756,-0.365975022315979,-0.1822274327278137,-0.03659588098526001,0.05128952860832214,-0.9841240644454956,-0.9060494303703308,-0.7766748666763306,-0.6134392023086548,-0.4383835792541504,-0.2751479148864746,-0.1457733511924744,-0.06769871711730957,-0.9880008697509766,-0.9165046215057373,-0.7980309128761292,-0.6485491394996643,-0.4882432818412781,-0.3387615084648132,-0.2202877998352051,-0.1487915515899658,-0.991107702255249,-0.9231822490692139,-0.8106256127357483,-0.668609619140625,-0.5163100957870483,-0.374294102191925,-0.2617374360561371,-0.1938120424747467;-0.960350513458252,-0.9603396058082581,-0.9603279829025269,-0.9603136777877808,-0.9602878093719482,-0.9602243900299072,-0.9602523446083069,-0.9601778984069824,-0.7967168092727661,-0.796707808971405,-0.7966982126235962,-0.7966862916946411,-0.796664834022522,-0.7966122627258301,-0.7966353893280029,-0.7965736389160156,-0.5255656242370605,-0.5255597829818726,-0.5255534648895264,-0.5255454778671265,-0.5255312919616699,-0.525496780872345,-0.5255119204521179,-0.5254712104797363,-0.1834462285041809,-0.1834443658590317,-0.1834421902894974,-0.1834391355514526,-0.1834341585636139,-0.1834223866462708,-0.183427557349205,-0.1834132820367813,0.1834462285041809,0.1834437996149063,0.1834415048360825,0.1834392845630646,0.183434396982193,0.1834217309951782,0.1834273785352707,0.1834131926298141,0.5255656242370605,0.5255591869354248,0.5255527496337891,0.525545597076416,0.525531530380249,0.5254960656166077,0.5255118012428284,0.5254710912704468,0.7967168092727661,0.7967072129249573,0.7966974973678589,0.7966864109039307,0.7966650724411011,0.7966115474700928,0.7966352701187134,0.7965735197067261,0.960350513458252,0.9603390097618103,0.9603272676467896,0.9603137969970703,0.9602880477905273,0.9602236747741699,0.9602522253990173,0.9601777791976929;0.008854596875607967,0.01945174299180508,0.02743968740105629,0.03172322362661362,0.03172237053513527,0.02743672765791416,0.0194499809294939,0.008853004314005375,0.01797218807041645,0.03948123008012772,0.05569437518715858,0.06438867747783661,0.06438694894313812,0.05568836629390717,0.03947765007615089,0.01796895638108253,0.02246620319783688,0.04935366660356522,0.06962097436189651,0.08048932254314423,0.08048715442419052,0.06961345672607422,0.04934919625520706,0.02246216498315334,0.02259665541350842,0.04964024946093559,0.070025235414505,0.08095669001340866,0.08095452189445496,0.07001768052577972,0.04963574931025505,0.02259259484708309,0.01972104422748089,0.04332311451435089,0.06111394241452217,0.07065428793430328,0.07065238058567047,0.06110734865069389,0.04331919178366661,0.0197174996137619,0.01515370607376099,0.03328960388898849,0.04696012660861015,0.05429094657301903,0.05428948998451233,0.04695506021380424,0.03328658640384674,0.01515098009258509,0.009837077930569649,0.02161005325615406,0.03048432059586048,0.03524314612150192,0.03524219989776611,0.03048103116452694,0.02160809561610222,0.009835309349000454,0.004254224710166454,0.009345663711428642,0.01318350248038769,0.01524154376238585,0.01524113491177559,0.01318207941949368,0.009344817139208317,0.004253459628671408
2;d04baa82e0f807196c45450786d616ab;0.7165363430976868,0.7396769523620605,0.7780223488807678,0.8264038562774658,0.878288745880127,0.926670253276825,0.9650156497955322,0.988156259059906,0.5998237133026123,0.6331902146339417,0.6884806156158447,0.758242130279541,0.8330550193786621,0.9028165340423584,0.9581069350242615,0.9914734363555908,0.4284341037273407,0.4762282967567444,0.5554262399673462,0.6553526520729065,0.7625147700309753,0.8624411821365356,0.9416391253471375,0.9894332885742188,0.2492956519126892,0.3119750618934631,0.4158387780189514,0.5468866229057312,0.6874237656593323,0.8184716105461121,0.9223353266716003,0.9850147366523743,0.09370028972625732,0.1692507266998291,0.2944424748420715,0.4524006247520447,0.6217965483665466,0.7797546982765198,0.9049464464187622,0.980496883392334,-0.0250379741191864,0.06041878461837769,0.2020260095596313,0.3806959986686707,0.5723035335540771,0.7509735226631165,0.8925807476043701,0.9780374765396118,-0.1046580076217651,-0.01238903403282166,0.1405064463615417,0.3334191143512726,0.540300726890564,0.7332133650779724,0.8861088752746582,0.9783778190612793,-0.1475964188575745,-0.0515802800655365,0.1075243949890137,0.3082714378833771,0.5235546827316284,0.7243016958236694,0.883406400680542,0.9794225096702576;-0.960414707660675,-0.9604791402816772,-0.9603961706161499,-0.9603593945503235,-0.9603831171989441,-0.960311233997345,-0.960393488407135,-0.9604259133338928,-0.7967700958251953,-0.7968236207962036,-0.796754777431488,-0.7967242002487183,-0.7967438697814941,-0.7966843247413635,-0.7967525124549866,-0.7967793941497803,-0.525600790977478,-0.5256361365318298,-0.5255907773971558,-0.5255704522132874,-0.5255834460258484,-0.525544285774231,-0.5255891680717468,-0.5256069302558899,-0.1834584921598434,-0.1834710240364075,-0.183455228805542,-0.183447852730751,-0.1834523528814316,-0.1834389865398407,-0.1834545135498047,-0.1834606528282166,0.1834584921598434,0.1834704577922821,0.1834545433521271,0.183448001742363,0.1834525913000107,0.1834383308887482,0.1834543347358704,0.1834605634212494,0.525600790977478,0.5256355404853821,0.5255900621414185,0.5255705714225769,0.5255836844444275,0.5255435705184937,0.5255890488624573,0.5256068110466003,0.7967700958251953,0.7968230247497559,0.7967540621757507,0.7967243194580078,0.7967441082000732,0.7966836094856262,0.796752393245697,0.7967792749404907,0.960414707660675,0.9604785442352295,0.9603954553604126,0.960359513759613,0.9603833556175232,0.9603105187416077,0.9603933691978455,0.9604257941246033;0.001449411502107978,0.003184311324730515,0.004491629544645548,0.005192684009671211,0.005192812532186508,0.004491232335567474,0.003184028202667832,0.001449428382329643,0.004591162316501141,0.01008663699030876,0.01422770600765944,0.01644836738705635,0.01644877530634403,0.01422644685953856,0.01008574105799198,0.004591215401887894,0.009277117438614368,0.02038153447210789,0.02874916791915894,0.03323634341359138,0.03323716670274734,0.02874662540853024,0.02037972025573254,0.009277224540710449,0.01406589057296515,0.0309023167937994,0.04358925670385361,0.05039267987012863,0.05039392411708832,0.0435854010283947,0.03089956939220428,0.01406605262309313,0.01695427484810352,0.03724800422787666,0.05254016444087029,0.06074064970016479,0.06074215471744537,0.0525355190038681,0.03724469244480133,0.01695447042584419,0.01658763363957405,0.03644250705838203,0.0514039658010006,0.05942710861563683,0.05942858010530472,0.05139941722154617,0.03643926233053207,0.01658782549202442,0.01269602216780186,0.02789275720715523,0.03934412449598312,0.04548496380448341,0.04548608884215355,0.03934064880013466,0.0278902780264616,0.01269616931676865,0.006013969890773296,0.01321250200271606,0.01863689161837101,0.02154574170708656,0.02154627442359924,0.01863524131476879,0.0132113266736269,0.006014039274305105
3;9c469d7854cdb09290680f17cdd18fee;-0.9760063886642456,-0.8816712498664856,-0.7253520488739014,-0.5281194448471069,-0.3166052103042603,-0.1193726360797882,0.03694659471511841,0.1312817335128784,-0.9760019779205322,-0.8816652297973633,-0.7253434658050537,-0.5281077027320862,-0.3165900111198425,-0.1193542182445526,0.03696754574775696,0.1313042640686035,-0.9769663214683533,-0.8824682235717773,-0.7258790731430054,-0.5283058881759644,-0.3164263069629669,-0.1188531219959259,0.03773605823516846,0.1322341561317444,-0.9769798517227173,-0.8824900388717651,-0.7259145975112915,-0.5283588171005249,-0.3164979219436646,-0.1189421117305756,0.03763332962989807,0.1321231126785278,-0.9771691560745239,-0.8826555609703064,-0.7260407209396362,-0.5284351110458374,-0.3165208697319031,-0.1189152896404266,0.03769958019256592,0.1322131454944611,-0.9772927165031433,-0.8827695846557617,-0.7261388301849365,-0.5285133123397827,-0.3165775537490845,-0.1189520061016083,0.03767871856689453,0.1322018504142761,-0.9777367115020752,-0.8831384181976318,-0.7263830900192261,-0.5286003947257996,-0.3164961338043213,-0.1187134087085724,0.03804188966751099,0.1326402127742767,-0.9778550863265991,-0.8832157850265503,-0.7263925671577454,-0.5285241603851318,-0.3163279592990875,-0.1184595227241516,0.03836369514465332,0.1330029964447021;-0.9802052974700928,-0.9814407825469971,-0.9837853908538818,-0.9856126308441162,-0.9890023469924927,-0.992631196975708,-0.9961159825325012,-0.9987162947654724,-0.8965601921081543,-0.9025180339813232,-0.9133020639419556,-0.9273433685302734,-0.9457244277000427,-0.965678334236145,-0.9839634895324707,-0.9963170289993286,-0.7579550743103027,-0.7717381119728088,-0.7965067625045776,-0.8307876586914062,-0.8740103244781494,-0.921015739440918,-0.9638261198997498,-0.9923413395881653,-0.5830729007720947,-0.60672926902771,-0.6491427421569824,-0.7089604139328003,-0.7835265398025513,-0.8646636605262756,-0.9384182095527649,-0.9873250722885132,-0.3955274224281311,-0.4297720193862915,-0.4911079704761505,-0.5783116817474365,-0.6864907741546631,-0.8042311072349548,-0.9111704230308533,-0.9819456338882446,-0.2206452488899231,-0.2647631764411926,-0.3437439203262329,-0.456484466791153,-0.5960069894790649,-0.7478790283203125,-0.8857625126838684,-0.9769293665885925,-0.08204010128974915,-0.1339832544326782,-0.226948618888855,-0.3599287271499634,-0.5242928862571716,-0.7032164335250854,-0.8656251430511475,-0.9729536771774292,0.001605004072189331,-0.05506047606468201,-0.1564652621746063,-0.301659494638443,-0.4810149967670441,-0.6762635707855225,-0.8534726500511169,-0.9705544114112854;0.003020156640559435,0.006260168738663197,0.007886717095971107,0.007537952158600092,0.005598606076091528,0.003015884198248386,0.0009639356867410243,8.662902837386355e-05,0.00663485424593091,0.01375269796699286,0.0173259936273098,0.01655980758368969,0.01229934021830559,0.006625468377023935,0.002117629395797849,0.0001903116353787482,0.009375612251460552,0.01943373121321201,0.0244830995798111,0.02340041287243366,0.01738001219928265,0.009362348355352879,0.002992389956489205,0.0002689264947548509,0.01083841733634472,0.02246582694351673,0.02830301038920879,0.0270514003932476,0.02009168267250061,0.01082308404147625,0.003459269879385829,0.0003108850214630365,0.01084114611148834,0.02247148565948009,0.02831013686954975,0.02705821394920349,0.02009674347937107,0.01082580909132957,0.003460140898823738,0.0003109633107669652,0.009378097020089626,0.01943888328969479,0.02448958903551102,0.02340661734342575,0.01738462038338184,0.009364830330014229,0.002993183443322778,0.0002689977991394699,0.006653253454715014,0.01379083562642336,0.01737404055893421,0.01660572923719883,0.01233344711363316,0.006643841043114662,0.002123501850292087,0.0001908393896883354,0.003029893850907683,0.006280350964516401,0.007912144064903259,0.007562254555523396,0.005616656038910151,0.003025607205927372,0.0009670433937571943,8.690833055879921e-05
4;c462ab1cc4dd0821f5a42dd03d2c9dc0;-0.9063668251037598,-0.7472396492958069,-0.4835560321807861,-0.1508586704730988,0.2059294581413269,0.5386267900466919,0.8023104071617126,0.9614375829696655,-0.9066076278686523,-0.747471034526825,-0.4837717413902283,-0.1510546505451202,0.2057546675205231,0.5384717583656311,0.8021710515022278,0.9613076448440552,-0.9069783091545105,-0.7478289008140564,-0.4841083586215973,-0.1513644009828568,0.2054737061262131,0.5382176637649536,0.8019382357597351,0.9610876441001892,-0.9070993065834045,-0.7479837536811829,-0.484319269657135,-0.1516461223363876,0.2051160484552383,0.5377891659736633,0.8014536499977112,0.9605692028999329,-0.907874584197998,-0.7486651539802551,-0.4848451614379883,-0.1519757807254791,0.2049968540668488,0.5378662347793579,0.8016862273216248,0.9608956575393677,-0.9075289964675903,-0.748395562171936,-0.4847015738487244,-0.1519912034273148,0.2048109322786331,0.5375213027000427,0.8012152910232544,0.9603487253189087,-0.9078416228294373,-0.7486608028411865,-0.4848882853984833,-0.152078777551651,0.2048296332359314,0.5376391410827637,0.8014116287231445,0.9605924487113953,-0.9086443781852722,-0.749328076839447,-0.4853309988975525,-0.1522381603717804,0.2049740850925446,0.5380669236183167,0.8020640015602112,0.9613803029060364;0.9849404692649841,0.9367340803146362,0.8491405248641968,0.7170366048812866,0.5391571521759033,0.3242128789424896,0.1013448238372803,-0.06512188911437988,0.9859538078308105,0.9415504336357117,0.8612740039825439,0.740198016166687,0.5773991346359253,0.3806891441345215,0.1765604317188263,0.02399429678916931,0.9876329302787781,0.9495314359664917,0.8813799619674683,0.7785779237747192,0.6407685279846191,0.4742738008499146,0.3011974096298218,0.1716654300689697,0.9897516369819641,0.9596013426780701,0.9067481756210327,0.8270029425621033,0.7207234501838684,0.5923523306846619,0.4584555625915527,0.3579863905906677,0.9920236468315125,0.9704003930091858,0.9339534044265747,0.8789344429969788,0.8064679503440857,0.7189809679985046,0.6271008253097534,0.5577989220619202,0.9941423535346985,0.9804702997207642,0.9593216180801392,0.9273594617843628,0.886422872543335,0.837059497833252,0.7843589782714844,0.7441198825836182,0.995821475982666,0.9884513020515442,0.9794275760650635,0.965739369392395,0.9497922658920288,0.930644154548645,0.9089959859848022,0.8917909860610962,0.9968348145484924,0.9932676553726196,0.9915610551834106,0.9889007806777954,0.9880342483520508,0.9871203899383545,0.9842115640640259,0.9809072017669678;6.171833956614137e-05,0.0006444272003136575,0.002290161792188883,0.0050541702657938,0.008344978094100952,0.01065973285585642,0.01006381399929523,0.005427707452327013,0.0001355922286165878,0.0014157755067572,0.005031375680118799,0.01110376976430416,0.01833351701498032,0.02341892197728157,0.02210971526801586,0.01192441210150719,0.0001912915467983112,0.001997355604544282,0.007098191883414984,0.01566503569483757,0.02586466073989868,0.03303907439112663,0.03119206987321377,0.01682278886437416,0.0002211096871178597,0.00230869953520596,0.008204643614590168,0.01810687407851219,0.02989639341831207,0.03818914666771889,0.03605422750115395,0.01944509148597717,0.0002212401159340516,0.002310061361640692,0.008209483698010445,0.01811755448579788,0.02991402894258499,0.03821166977286339,0.03607549518346786,0.01945656165480614,0.0001912722655106336,0.001997154438868165,0.007097476162016392,0.01566345803439617,0.02586205303668976,0.03303574770689011,0.03118892572820187,0.01682109199464321,0.0001356298744212836,0.001416168757714331,0.00503277312964201,0.01110685337334871,0.01833860762417316,0.02342542819678783,0.02211585827171803,0.01192772481590509,6.179170304676518e-05,0.0006451932131312788,0.002292884280905128,0.005060177762061357,0.008354897610843182,0.01067240443080664,0.01007577776908875,0.005434159189462662
5;86791adeb24851ae9bd3f4419416f295;-0.9621344208717346,-0.7981967926025391,-0.5265419483184814,-0.183787003159523,0.1837869435548782,0.5265418291091919,0.7981966733932495,0.9621343016624451,-0.9625675678253174,-0.7985561490058899,-0.5267789363861084,-0.1838697046041489,0.1838697344064713,0.5267789363861084,0.7985561490058899,0.9625675678253174,-0.9622194170951843,-0.7982673048973083,-0.5265884399414062,-0.1838032007217407,0.1838032603263855,0.5265884399414062,0.7982673048973083,0.9622194170951843,-0.9621522426605225,-0.7982115745544434,-0.5265517234802246,-0.1837905049324036,0.1837902367115021,0.5265514850616455,0.7982113361358643,0.9621520042419434,-0.9619436860084534,-0.7980385422706604,-0.5264374613761902,-0.1837503910064697,0.1837508082389832,0.5264378190040588,0.7980388998985291,0.961944043636322,-0.9618653655052185,-0.7979735732078552,-0.5263947248458862,-0.1837356984615326,0.1837354302406311,0.5263944864273071,0.7979733347892761,0.9618651270866394,-0.9616727828979492,-0.7978137731552124,-0.5262892842292786,-0.183698832988739,0.1836987435817719,0.526289165019989,0.7978136539459229,0.9616726636886597,-0.9615454077720642,-0.7977081537246704,-0.5262195467948914,-0.1836744546890259,0.1836744844913483,0.5262195467948914,0.7977081537246704,0.9615454077720642;-0.9611690640449524,-0.9645246863365173,-0.9676998853683472,-0.969525158405304,-0.9707810282707214,-0.9690030813217163,-0.966907262802124,-0.9653316736221313,-0.8069226145744324,-0.8124859929084778,-0.8191289305686951,-0.8247775435447693,-0.8295854926109314,-0.8313215374946594,-0.832080066204071,-0.8321367502212524,-0.5513266921043396,-0.5605483651161194,-0.5729376077651978,-0.5849217176437378,-0.5956156849861145,-0.6031745672225952,-0.6086629629135132,-0.6114243268966675,-0.228833794593811,-0.2426713407039642,-0.2623108625411987,-0.2822886407375336,-0.3004091084003448,-0.315314918756485,-0.326771080493927,-0.3329450786113739,0.1170109808444977,0.09822333604097366,0.07080859690904617,0.04225829988718033,0.01617351174354553,-0.00661119818687439,-0.02446725964546204,-0.03430101275444031,0.4395038485527039,0.4161003828048706,0.381435364484787,0.3448913991451263,0.3113800883293152,0.2812484800815582,0.2574245929718018,0.2441782355308533,0.6950997710227966,0.6680379509925842,0.6276267170906067,0.5847472548484802,0.5453498959541321,0.5093954205513,0.4808416962623596,0.4648906290531158,0.8493462204933167,0.8200766444206238,0.7761976718902588,0.7294948697090149,0.6865454316139221,0.6470769643783569,0.6156688928604126,0.5980855226516724;0.009678524918854237,0.02095766924321651,0.02889007516205311,0.03254098072648048,0.03174243494868279,0.02677260339260101,0.01858516596257687,0.008357605896890163,0.02127156592905521,0.04606099426746368,0.06349492073059082,0.0715189203619957,0.06976386159658432,0.05884111672639847,0.04084667563438416,0.01836843602359295,0.02999634295701981,0.06495343893766403,0.0895380899310112,0.1008532270789146,0.09837830811738968,0.08297546952962875,0.05760040879249573,0.02590245939791203,0.03467706590890884,0.0750889778137207,0.103509895503521,0.1165906861424446,0.1137295737862587,0.09592323005199432,0.06658855825662613,0.02994436025619507,0.03466956317424774,0.07507272809743881,0.1034874990582466,0.1165654510259628,0.1137049645185471,0.0959024652838707,0.06657414138317108,0.02993788011372089,0.02998530119657516,0.0649295300245285,0.08950513601303101,0.1008161008358002,0.09834209829568863,0.08294492959976196,0.05757920444011688,0.02589292451739311,0.02125179022550583,0.04601816833019257,0.06343588978052139,0.07145243138074875,0.0696990042924881,0.05878641456365585,0.04080870002508163,0.0183513592928648,0.009672600775957108,0.02094484120607376,0.02887239120900631,0.03252106159925461,0.03172300010919571,0.02675621397793293,0.01857378706336021,0.008352490141987801
6;7ab7046e3fa23fd4161c3d644e6640d6;-0.9607763290405273,-0.7970700860023499,-0.5257986783981323,-0.1835275739431381,0.1835275143384933,0.5257985591888428,0.7970699667930603,0.9607762098312378,-0.9600200653076172,-0.7964426875114441,-0.525384783744812,-0.1833830922842026,0.183383122086525,0.525384783744812,0.7964426875114441,0.9600200653076172,-0.9603654146194458,-0.7967292070388794,-0.5255737900733948,-0.1834490448236465,0.1834491044282913,0.5255737900733948,0.7967292070388794,0.9603654146194458,-0.9598391652107239,-0.7962926030158997,-0.5252858400344849,-0.1833486557006836,0.1833483874797821,0.5252856016159058,0.7962923645973206,0.9598389267921448,-0.9609256982803345,-0.7971940040588379,-0.5258803367614746,-0.1835559159517288,0.1835563331842422,0.5258806943893433,0.7971943616867065,0.9609260559082031,-0.9602155685424805,-0.7966048717498779,-0.5254918336868286,-0.1834205538034439,0.1834202855825424,0.5254915952682495,0.7966046333312988,0.9602153301239014,-0.9604699611663818,-0.7968159317970276,-0.5256310105323792,-0.1834690719842911,0.1834689825773239,0.5256308913230896,0.796815812587738,0.9604698419570923,-0.9608772993087769,-0.7971538901329041,-0.5258539319038391,-0.1835468411445618,0.1835468709468842,0.5258539319038391,0.7971538901329041,0.9608772993087769;0.8865470290184021,0.8608484864234924,0.8188116550445557,0.7684386968612671,0.7169921398162842,0.6718031167984009,0.6375776529312134,0.6176573038101196,0.8962123394012451,0.8726879954338074,0.8340451717376709,0.7878497838973999,0.7406920194625854,0.6992443203926086,0.6678542494773865,0.6496630907058716,0.9122283458709717,0.8923067450523376,0.8592881560325623,0.8200151920318604,0.7799641489982605,0.7447160482406616,0.7180244922637939,0.7026987075805664,0.9324361681938171,0.9170603156089783,0.891137957572937,0.8605992794036865,0.8295150399208069,0.8020890951156616,0.7813257575035095,0.7696152925491333,0.9541072249412537,0.9436063170433044,0.925294041633606,0.904121994972229,0.8826538920402527,0.8636165857315063,0.8492106795310974,0.8413773775100708,0.9743150472640991,0.9683598875999451,0.9571438431739807,0.9447060823440552,0.9322047829627991,0.9209896326065063,0.912511944770813,0.9082939624786377,0.9903310537338257,0.9879786372184753,0.9823868274688721,0.9768714904785156,0.9714769124984741,0.9664613604545593,0.9626821875572205,0.9613295793533325,0.9999963641166687,0.9998181462287903,0.9976203441619873,0.9962825775146484,0.9951767921447754,0.9939025640487671,0.9929587841033936,0.9933353662490845;0.0006056131678633392,0.001629702281206846,0.002958032768219709,0.004357688128948212,0.005320494063198566,0.005328489933162928,0.004167568404227495,0.00200543855316937,0.001329377060756087,0.003577347612008452,0.006493156775832176,0.00956552941352129,0.01167897693812847,0.01169652957469225,0.009148199111223221,0.004402123391628265,0.001875989022664726,0.005048278253525496,0.009163007140159607,0.01349867507815361,0.01648112758994102,0.01650589890778065,0.01290974766016006,0.006212184671312571,0.0021676872856915,0.005833236966282129,0.01058776583522558,0.01559758931398392,0.01904378645122051,0.01907240599393845,0.0149170896038413,0.007178119849413633,0.002170141786336899,0.005839841905981302,0.01059975475072861,0.01561524998396635,0.01906534843146801,0.01909400150179863,0.01493398007005453,0.007186247501522303,0.001875696005299687,0.005047489888966084,0.009161575697362423,0.01349656656384468,0.01647855527698994,0.01650332100689411,0.0129077322781086,0.006211214698851109,0.001329999882727861,0.003579023759812117,0.006496199406683445,0.009570011869072914,0.01168445032089949,0.01170201040804386,0.009152485989034176,0.004404186736792326,0.0006056769052520394,0.001629873760975897,0.002958344295620918,0.004358146339654922,0.00532105378806591,0.005329050123691559,0.004168007057160139,0.002005649730563164
7;5e9ca2a2b1419a14102e743419fc21cc;-0.9673150777816772,-0.823883056640625,-0.5862073302268982,-0.2863248884677887,0.03527221083641052,0.33515465259552,0.5728304386138916,0.7162623405456543,-0.9700112342834473,-0.8375331163406372,-0.6180086135864258,-0.341028094291687,-0.04399128258228302,0.2329892218112946,0.452513724565506,0.5849918127059937,-0.9732998609542847,-0.8587111234664917,-0.668830394744873,-0.4292523264884949,-0.1723263114690781,0.06725174188613892,0.2571324408054352,0.3717211782932281,-0.9781153202056885,-0.8853552937507629,-0.7316461801528931,-0.5377068519592285,-0.3297242522239685,-0.1357849538326263,0.01792418956756592,0.1106842458248138,-0.9846839308738708,-0.9143630862236023,-0.7978370189666748,-0.6508127450942993,-0.4931422770023346,-0.3461179733276367,-0.2295919060707092,-0.1592710614204407,-0.9914402961730957,-0.9412214756011963,-0.8580058813095093,-0.7530102133750916,-0.6404117941856384,-0.5354161262512207,-0.4522005021572113,-0.4019817113876343,-0.9964256286621094,-0.9615452289581299,-0.9037461876869202,-0.8308194875717163,-0.7526121139526367,-0.6796854138374329,-0.6218863725662231,-0.5870059728622437,-0.9943186044692993,-0.9685558676719666,-0.9258652925491333,-0.8720014095306396,-0.8142372369766235,-0.7603733539581299,-0.7176827788352966,-0.6919200420379639;-0.9604340791702271,-0.9602799415588379,-0.9601976871490479,-0.9602826237678528,-0.9603230357170105,-0.96036297082901,-0.9602429866790771,-0.9601772427558899,-0.7967861890792847,-0.7966583371162415,-0.7965901494026184,-0.7966604828834534,-0.7966940402984619,-0.7967272400856018,-0.7966276407241821,-0.7965731024742126,-0.5256113409996033,-0.5255271196365356,-0.525482177734375,-0.5255284309387207,-0.5255505442619324,-0.5255725979804993,-0.5255067944526672,-0.5254708528518677,-0.1834621876478195,-0.1834329664707184,-0.1834173053503036,-0.1834331899881363,-0.1834408789873123,-0.1834488660097122,-0.1834257543087006,-0.1834131628274918,0.1834621876478195,0.183432400226593,0.1834166198968887,0.1834333389997482,0.1834411174058914,0.1834482103586197,0.1834255754947662,0.1834130734205246,0.5256113409996033,0.5255265235900879,0.5254814624786377,0.5255285501480103,0.5255507826805115,0.525571882724762,0.5255066752433777,0.5254707336425781,0.7967861890792847,0.7966577410697937,0.7965894341468811,0.7966606020927429,0.796694278717041,0.7967265248298645,0.7966275215148926,0.7965729832649231,0.9604340791702271,0.9602793455123901,0.9601969718933105,0.9602827429771423,0.9603232741355896,0.9603622555732727,0.9602428674697876,0.9601771235466003;0.008984045125544071,0.01973317004740238,0.02783463709056377,0.03218315169215202,0.03218451142311096,0.02783942967653275,0.01973241567611694,0.008981642313301563,0.01822908408939838,0.04003960639238358,0.05647790431976318,0.06530126184225082,0.06530401110649109,0.05648762360215187,0.04003807529807091,0.01822420954704285,0.02224275842308998,0.04885551705956459,0.06891318410634995,0.07967926561832428,0.07968262583017349,0.06892505288124084,0.04885364696383476,0.02223680913448334,0.02081670239567757,0.04572322592139244,0.06449493020772934,0.07457076758146286,0.07457391172647476,0.06450603157281876,0.04572147876024246,0.02081113308668137,0.01578102447092533,0.03466252610087395,0.04889325052499771,0.05653169006109238,0.05653407052159309,0.04890166595578194,0.03466119989752769,0.01577680371701717,0.009747940115630627,0.02141104266047478,0.03020136244595051,0.034919623285532,0.03492109477519989,0.03020656108856201,0.02141022495925426,0.009745332412421703,0.004799569491297007,0.01054210215806961,0.01487017143517733,0.01719328947365284,0.01719401404261589,0.01487273164093494,0.0105416988953948,0.004798285663127899,0.001613684464246035,0.00354440719820559,0.00499956589192152,0.005780631676316261,0.005780875682830811,0.005000426433980465,0.003544271690770984,0.001613253029063344
8;b162bd935fa02286f7fe201ceaa327c6;0.7510182857513428,0.7707521319389343,0.8034523725509644,0.8447112441062927,0.888957679271698,0.9302165508270264,0.9629167914390564,0.9826506376266479,0.6227327585220337,0.653658390045166,0.7049040794372559,0.769562304019928,0.8389024138450623,0.9035606384277344,0.9548063278198242,0.9857319593429565,0.4090863168239594,0.4580281376838684,0.5391278266906738,0.6414536237716675,0.7511888742446899,0.8535146713256836,0.934614360332489,0.9835561513900757,0.1472685039043427,0.2181433439254761,0.335587352514267,0.4837698936462402,0.6426824331283569,0.7908649444580078,0.9083089828491211,0.9791837930679321,-0.1220738887786865,-0.02867120504379272,0.1261028647422791,0.3213858306407928,0.5308093428611755,0.7260922789573669,0.8808663487434387,0.9742690324783325,-0.3654644191265106,-0.251592606306076,-0.06289982795715332,0.1751793473958969,0.430497944355011,0.6685771346092224,0.8572698831558228,0.9711416959762573,-0.5517129898071289,-0.4221707880496979,-0.2075113654136658,0.06333069503307343,0.3537845611572266,0.624626636505127,0.8392860889434814,0.9688282012939453,-0.6608671545982361,-0.5221876502037048,-0.292387068271637,-0.002440974116325378,0.3085002899169922,0.5984464287757874,0.8282470107078552,0.9669265151023865;-0.9602435827255249,-0.960291862487793,-0.9603632092475891,-0.9603806734085083,-0.9603450298309326,-0.9603735208511353,-0.9604828953742981,-0.9604523181915283,-0.7966281175613403,-0.7966682314872742,-0.7967274785041809,-0.7967418432235718,-0.7967122793197632,-0.7967360019683838,-0.7968266606330872,-0.7968013286590576,-0.5255070924758911,-0.5255336761474609,-0.5255727767944336,-0.5255821347236633,-0.525562584400177,-0.5255783796310425,-0.5256381034851074,-0.5256213545799255,-0.1834257990121841,-0.183435246348381,-0.183448925614357,-0.183451920747757,-0.183445081114769,-0.1834508776664734,-0.1834715902805328,-0.1834657043218613,0.1834257990121841,0.1834346801042557,0.1834482401609421,0.1834520697593689,0.1834453195333481,0.1834502220153809,0.1834714114665985,0.1834656149148941,0.5255070924758911,0.5255330801010132,0.5255720615386963,0.5255822539329529,0.5255628228187561,0.5255776643753052,0.5256379842758179,0.525621235370636,0.7966281175613403,0.7966676354408264,0.7967267632484436,0.7967419624328613,0.7967125177383423,0.7967352867126465,0.7968265414237976,0.7968012094497681,0.9602435827255249,0.9602912664413452,0.9603624939918518,0.9603807926177979,0.9603452682495117,0.9603728055953979,0.9604827761650085,0.9604521989822388;0.001235810457728803,0.002714990871027112,0.003830244764685631,0.004428320564329624,0.004428156185895205,0.003830285975709558,0.002715531503781676,0.001236079027876258,0.004254545550793409,0.009346944279968739,0.01318644918501377,0.01524545438587666,0.01524488814175129,0.01318659074604511,0.009348805993795395,0.004255470354110003,0.009498185478150845,0.02086686156690121,0.02943847514688969,0.03403516113758087,0.03403390198945999,0.02943879179656506,0.02087101899087429,0.009500249288976192,0.01590219140052795,0.03493602201342583,0.04928691685199738,0.0569828525185585,0.05698073655366898,0.04928744584321976,0.03494298085570335,0.01590564660727978,0.02095676586031914,0.04604057595133781,0.06495295464992523,0.07509507238864899,0.07509228587150574,0.06495365500450134,0.04604974761605263,0.02096131816506386,0.0220992173999548,0.04855046421289444,0.06849385052919388,0.07918885350227356,0.07918591797351837,0.06849458068609238,0.04856013506650925,0.02210401929914951,0.01782155595719814,0.03915273770689964,0.05523575842380524,0.06386057287454605,0.06385821104049683,0.05523635447025299,0.03916053846478462,0.01782543025910854,0.008684643544256687,0.01907956600189209,0.02691700123250484,0.03111997246742249,0.03111881949007511,0.02691729180514812,0.01908336766064167,0.008686531335115433
9;e0beaea894bc6ef9bb57456b39a0fea5;-0.9696729183197021,-0.8453561067581177,-0.6393554210662842,-0.3794383406639099,-0.1007004827260971,0.1592165976762772,0.3652173280715942,0.4895341396331787,-0.9528411030769348,-0.8313974142074585,-0.6301575899124146,-0.3762474358081818,-0.1039515137672424,0.1499586254358292,0.3511984348297119,0.4726421236991882,-0.9277207851409912,-0.8105597496032715,-0.6164168119430542,-0.3714608550071716,-0.1087675243616104,0.136188417673111,0.330331414937973,0.447492390871048,-0.9044948220252991,-0.7912947535514832,-0.6037152409553528,-0.3670406639575958,-0.1132283806800842,0.1234461814165115,0.3110256791114807,0.4242257475852966,-0.8922972083091736,-0.78120356798172,-0.5971144437789917,-0.3648437559604645,-0.115754246711731,0.1165164262056351,0.3006055951118469,0.4116992354393005,-0.9007056951522827,-0.7882089614868164,-0.6017947793006897,-0.3665905594825745,-0.1143551021814346,0.1208490878343582,0.3072632551193237,0.41975998878479,-0.9254952669143677,-0.808777928352356,-0.6153700947761536,-0.3713417053222656,-0.1096431463956833,0.1343852281570435,0.3277930915355682,0.44451043009758,-0.9529171586036682,-0.8315275907516479,-0.6303775906562805,-0.3765807151794434,-0.1044062674045563,0.1493905931711197,0.3505406379699707,0.471930205821991;-0.9685088396072388,-0.9702384471893311,-0.9723777770996094,-0.9762290120124817,-0.9816490411758423,-0.9882837533950806,-0.9954429864883423,-0.9996498227119446,-0.8497368097305298,-0.8554203510284424,-0.8654041290283203,-0.8817487955093384,-0.9052368998527527,-0.9353950023651123,-0.9684857130050659,-0.9936450719833374,-0.6529242992401123,-0.6651595830917358,-0.6881420612335205,-0.7251891493797302,-0.7786172032356262,-0.8477550148963928,-0.923815906047821,-0.9836947917938232,-0.4046000838279724,-0.4251020848751068,-0.4644853472709656,-0.5276532769203186,-0.6188574433326721,-0.7371771335601807,-0.8674547076225281,-0.9711402058601379,-0.1382946372032166,-0.1676618754863739,-0.2246335595846176,-0.3158137202262878,-0.4475293755531311,-0.6185922622680664,-0.8070123791694641,-0.9576765894889832,0.110029548406601,0.07239562273025513,-0.000976860523223877,-0.1182778477668762,-0.287769615650177,-0.5080143809318542,-0.7506511807441711,-0.9451220035552979,0.3068420886993408,0.2626563608646393,0.1762851774692535,0.03828179836273193,-0.1611499190330505,-0.4203744232654572,-0.7059813737869263,-0.9351717233657837,0.4256141185760498,0.377474457025528,0.2832588851451874,0.1327620148658752,-0.08473774790763855,-0.3674856722354889,-0.6790241003036499,-0.9291669726371765;0.005651441402733326,0.01200190931558609,0.01577403768897057,0.01610687933862209,0.01302665285766125,0.007798826321959496,0.002817833330482244,0.0002857206563930959,0.01212828047573566,0.0257567074149847,0.03385188803076744,0.03456618264317513,0.02795585989952087,0.01673667877912521,0.006047213450074196,0.0006131710833869874,0.01650566607713699,0.03505292162299156,0.04606984555721283,0.04704194143414497,0.03804579377174377,0.02277734503149986,0.008229797706007957,0.0008344791131094098,0.01843746192753315,0.03915545344352722,0.05146177858114243,0.0525476485490799,0.04249861463904381,0.02544316649436951,0.009192999452352524,0.0009321451652795076,0.01809438690543175,0.03842686861753464,0.05050420761108398,0.05156987532973289,0.04170782119035721,0.02496973611414433,0.009021940641105175,0.0009148003300651908,0.01584857329726219,0.03365745767951012,0.04423579946160316,0.04516919329762459,0.03653118759393692,0.02187057584524155,0.007902168668806553,0.0008012583712115884,0.01165626663714647,0.02475429698824883,0.03253442794084549,0.03322091698646545,0.02686786092817783,0.0160853136330843,0.005811865441501141,0.0005893073976039886,0.005518367979675531,0.01171930227428675,0.01540260948240757,0.01572761125862598,0.01271991524845362,0.007615188602358103,0.002751482184976339,0.0002789928403217345
10;b8c54ff4220583c23f543c02db5f54e2;-0.9602723121643066,-0.7966519594192505,-0.5255228877067566,-0.1834313124418259,0.1834312528371811,0.525522768497467,0.7966518402099609,0.9602721929550171,-0.960462212562561,-0.7968095541000366,-0.5256267786026001,-0.1834675520658493,0.1834675818681717,0.5256267786026001,0.7968095541000366,0.960462212562561,-0.9604331851005554,-0.7967854142189026,-0.5256108641624451,-0.1834619790315628,0.1834620386362076,0.5256108641624451,0.7967854142189026,0.9604331851005554,-0.9603784680366516,-0.7967400550842285,-0.5255809426307678,-0.1834516674280167,0.1834513992071152,0.5255807042121887,0.7967398166656494,0.9603782296180725,-0.9603731036186218,-0.7967355847358704,-0.5255779027938843,-0.1834503710269928,0.1834507882595062,0.5255782604217529,0.796735942363739,0.9603734612464905,-0.960321307182312,-0.7966926693916321,-0.5255497097969055,-0.1834407597780228,0.1834404915571213,0.5255494713783264,0.796692430973053,0.9603210687637329,-0.9603462219238281,-0.7967132925987244,-0.5255632996559143,-0.1834454387426376,0.1834453493356705,0.5255631804466248,0.7967131733894348,0.9603461027145386,-0.960315465927124,-0.7966877818107605,-0.5255464315414429,-0.1834395229816437,0.1834395527839661,0.5255464315414429,0.7966877818107605,0.960315465927124;-0.9773874282836914,-0.9776277542114258,-0.9800386428833008,-0.9820475578308105,-0.9852893352508545,-0.9878776669502258,-0.9895375967025757,-0.9923477172851562,-0.8824338912963867,-0.8862130641937256,-0.8948420286178589,-0.9061999320983887,-0.9213492870330811,-0.9375519752502441,-0.9523415565490723,-0.9643791913986206,-0.7250898480415344,-0.7347331047058105,-0.7536659240722656,-0.7805156111717224,-0.8153966665267944,-0.8541591763496399,-0.8907052874565125,-0.9180337190628052,-0.5265643000602722,-0.5436065196990967,-0.5755398869514465,-0.6219360828399658,-0.6817131638526917,-0.7489400506019592,-0.8129370808601379,-0.8595582246780396,-0.3136634230613708,-0.3386402726173401,-0.384515643119812,-0.4518736600875854,-0.5383495688438416,-0.6361019015312195,-0.7295376658439636,-0.7968484163284302,-0.1151378750801086,-0.1475136578083038,-0.2063896358013153,-0.2932941317558289,-0.4046660661697388,-0.5308827757835388,-0.6517694592475891,-0.7383729219436646,0.04220613837242126,0.003966271877288818,-0.06521350145339966,-0.1676098108291626,-0.2987134158611298,-0.4474899768829346,-0.5901331901550293,-0.6920274496078491,0.1371597051620483,0.0953809916973114,0.01998308300971985,-0.09176215529441833,-0.2347733974456787,-0.3971642851829529,-0.5529371500015259,-0.6640589237213135;0.005946536548435688,0.01257661264389753,0.01653468050062656,0.01701845228672028,0.01434665732085705,0.009767045266926289,0.005117344204336405,0.001751546515151858,0.01306606456637383,0.02763404324650764,0.0363309308886528,0.03739390149712563,0.03152328357100487,0.02146070264279842,0.01124411635100842,0.003848596243187785,0.01843136735260487,0.03898138180375099,0.05124946683645248,0.0527489185333252,0.04446765407919884,0.0302730854600668,0.01586127653717995,0.005428941454738379,0.02130773104727268,0.04506473988294601,0.05924735218286514,0.06098081544041634,0.05140719190239906,0.03499744459986687,0.01833655498921871,0.006276171188801527,0.02130761928856373,0.04506450518965721,0.05924704298377037,0.06098049879074097,0.05140692368149757,0.03499726206064224,0.0183364599943161,0.006276138592511415,0.0184292197227478,0.03897683694958687,0.05124348774552345,0.05274277180433273,0.04446247220039368,0.03026955761015415,0.01585942693054676,0.005428308621048927,0.01306448504328728,0.02763070352375507,0.03632653877139091,0.03738938271999359,0.03151947259902954,0.02145810797810555,0.01124275755137205,0.003848131513223052,0.005946803838014603,0.0125771788880229,0.01653542369604111,0.01701921783387661,0.01434730272740126,0.009767484851181507,0.005117574241012335,0.001751625211909413
11;372a56cac67dbaa6ce4091cd1fdc1159;-0.9603045582771301,-0.7966787219047546,-0.5255405306816101,-0.1834374666213989,0.1834374070167542,0.5255404114723206,0.7966786026954651,0.9603044390678406,-0.9603188037872314,-0.7966905236244202,-0.5255482792854309,-0.1834401488304138,0.1834401786327362,0.5255482792854309,0.7966905236244202,0.9603188037872314,-0.9602535963058472,-0.7966364622116089,-0.5255125761032104,-0.1834276914596558,0.1834277510643005,0.5255125761032104,0.7966364622116089,0.9602535963058472,-0.960252046585083,-0.7966352105140686,-0.5255118012428284,-0.1834275275468826,0.1834272593259811,0.5255115628242493,0.7966349720954895,0.9602518081665039,-0.9602429270744324,-0.7966275811195374,-0.5255066752433777,-0.1834255009889603,0.1834259182214737,0.5255070328712463,0.796627938747406,0.960243284702301,-0.9603395462036133,-0.7967077493667603,-0.525559663772583,-0.1834442317485809,0.1834439635276794,0.5255594253540039,0.7967075109481812,0.9603393077850342,-0.9603087902069092,-0.7966822385787964,-0.5255427956581116,-0.1834382861852646,0.1834381967782974,0.525542676448822,0.7966821193695068,0.9603086709976196,-0.9603551030158997,-0.7967206239700317,-0.5255681276321411,-0.183447077870369,0.1834471076726913,0.5255681276321411,0.7967206239700317,0.9603551030158997;0.1716798841953278,0.1321583092212677,0.0587000846862793,-0.05238193273544312,-0.1968008279800415,-0.3612073063850403,-0.5159358978271484,-0.6219761371612549,0.2404728531837463,0.2044844627380371,0.1372587382793427,0.03542691469192505,-0.09698468446731567,-0.2476144433021545,-0.3892128467559814,-0.4861758649349213,0.3544670939445496,0.3243333995342255,0.2674354016780853,0.1809316873550415,0.06841689348220825,-0.05938386917114258,-0.1792248636484146,-0.2611463665962219,0.4982969760894775,0.4755502939224243,0.4316830635070801,0.3645192980766296,0.277108907699585,0.1781120747327805,0.08572311699390411,0.0227799117565155,0.6525416374206543,0.6377168893814087,0.6078239679336548,0.5614005923271179,0.5009124279022217,0.4328052401542664,0.3698561191558838,0.3272654712200165,0.7963715195655823,0.7889337539672852,0.7720715999603271,0.7449882030487061,0.7096044421195984,0.6703011989593506,0.6348041296005249,0.6111917495727539,0.9103657603263855,0.9087827205657959,0.9022482633590698,0.8904929757118225,0.8750060200691223,0.8585317730903625,0.8447921276092529,0.8362212181091309,0.9791587591171265,0.9811089038848877,0.9808069467544556,0.9783018231391907,0.9748221635818481,0.9721246361732483,0.9715151786804199,0.9720214605331421;0.004308353643864393,0.009950785897672176,0.01524692308157682,0.01970292814075947,0.02239717543125153,0.02204647846519947,0.01743482984602451,0.00850487407296896,0.009464825503528118,0.02186042815446854,0.03349527344107628,0.04328447207808495,0.04920333623886108,0.04843290522694588,0.03830178081989288,0.01868396997451782,0.01335085462778807,0.03083579428493977,0.04724762216210365,0.06105602532625198,0.06940504163503647,0.06831829249858856,0.05402757227420807,0.02635515667498112,0.01543521694839001,0.03564994037151337,0.05462401360273361,0.07058822363615036,0.08024069666862488,0.07898427546024323,0.0624624639749527,0.03046977892518044,0.01543507538735867,0.0356496125459671,0.05462351068854332,0.07058757543563843,0.08023995906114578,0.07898355275392532,0.06246189028024673,0.0304694976657629,0.01335204765200615,0.03083855099976063,0.04725184291601181,0.06106148660182953,0.06941124051809311,0.06832439452409744,0.05403240025043488,0.02635751292109489,0.009464725852012634,0.02186019904911518,0.03349491953849792,0.04328401386737823,0.0492028184235096,0.04843239858746529,0.03830137848854065,0.01868377439677715,0.004308580886572599,0.009951311163604259,0.01524772681295872,0.01970396935939789,0.02239835448563099,0.02204763889312744,0.01743574813008308,0.00850532203912735
12;c2f7797bc14d819a0c24c6b87c4e0a1c;-0.3519684076309204,-0.2393585443496704,-0.05275693535804749,0.1826837211847305,0.4351727962493896,0.6706134080886841,0.8572150468826294,0.9698249101638794,-0.3516876101493835,-0.2391350865364075,-0.05262848734855652,0.1826923191547394,0.4350528419017792,0.6703736782073975,0.856880247592926,0.9694327712059021,-0.3522964417934418,-0.239672988653183,-0.05304884910583496,0.1824202984571457,0.4349398612976074,0.6704090237617493,0.8570331335067749,0.9696565866470337,-0.3522566258907318,-0.2396498620510101,-0.05305343866348267,0.1823807060718536,0.4348627626895905,0.6702969074249268,0.8568933010101318,0.9695000648498535,-0.3527814149856567,-0.2400950789451599,-0.05336672067642212,0.1822338998317719,0.434894472360611,0.6704950928688049,0.8572234511375427,0.9699097871780396,-0.3531247675418854,-0.2403921186923981,-0.05358707904815674,0.1821102797985077,0.4348746240139008,0.6705719828605652,0.8573770523071289,0.9701097011566162,-0.3536821901798248,-0.2408876717090607,-0.05398014187812805,0.181846559047699,0.4347496032714844,0.6705763339996338,0.8574838638305664,0.9702783823013306,-0.3535417318344116,-0.2407913208007812,-0.0539567768573761,0.1817777901887894,0.4345820546150208,0.6703165769577026,0.8571511507034302,0.9699015617370605;0.9808728098869324,0.9112775325775146,0.8077414631843567,0.6889209747314453,0.5763826966285706,0.4821671843528748,0.4132742881774902,0.3739340603351593,0.982580840587616,0.9187278747558594,0.8238204717636108,0.7150905728340149,0.6119703650474548,0.5255740284919739,0.4623555541038513,0.426187127828598,0.9854111671447754,0.9310736060142517,0.850464403629303,0.758455216884613,0.6709412932395935,0.5975018739700317,0.5436862707138062,0.5127736926078796,0.9889822006225586,0.9466505646705627,0.8840818405151367,0.8131697177886963,0.74534672498703,0.6882553696632385,0.6463035345077515,0.6220225095748901,0.992811918258667,0.9633554816246033,0.9201334714889526,0.871846079826355,0.8251398205757141,0.7855803370475769,0.7563514709472656,0.7391821146011353,0.9963829517364502,0.9789324402809143,0.9537509083747864,0.9265605807304382,0.8995452523231506,0.8763338327407837,0.8589687347412109,0.8484309315681458,0.9992132782936096,0.9912781715393066,0.9803948402404785,0.9699252247810364,0.9585161805152893,0.9482616782188416,0.9402994513511658,0.935017466545105,1.000921368598938,0.9987285137176514,0.9964738488197327,0.996094822883606,0.9941038489341736,0.9916685223579407,0.9893807172775269,0.9872705936431885;7.361851749010384e-05,0.0007054471643641591,0.002147691557183862,0.004041235893964767,0.00549561670050025,0.005797902122139931,0.004647317342460155,0.002252182690426707,0.0001616444351384416,0.00154895253945142,0.004715693648904562,0.008873355574905872,0.01206674426794052,0.01273047365248203,0.01020412985235453,0.004945124965161085,0.0002281709312228486,0.002186440862715244,0.006656487938016653,0.01252528093755245,0.01703294366598129,0.01796983741223812,0.01440375111997128,0.00698034418746829,0.0002637546858750284,0.002527420874685049,0.007694581989198923,0.01447862666100264,0.01968926936388016,0.02077227272093296,0.01665004715323448,0.008068944327533245,0.0002639411832205951,0.002529208082705736,0.007700022775679827,0.01448886375874281,0.01970319077372551,0.02078695967793465,0.01666181907057762,0.008074650540947914,0.0002283920912304893,0.002188560087233782,0.006662939675152302,0.01253742072731256,0.01704945228993893,0.01798725500702858,0.01441771164536476,0.006987110245972872,0.000161991934874095,0.001552282366901636,0.004725831560790539,0.008892430923879147,0.01209268532693386,0.01275784149765968,0.01022606622427702,0.004955756012350321,7.371042011072859e-05,0.000706327788066119,0.002150372602045536,0.00404628086835146,0.005502476822584867,0.005805139429867268,0.004653118550777435,0.002254994120448828
13;e4666d7885f2f45be9f58617a3839c55;-0.9760254621505737,-0.8760976195335388,-0.7105109095573425,-0.5015853047370911,-0.2775312662124634,-0.06860566139221191,0.09698104858398438,0.1969089210033417,-0.9768517017364502,-0.8807713985443115,-0.7215602397918701,-0.5206789970397949,-0.3052517771720886,-0.104370504617691,0.05484059453010559,0.1509208977222443,-0.9775868654251099,-0.8889121413230896,-0.7419725060462952,-0.5565744638442993,-0.3577516674995422,-0.1723536252975464,-0.02541399002075195,0.0632607638835907,-0.9795080423355103,-0.902207612991333,-0.7741159796714783,-0.6124990582466125,-0.4391793608665466,-0.2775624394416809,-0.1494708061218262,-0.07217040657997131,-0.982916533946991,-0.9213792681694031,-0.8194081783294678,-0.6907482743263245,-0.5527721047401428,-0.4241122007369995,-0.3221411108970642,-0.2606038451194763,-0.9882230162620544,-0.9464215040206909,-0.8771536946296692,-0.7897564768791199,-0.6960307955741882,-0.6086335778236389,-0.5393657684326172,-0.4975642561912537,-0.994953989982605,-0.9741055965423584,-0.9395585656166077,-0.895969569683075,-0.8492242693901062,-0.8056352734565735,-0.7710882425308228,-0.7502398490905762,-0.9983944892883301,-0.9936360120773315,-0.9857509732246399,-0.9758021831512451,-0.9651329517364502,-0.9551841616630554,-0.9472991228103638,-0.9425406455993652;-0.9640093445777893,-0.9633117914199829,-0.9622373580932617,-0.9614284038543701,-0.9613550901412964,-0.9614156484603882,-0.9622601270675659,-0.9626232385635376,-0.8167855739593506,-0.8161023259162903,-0.815072774887085,-0.8142713308334351,-0.8141615390777588,-0.8142418265342712,-0.8149816989898682,-0.8153091669082642,-0.572826623916626,-0.5721670985221863,-0.5712119340896606,-0.5704229474067688,-0.5702525973320007,-0.5703656673431396,-0.570932149887085,-0.5712004899978638,-0.2650164365768433,-0.2643868923187256,-0.2635254859924316,-0.2627522945404053,-0.2625055611133575,-0.2626599669456482,-0.263007640838623,-0.2632015347480774,0.06508242338895798,0.06567981839179993,0.06644067913293839,0.06719692051410675,0.06752558797597885,0.06732685118913651,0.06721381843090057,0.06709979474544525,0.3728925883769989,0.3734599947929382,0.3741271197795868,0.3748675584793091,0.3752726018428802,0.3750325441360474,0.3751383125782013,0.3750987648963928,0.6168515682220459,0.6173952221870422,0.6179879903793335,0.6187160015106201,0.6191815137863159,0.618908703327179,0.6191878318786621,0.6192073822021484,0.7640753388404846,0.7646046876907349,0.7651525735855103,0.7658729553222656,0.7663750648498535,0.7660825252532959,0.7664663791656494,0.7665214538574219;0.005630928557366133,0.01236894074827433,0.01744319871068001,0.02016546577215195,0.02017047256231308,0.01744429022073746,0.01237474009394646,0.005634382367134094,0.01189385447651148,0.02612613141536713,0.0368441641330719,0.04259424284100533,0.04260481894016266,0.03684647381305695,0.02613838016986847,0.01190114952623844,0.01548510696738958,0.03401470929384232,0.04796896129846573,0.05545522272586823,0.05546899139881134,0.04797196388244629,0.03403065353631973,0.01549460459500551,0.01560631394386292,0.03428095206618309,0.04834443330764771,0.05588929727673531,0.05590317025780678,0.04834746196866035,0.03429702296853065,0.01561588700860739,0.01242386363446712,0.02729035541415215,0.03848600387573242,0.04449231177568436,0.0445033572614193,0.03848841413855553,0.02730314806103706,0.01243148371577263,0.007299726828932762,0.01603463850915432,0.02261271700263023,0.02614176273345947,0.02614825218915939,0.02261413261294365,0.01604215428233147,0.007304204162210226,0.00258083431981504,0.005669080186635256,0.007994774729013443,0.009242476895451546,0.009244771674275398,0.007995275780558586,0.005671738181263208,0.002582417102530599,0.0002681385667528957,0.0005889952299185097,0.0008306257077492774,0.0009602571371942759,0.0009604954975657165,0.000830677745398134,0.0005892713670618832,0.0002683030324988067
14;b82cb4a2b13b42c5d4a9a76d868c5d30;-0.9878334999084473,-0.9366070628166199,-0.8517217040061951,-0.7446193099021912,-0.6297616362571716,-0.5226592421531677,-0.4377738833427429,-0.3865474462509155,-0.9885401725769043,-0.9404256343841553,-0.8606968522071838,-0.7601007223129272,-0.6522203683853149,-0.5516242384910583,-0.4718954563140869,-0.4237809181213379,-0.9891250133514404,-0.9466383457183838,-0.87623530626297,-0.7874057292938232,-0.6921439170837402,-0.6033143401145935,-0.5329113006591797,-0.490424633026123,-0.9904317855834961,-0.9556760787963867,-0.8980836272239685,-0.8254175782203674,-0.7474897503852844,-0.6748237013816833,-0.6172312498092651,-0.5824755430221558,-0.9928562045097351,-0.9673122763633728,-0.9249843955039978,-0.8715780973434448,-0.8143045902252197,-0.7608982920646667,-0.7185704112052917,-0.6930264830589294,-0.9955065846443176,-0.9797173738479614,-0.9535536766052246,-0.9205421209335327,-0.8851401805877686,-0.8521286249160767,-0.8259649276733398,-0.8101757168769836,-0.9983618855476379,-0.9911698698997498,-0.9792523384094238,-0.9642156362533569,-0.9480900764465332,-0.9330533742904663,-0.9211358428001404,-0.9139438271522522,-1.000352025032043,-0.9987927079200745,-0.9962087869644165,-0.9929486513137817,-0.9894523620605469,-0.9861922264099121,-0.9836083054542542,-0.9820489883422852;-0.9780082702636719,-0.9787683486938477,-0.978773295879364,-0.9791823625564575,-0.9796606302261353,-0.9798010587692261,-0.9800857305526733,-0.9796984195709229,-0.9007718563079834,-0.9014201164245605,-0.9014500379562378,-0.9018086194992065,-0.9022400975227356,-0.9023686647415161,-0.9025965929031372,-0.9022364020347595,-0.7727863192558289,-0.7732493281364441,-0.7733206152915955,-0.7735955119132996,-0.7739495038986206,-0.7740583419799805,-0.7741920948028564,-0.773876965045929,-0.6113031506538391,-0.61153244972229,-0.6116559505462646,-0.6118253469467163,-0.6120815277099609,-0.6121655106544495,-0.6121805310249329,-0.6119221448898315,-0.4381269514560699,-0.438105583190918,-0.4382850229740143,-0.4383412599563599,-0.4384925663471222,-0.4385499358177185,-0.4384375512599945,-0.4382400512695312,-0.2766438126564026,-0.2763887047767639,-0.2766203284263611,-0.2765710949897766,-0.2766245603561401,-0.2766570746898651,-0.2764259278774261,-0.2762852311134338,-0.1486582458019257,-0.1482178866863251,-0.1484909057617188,-0.1483579874038696,-0.1483339667320251,-0.1483467817306519,-0.1480214893817902,-0.1479257941246033,-0.07142183184623718,-0.07086965441703796,-0.07116764783859253,-0.07098427414894104,-0.07091346383094788,-0.07091438770294189,-0.07053229212760925,-0.07046374678611755;0.001514368806965649,0.003331613494083285,0.00469829561188817,0.005435357335954905,0.005438643507659435,0.00470492709428072,0.003337685717269778,0.001518792356364429,0.003124702256172895,0.006874348968267441,0.009694320149719715,0.0112151512876153,0.01122193224728107,0.009708003140985966,0.00688687851652503,0.003133829683065414,0.003892341628670692,0.008563158102333546,0.01207590475678444,0.01397035643458366,0.01397880259901285,0.01209294889122248,0.008578765206038952,0.003903711680322886,0.003681199159473181,0.008098643273115158,0.01142083946615458,0.013212526217103,0.01322051323950291,0.01143695972859859,0.008113403804600239,0.003691952442750335,0.002705516992136836,0.005952141247689724,0.008393807336688042,0.009710616432130337,0.009716487489640713,0.008405654691159725,0.005962989758700132,0.002713420195505023,0.001446502283215523,0.003182307118549943,0.004487741272896528,0.005191772244870663,0.005194910801947117,0.004494075197726488,0.003188107162714005,0.001450727577321231,0.0004670684284064919,0.001027551130391657,0.00144906947389245,0.001676397514529526,0.001677411142736673,0.001451114774681628,0.001029424020089209,0.0004684327577706426,4.6097189624561e-05,0.0001014138833852485,0.000143015495268628,0.0001654515945119783,0.0001655515952734277,0.0001432173448847607,0.000101598707260564,4.623184213414788e-05
15;c7a14376ff2627413a7afdb816ee5572;-0.5895093083381653,-0.4570948481559753,-0.2376758009195328,0.03917163610458374,0.3360657393932343,0.612913191318512,0.8323321938514709,0.9647466540336609,-0.5893100500106812,-0.4569271206855774,-0.2375603169202805,0.0392211377620697,0.3360444903373718,0.6128259301185608,0.8321927189826965,0.9645756483078003,-0.5895696878433228,-0.4571110010147095,-0.2376187145709991,0.03932113945484161,0.3363143801689148,0.613254189491272,0.8327465057373047,0.965205192565918,-0.5894625782966614,-0.4570450186729431,-0.2376209199428558,0.03923287987709045,0.3361338078975677,0.6129876375198364,0.8324117064476013,0.9648292660713196,-0.5893147587776184,-0.4569400548934937,-0.2375868856906891,0.03917740285396576,0.3359823226928711,0.6127465963363647,0.8320997953414917,0.9644744992256165,-0.589095413684845,-0.456739068031311,-0.2374163120985031,0.03930960595607758,0.3360733985900879,0.6127992868423462,0.8321220874786377,0.9644784331321716,-0.5889264941215515,-0.4565639495849609,-0.2372309267520905,0.03950795531272888,0.3362856209278107,0.6130244731903076,0.8323575258255005,0.9647200703620911,-0.5883890390396118,-0.4560675024986267,-0.236802414059639,0.03985071182250977,0.3365364372730255,0.6131895780563354,0.8324546217918396,0.9647761583328247;0.9614187479019165,0.8179758787155151,0.6181540489196777,0.4174989759922028,0.2483909130096436,0.1214040517807007,0.03716963529586792,-0.008225977420806885,0.9647111296653748,0.8331602215766907,0.6499527096748352,0.4660812616348267,0.3111567795276642,0.1948462724685669,0.1176267862319946,0.0759786069393158,0.970166802406311,0.8583216667175293,0.7026450634002686,0.5465851426124573,0.4151637256145477,0.3165446221828461,0.2509492635726929,0.2155109047889709,0.9770503640174866,0.8900686502456665,0.7691285014152527,0.6481592655181885,0.5463923215866089,0.4700949788093567,0.4191661477088928,0.3915628492832184,0.9844323992729187,0.9241143465042114,0.8404260277748108,0.7570884227752686,0.6871232986450195,0.6347640156745911,0.5995636582374573,0.5803627967834473,0.9913159608840942,0.9558613300323486,0.9069094657897949,0.8586625456809998,0.8183518648147583,0.7883143424987793,0.7677805423736572,0.7564147710800171,0.9967716336250305,0.9810227751731873,0.9596018195152283,0.9391664266586304,0.9223588705062866,0.9100127220153809,0.9011030197143555,0.8959470987319946,1.000064015388489,0.9962071180343628,0.9914004802703857,0.9877487421035767,0.9851247072219849,0.9834549427032471,0.9815601706504822,0.9801516532897949;0.0001668628683546558,0.001690606120973825,0.004994363989681005,0.008821737021207809,0.01139723602682352,0.01153499539941549,0.008957982994616032,0.004267629701644182,0.0003664806135930121,0.003713075537234545,0.01096911262720823,0.01937516592442989,0.02503172867000103,0.02533429116010666,0.019674401730299,0.009372987784445286,0.0005172796663828194,0.005240927916020155,0.01548267249017954,0.0273476354777813,0.03533175960183144,0.03575881943106651,0.02777000516653061,0.01322977431118488,0.0005978536210022867,0.006057280115783215,0.0178943257778883,0.03160743787884712,0.04083520546555519,0.0413287840783596,0.03209559246897697,0.01529050804674625,0.000597660371568054,0.006055321544408798,0.01788854226469994,0.03159721940755844,0.04082200303673744,0.04131542146205902,0.03208521753549576,0.01528556272387505,0.0005168800707906485,0.005236878991127014,0.01547071151435375,0.02732651121914387,0.0353044681251049,0.03573119640350342,0.02774855308234692,0.01321955397725105,0.0003664242394734174,0.003712503938004375,0.01096742507070303,0.01937218382954597,0.02502787858247757,0.02533039264380932,0.01967137306928635,0.009371545165777206,0.0001667457545408979,0.001689419732429087,0.004990858491510153,0.008815545588731766,0.01138923782855272,0.01152690034359694,0.008951695635914803,0.004264634568244219
16;a17c9d2e4ea7cce7a03918940cb72d87;-0.995551586151123,-0.974743664264679,-0.940263569355011,-0.8967590928077698,-0.8501043915748596,-0.8065999150276184,-0.7721198201179504,-0.7513118982315063,-0.9952991008758545,-0.976091742515564,-0.9442639946937561,-0.9041059613227844,-0.8610400557518005,-0.8208820223808289,-0.789054274559021,-0.7698469161987305,-0.9953519105911255,-0.9787716865539551,-0.9512971043586731,-0.9166316390037537,-0.879456102848053,-0.8447906374931335,-0.8173160552978516,-0.8007358312606812,-0.995462954044342,-0.9823451638221741,-0.960608184337616,-0.9331819415092468,-0.9037697911262512,-0.8763435482978821,-0.854606568813324,-0.841488778591156,-0.9959277510643005,-0.9867001175880432,-0.9714094400405884,-0.9521166682243347,-0.9314269423484802,-0.9121341705322266,-0.8968434929847717,-0.8876158595085144,-0.9968433380126953,-0.9913821220397949,-0.9823324680328369,-0.9709142446517944,-0.9586693048477173,-0.9472510814666748,-0.9382014274597168,-0.9327402114868164,-0.9981918334960938,-0.9958158135414124,-0.9918786883354187,-0.9869110584259033,-0.9815837144851685,-0.9766160845756531,-0.9726789593696594,-0.970302939414978,-0.9997760653495789,-0.9993181228637695,-0.9985592365264893,-0.9976018071174622,-0.9965749382972717,-0.9956175088882446,-0.9948586225509644,-0.994400680065155;-0.99132239818573,-0.98969566822052,-0.9905517101287842,-0.9895404577255249,-0.9901669025421143,-0.990311861038208,-0.9891183376312256,-0.989244818687439,-0.9230693578720093,-0.9217138290405273,-0.9224140644073486,-0.9215198159217834,-0.9219889044761658,-0.9220885038375854,-0.921119213104248,-0.9212812185287476,-0.8099697828292847,-0.809063732624054,-0.8095058798789978,-0.8088052868843079,-0.8090137839317322,-0.8090382814407349,-0.8084403276443481,-0.8086613416671753,-0.6672687530517578,-0.6669297814369202,-0.6670463085174561,-0.6665900945663452,-0.6664698123931885,-0.6663994789123535,-0.6662701964378357,-0.6665655374526978,-0.5142346620559692,-0.5145038962364197,-0.5142711400985718,-0.5140770673751831,-0.5136040449142456,-0.5134321451187134,-0.5138054490089417,-0.5141804218292236,-0.3715336322784424,-0.3723699450492859,-0.37181156873703,-0.3718618750572205,-0.3710600733757019,-0.370793342590332,-0.3716352880001068,-0.3720846176147461,-0.2584340870380402,-0.2597198188304901,-0.2589033544063568,-0.2591473460197449,-0.2580849528312683,-0.2577430903911591,-0.2589564621448517,-0.2594647109508514,-0.1901810467243195,-0.1917380094528198,-0.190765768289566,-0.191126674413681,-0.1899069845676422,-0.1895197927951813,-0.1909573376178741,-0.19150111079216;0.0005435840575955808,0.001189411617815495,0.00168171338737011,0.00194093375466764,0.001945421565324068,0.001683829119428992,0.001189714763313532,0.000541278684977442,0.001102299662306905,0.0024119324516505,0.003410240402445197,0.003935896791517735,0.003944997675716877,0.00341453030705452,0.002412547124549747,0.001097624772228301,0.001342301140539348,0.002937078010290861,0.004152745474129915,0.004792851861566305,0.004803934134542942,0.004157969728112221,0.002937826327979565,0.001336608431302011,0.001227788394317031,0.002686513587832451,0.003798471530899405,0.004383970517665148,0.004394107032567263,0.00380324968136847,0.002687198109924793,0.001222581253387034,0.0008636776474304497,0.001889806007966399,0.002672003582119942,0.003083867719396949,0.003090998390689492,0.002675364958122373,0.001890287501737475,0.000860014813952148,0.0004421306657604873,0.0009674225002527237,0.00136784219648689,0.001578682218678296,0.001582332421094179,0.001369563047774136,0.0009676690096966922,0.0004402556223794818,0.0001363566552754492,0.0002983608574140817,0.0004218535323161632,0.0004868782707490027,0.0004880040360148996,0.0004223842115607113,0.0002984368766192347,0.0001357783621642739,1.196366429212503e-05,2.617759128042962e-05,3.701259265653789e-05,4.271773650543764e-05,4.281650763005018e-05,3.705915514728986e-05,2.618426151457243e-05,1.191292631119723e-05
17;d867dcf7063faaeb15b41bc2985ce00b;-0.9601435661315918,-0.7965452075004578,-0.5254524350166321,-0.183406725525856,0.1834066659212112,0.5254523158073425,0.7965450882911682,0.9601434469223022,-0.9602288603782654,-0.7966159582138062,-0.5254990458488464,-0.1834229826927185,0.1834230124950409,0.5254990458488464,0.7966159582138062,0.9602288603782654,-0.9602418541908264,-0.7966266870498657,-0.5255061984062195,-0.1834254413843155,0.1834255009889603,0.5255061984062195,0.7966266870498657,0.9602418541908264,-0.960234522819519,-0.7966206669807434,-0.5255022048950195,-0.1834241896867752,0.1834239214658737,0.5255019664764404,0.7966204285621643,0.9602342844009399,-0.960179328918457,-0.7965747714042664,-0.5254718661308289,-0.1834133416414261,0.1834137588739395,0.5254722237586975,0.796575129032135,0.9601796865463257,-0.9602669477462769,-0.7966475486755371,-0.5255199670791626,-0.1834303736686707,0.1834301054477692,0.5255197286605835,0.796647310256958,0.9602667093276978,-0.9602470397949219,-0.7966309785842896,-0.5255089998245239,-0.1834264844655991,0.1834263950586319,0.5255088806152344,0.796630859375,0.9602469205856323,-0.9602422118186951,-0.7966269850730896,-0.5255063772201538,-0.1834255307912827,0.183425560593605,0.5255063772201538,0.7966269850730896,0.9602422118186951;-0.9820258021354675,-0.9843435883522034,-0.9848740100860596,-0.9857873916625977,-0.9851055145263672,-0.9843453168869019,-0.9852726459503174,-0.9842531085014343,-0.914705753326416,-0.9171451330184937,-0.9183887839317322,-0.9201023578643799,-0.9205682277679443,-0.9209320545196533,-0.9225476980209351,-0.9221621155738831,-0.8031522035598755,-0.8057931661605835,-0.8082185983657837,-0.81125807762146,-0.8136259317398071,-0.8158524036407471,-0.8186085820198059,-0.8192734718322754,-0.6624017953872681,-0.6652970910072327,-0.669213593006134,-0.6739259958267212,-0.6786937713623047,-0.6832703351974487,-0.687465488910675,-0.6894559264183044,-0.5114595890045166,-0.5146276354789734,-0.5201432108879089,-0.5266497135162354,-0.5339910984039307,-0.5410878658294678,-0.5468263030052185,-0.5502381920814514,-0.3707092106342316,-0.3741315603256226,-0.3811382353305817,-0.389317661523819,-0.3990589082241058,-0.4085057973861694,-0.4156832098960876,-0.4204206168651581,-0.259155660867691,-0.2627795934677124,-0.2709680199623108,-0.280473381280899,-0.292116641998291,-0.3034261465072632,-0.3117440640926361,-0.3175320029258728,-0.1918355822563171,-0.1955811381340027,-0.2044827938079834,-0.2147882878780365,-0.2275793850421906,-0.240012913942337,-0.2490191161632538,-0.2554410099983215;0.004215402994304895,0.009243755601346493,0.01290151011198759,0.014736233279109,0.0144787197932601,0.01230538077652454,0.008628387004137039,0.003887970698997378,0.009261311031877995,0.02030868455767632,0.02834483794867992,0.0323757529258728,0.03180999308824539,0.02703513205051422,0.01895671151578426,0.008541937917470932,0.01306484453380108,0.02864927798509598,0.03998579829931259,0.04567217454314232,0.04487406089901924,0.03813820704817772,0.02674206160008907,0.01205003168433905,0.01510446425527334,0.03312186151742935,0.04622818157076836,0.05280229449272156,0.05187958106398582,0.04409215971827507,0.03091689758002758,0.0139312231913209,0.01510360091924667,0.03311996161937714,0.04622553661465645,0.05279926955699921,0.05187661200761795,0.04408963397145271,0.03091512806713581,0.01393042597919703,0.01306518446654081,0.02865002118051052,0.03998683393001556,0.04567336291074753,0.04487523064017296,0.03813919797539711,0.02674275450408459,0.01205034460872412,0.009261485189199448,0.02030906826257706,0.02834536880254745,0.03237636387348175,0.03181059285998344,0.02703563868999481,0.01895706914365292,0.008542098104953766,0.004215835593640804,0.009244705550372601,0.01290283538401127,0.01473774760961533,0.01448020804673433,0.01230664551258087,0.008629273623228073,0.003888370469212532
18;0a96c8d6dc0ed2d3d4032f3df7e72eef;-0.9602423906326294,-0.7966271638870239,-0.5255064964294434,-0.1834255903959274,0.1834255307912827,0.5255063772201538,0.7966270446777344,0.9602422714233398,-0.960279107093811,-0.7966576218605042,-0.5255265831947327,-0.1834325790405273,0.1834326088428497,0.5255265831947327,0.7966576218605042,0.960279107093811,-0.9603557586669922,-0.7967212200164795,-0.5255684852600098,-0.1834471970796585,0.1834472566843033,0.5255684852600098,0.7967212200164795,0.9603557586669922,-0.9603554606437683,-0.7967209219932556,-0.5255683660507202,-0.1834472715854645,0.183447003364563,0.5255681276321411,0.7967206835746765,0.9603552222251892,-0.9603060483932495,-0.7966799139976501,-0.5255411863327026,-0.1834375560283661,0.1834379732608795,0.5255415439605713,0.7966802716255188,0.9603064060211182,-0.9603031277656555,-0.7966775298118591,-0.525539755821228,-0.1834372878074646,0.1834370195865631,0.5255395174026489,0.79667729139328,0.9603028893470764,-0.9603207111358643,-0.7966921329498291,-0.5255493521690369,-0.1834405660629272,0.1834404766559601,0.5255492329597473,0.7966920137405396,0.9603205919265747,-0.9602830410003662,-0.796660840511322,-0.5255286693572998,-0.183433324098587,0.1834333539009094,0.5255286693572998,0.796660840511322,0.9602830410003662;-0.1630982458591461,-0.168599396944046,-0.1761268377304077,-0.1834093034267426,-0.1916212439537048,-0.1996564567089081,-0.2073797285556793,-0.2116278409957886,-0.06679242849349976,-0.07175090909004211,-0.07854363322257996,-0.084969162940979,-0.0921478271484375,-0.09936496615409851,-0.1063680946826935,-0.1103493571281433,0.0927923321723938,0.08873304724693298,0.08315786719322205,0.07815226912498474,0.0726858377456665,0.06682434678077698,0.06101450324058533,0.05747538805007935,0.2941451072692871,0.2912203371524811,0.2871813476085663,0.2839673459529877,0.2806612551212311,0.2765102684497833,0.2722060084342957,0.2692247629165649,0.5100778937339783,0.5083698034286499,0.5059782862663269,0.504685640335083,0.5036963224411011,0.501379668712616,0.4986900091171265,0.4963070154190063,0.7114306688308716,0.7108571529388428,0.7100017070770264,0.7105007171630859,0.7116717100143433,0.7110655307769775,0.7098815441131592,0.7080563902854919,0.8710154294967651,0.8713411092758179,0.8717032670974731,0.8736221194267273,0.8765053749084473,0.877254843711853,0.877264142036438,0.8758811354637146,0.9673212766647339,0.9681895971298218,0.9692864418029785,0.9720622301101685,0.9759787917137146,0.9775463342666626,0.9782757759094238,0.9771596193313599;0.006031033117324114,0.01332375779747963,0.01893804036080837,0.02208698913455009,0.02231882512569427,0.01946364343166351,0.01389650069177151,0.006342438980937004,0.01324961241334677,0.02927104011178017,0.04160509258508682,0.04852303490042686,0.04903236031532288,0.04275979474186897,0.03052930161356926,0.01393374148756266,0.01869234442710876,0.041295126080513,0.05869580805301666,0.0684555321931839,0.06917408108711243,0.06032484397292137,0.04307025671005249,0.01965750195086002,0.02161065675318241,0.04774226248264313,0.06785960495471954,0.07914305478334427,0.07997377961874008,0.06974296271800995,0.04979453608393669,0.02272650040686131,0.02160955220460892,0.04773981869220734,0.06785613298416138,0.07913900911808014,0.07996968924999237,0.06973940134048462,0.04979199171066284,0.02272533811628819,0.01869131624698639,0.04129285737872124,0.05869258195161819,0.06845176964998245,0.069170281291008,0.06032152846455574,0.04306789115071297,0.01965642161667347,0.01325018610805273,0.02927230484783649,0.04160689190030098,0.0485251359641552,0.0490344800055027,0.04276164248585701,0.03053062036633492,0.01393434405326843,0.006031289231032133,0.01332432311028242,0.01893884316086769,0.02208792418241501,0.02231977321207523,0.01946446858346462,0.01389708928763866,0.006342707667499781
19;1917fa1202fd8f18b45641f183544c2f;0.9845294952392578,0.9859241843223572,0.9882352948188782,0.9911513328552246,0.9942784309387207,0.9971944689750671,0.9995055794715881,1.000900268554688,0.9328617453575134,0.938582181930542,0.9480613470077515,0.960021436214447,0.9728476405143738,0.9848077297210693,0.9942868947982788,1.000007271766663,0.8508708477020264,0.8634879589080811,0.8843952417373657,0.9107745885848999,0.9390641450881958,0.96544349193573,0.9863507747650146,0.9989678859710693,0.7560896277427673,0.7765352129936218,0.8104148507118225,0.8531618118286133,0.8990041017532349,0.9417510628700256,0.9756307005882263,0.9960762858390808,0.6637902855873108,0.6918635368347168,0.7383827567100525,0.7970773577690125,0.8600221276283264,0.9187167286872864,0.9652359485626221,0.9933091998100281,0.5844271183013916,0.6191883087158203,0.6767898201942444,0.7494673132896423,0.8274074196815491,0.900084912776947,0.9576864242553711,0.9924476146697998,0.5262351036071777,0.5659297704696655,0.6317063570022583,0.7146985530853271,0.80370032787323,0.8866925239562988,0.9524691104888916,0.9921637773513794,0.4933968782424927,0.5358173847198486,0.606110692024231,0.6948018670082092,0.7899152636528015,0.8786064386367798,0.9488997459411621,0.9913202524185181;0.4432524740695953,0.4443845748901367,0.4430217444896698,0.4417611956596375,0.4419832229614258,0.4418327510356903,0.4417465627193451,0.4418666660785675,0.489551305770874,0.4905255436897278,0.4893933534622192,0.4883488416671753,0.4885309934616089,0.4883951544761658,0.4882813692092896,0.4883173108100891,0.5662713050842285,0.5669839978218079,0.5662339925765991,0.5655475258827209,0.5656635761260986,0.5655519366264343,0.5653924345970154,0.5652889013290405,0.6630712151527405,0.6634538769721985,0.6631860136985779,0.6629512906074524,0.6629840135574341,0.6629029512405396,0.662685751914978,0.6624062657356262,0.7668804526329041,0.7669091820716858,0.7671584486961365,0.7674081921577454,0.767351508140564,0.7673031091690063,0.767024040222168,0.7665559649467468,0.863680362701416,0.8633790612220764,0.8641104698181152,0.8648119568824768,0.8646719455718994,0.8646541237831116,0.8643173575401306,0.8636733293533325,0.9404003620147705,0.9398375153541565,0.9409511089324951,0.9420106410980225,0.9418045282363892,0.9418109059333801,0.9414284229278564,0.9406449198722839,0.9866992235183716,0.9859784841537476,0.9873226881027222,0.9885982871055603,0.9883522987365723,0.9883732795715332,0.9879631996154785,0.9870955944061279;2.471534207870718e-05,5.411008896771818e-05,7.671309140278026e-05,8.910309406928718e-05,8.902683475753292e-05,7.702874427195638e-05,5.457194492919371e-05,2.479639442753978e-05,0.0002226949291070923,0.0004875531303696334,0.0006912151584401727,0.0008028539014048874,0.0008021668181754649,0.0006940593011677265,0.0004917146288789809,0.0002234252606285736,0.0006928916554898024,0.00151696999091655,0.002150642452761531,0.002497994573786855,0.002495856955647469,0.002159491647034883,0.001529917935840786,0.0006951639661565423,0.00129810709040612,0.002841987647116184,0.004029150120913982,0.004679901525378227,0.004675896838307381,0.004045728594064713,0.002866245340555906,0.001302364282310009,0.00178239424712956,0.003902252996340394,0.005532312206923962,0.006425840314477682,0.006420341320335865,0.005555075593292713,0.003935560118407011,0.00178823946043849,0.001908978330902755,0.00417938781902194,0.005925212055444717,0.0068821981549263,0.006876308470964432,0.005949592217803001,0.004215060733258724,0.001915238681249321,0.00154529872816056,0.003383171977475286,0.00479640020057559,0.005571070592850447,0.005566302686929703,0.004816135391592979,0.0034120490308851,0.001550366636365652,0.0007517279591411352,0.001645782147534192,0.002333262469619513,0.002710109576582909,0.002707790583372116,0.00234286324121058,0.001659829635173082,0.0007541932282038033
20;8975ef7df607253689476eae7028baf9;0.909433126449585,0.9169911742210388,0.9295153021812439,0.9453174471855164,0.9622637629508972,0.9780659079551697,0.9905900359153748,0.9981480836868286,0.6092185974121094,0.6417698860168457,0.6957093477249146,0.7637664079666138,0.8367515802383423,0.9048086404800415,0.9587481021881104,0.9912993907928467,0.2691432535648346,0.3300782740116119,0.4310514330863953,0.5584522485733032,0.6950781345367432,0.8224789500236511,0.9234521389007568,0.9843871593475342,-0.008448511362075806,0.07573136687278748,0.2152226567268372,0.3912228941917419,0.5799674391746521,0.7559676766395569,0.8954589366912842,0.9796388149261475,-0.2066020965576172,-0.1058987975120544,0.06097286939620972,0.2715197205543518,0.4973123669624329,0.707859218120575,0.8747308850288391,0.9754341840744019,-0.3378835320472717,-0.22636479139328,-0.04157137870788574,0.1915879100561142,0.4416303634643555,0.6747896671295166,0.8595830798149109,0.9711018204689026,-0.4194567501544952,-0.3011690080165863,-0.105158805847168,0.1421530097723007,0.407372772693634,0.6546846032142639,0.8506947755813599,0.9689825773239136,-0.4619724750518799,-0.3401438593864441,-0.1382662057876587,0.1164486855268478,0.3896076083183289,0.6443225145339966,0.846200168132782,0.9680287837982178;-0.5129663944244385,-0.5128615498542786,-0.5135486125946045,-0.5144343376159668,-0.5139332413673401,-0.5143306851387024,-0.5144644975662231,-0.5144497752189636,-0.3869706690311432,-0.3868559598922729,-0.3874804675579071,-0.3883025646209717,-0.3879028558731079,-0.388230562210083,-0.3883924782276154,-0.3884191513061523,-0.1781879663467407,-0.1780567616224289,-0.1785775423049927,-0.1792943328619003,-0.1790626794099808,-0.1792747527360916,-0.1794832944869995,-0.1795786470174789,0.08523927628993988,0.08539128303527832,0.08500136435031891,0.08441741764545441,0.08443714678287506,0.08437091112136841,0.08410356938838959,0.08392158150672913,0.3677414059638977,0.3679157197475433,0.3676661849021912,0.3672246932983398,0.3670170903205872,0.3671073019504547,0.3667768836021423,0.3665019869804382,0.6311686635017395,0.6313637495040894,0.6312450766563416,0.6309364438056946,0.6305169463157654,0.6307529807090759,0.6303637623786926,0.6300022006034851,0.8399513959884644,0.840162992477417,0.8401479721069336,0.8399447202682495,0.8393571376800537,0.8397088050842285,0.8392729759216309,0.8388427495956421,0.9659470319747925,0.9661685824394226,0.9662162065505981,0.9660764932632446,0.9653875231742859,0.9658089280128479,0.965345025062561,0.9648733735084534;0.0003644861280918121,0.0008007741416804492,0.001130190561525524,0.001307299127802253,0.001306248363107443,0.001130476710386574,0.0008011961472220719,0.0003645870892796665,0.003448530565947294,0.007576404139399529,0.01069312822073698,0.01236881501972675,0.01235887315124273,0.01069583743810654,0.007580396719276905,0.00344948610290885,0.009106655605137348,0.02000727690756321,0.0282377190887928,0.0326627604663372,0.03263650462031364,0.0282448697835207,0.02001781947910786,0.009109177626669407,0.01454469002783298,0.03195461630821228,0.04509986191987991,0.05216731876134872,0.05212538689374924,0.0451112873852253,0.03197145462036133,0.01454871986061335,0.0173996277153492,0.0382268987596035,0.05395238846540451,0.06240709871053696,0.06235693767666817,0.05396605283021927,0.03824704140424728,0.01740444824099541,0.01666631177067757,0.03661580756306648,0.05167853832244873,0.0597769133746624,0.05972887575626373,0.05169162899255753,0.03663510084152222,0.01667092926800251,0.01253157574683428,0.02753181010484695,0.03885763883590698,0.04494689777493477,0.04491076990962029,0.03886748105287552,0.02754631824791431,0.01253504771739244,0.005875169765204191,0.01290771830826998,0.01821759715676308,0.02107241936028004,0.02105548232793808,0.01822221279144287,0.01291451975703239,0.005876797251403332
21;96ddb7ad56e07aa198b48366f12c121a;-0.9601389765739441,-0.7965413331985474,-0.5254498720169067,-0.1834058314561844,0.1834057718515396,0.5254497528076172,0.7965412139892578,0.9601388573646545,-0.9601836800575256,-0.7965784072875977,-0.5254743099212646,-0.1834143400192261,0.1834143698215485,0.5254743099212646,0.7965784072875977,0.9601836800575256,-0.9602330327033997,-0.7966194152832031,-0.5255013704299927,-0.1834237575531006,0.1834238171577454,0.5255013704299927,0.7966194152832031,0.9602330327033997,-0.9602756500244141,-0.7966547608375549,-0.5255247354507446,-0.1834320425987244,0.1834317743778229,0.5255244970321655,0.7966545224189758,0.960275411605835,-0.9602898955345154,-0.7966665029525757,-0.5255323648452759,-0.183434471487999,0.1834348887205124,0.5255327224731445,0.7966668605804443,0.960290253162384,-0.9602757096290588,-0.7966548204421997,-0.5255247354507446,-0.1834320425987244,0.1834317743778229,0.5255244970321655,0.7966545820236206,0.9602754712104797,-0.9601825475692749,-0.796577513217926,-0.5254737734794617,-0.1834141761064529,0.1834140866994858,0.5254736542701721,0.7965773940086365,0.9601824283599854,-0.9601146578788757,-0.7965211272239685,-0.5254365205764771,-0.1834011524915695,0.1834011822938919,0.5254365205764771,0.7965211272239685,0.9601146578788757;-0.9680505990982056,-0.9714564681053162,-0.9745470285415649,-0.9787249565124512,-0.9819556474685669,-0.9844248294830322,-0.9870584011077881,-0.9895836114883423,-0.8364735245704651,-0.8474984169006348,-0.8630588054656982,-0.8819409012794495,-0.9001200199127197,-0.9157976508140564,-0.9283953905105591,-0.9367042779922485,-0.6184420585632324,-0.6420921087265015,-0.6783159971237183,-0.7215636968612671,-0.764513373374939,-0.8020780682563782,-0.8311871290206909,-0.8490798473358154,-0.3433454036712646,-0.3829250037670135,-0.445220559835434,-0.5192111134529114,-0.5934145450592041,-0.6585947871208191,-0.7085365653038025,-0.7385215759277344,-0.04832889139652252,-0.1049914658069611,-0.195246547460556,-0.3022060990333557,-0.4099262952804565,-0.5047218203544617,-0.5770048499107361,-0.6199576854705811,0.2267677634954453,0.1541756391525269,0.03784888982772827,-0.09985348582267761,-0.2388274371623993,-0.3612385392189026,-0.4543542861938477,-0.5093994140625,0.4447992444038391,0.3595819473266602,0.2225917279720306,0.06052368879318237,-0.1032207906246185,-0.2475189566612244,-0.3571459949016571,-0.4217750132083893,0.5763763189315796,0.4835399985313416,0.3340798914432526,0.1573077440261841,-0.02138522267341614,-0.1788917481899261,-0.2984829843044281,-0.3688956201076508;0.008238964714109898,0.01705147884786129,0.02163425274193287,0.02171307243406773,0.01835945062339306,0.01331709325313568,0.008069593459367752,0.003311148611828685,0.01810038089752197,0.0374608039855957,0.04752881079912186,0.04770197719335556,0.0403343178331852,0.02925664372742176,0.0177282840013504,0.007274341769516468,0.02553500793874264,0.05284761637449265,0.0670509934425354,0.06729528307914734,0.05690141022205353,0.04127363860607147,0.02501007542014122,0.01026223599910736,0.02952294237911701,0.06110110133886337,0.07752269506454468,0.07780513912439346,0.06578800082206726,0.047719556838274,0.02891602739691734,0.01186494156718254,0.02952338755130768,0.06110202521085739,0.07752387225627899,0.07780631631612778,0.06578899174928665,0.0477202795445919,0.02891646511852741,0.01186512224376202,0.02553613856434822,0.05284995585680008,0.06705396622419357,0.06729827076196671,0.05690392479300499,0.04127546772360802,0.02501118183135986,0.01026269048452377,0.01810035854578018,0.03746075928211212,0.04752875491976738,0.04770191758871078,0.04033426940441132,0.02925660833716393,0.01772826351225376,0.007274333387613297,0.008238757029175758,0.01705104857683182,0.021633705124259,0.02171252481639385,0.0183589868247509,0.01331675611436367,0.008069389499723911,0.003311065025627613
22;1ebda8d24d83ec4312619f4fe54d034f;-0.9603413939476013,-0.7967092990875244,-0.5255606770515442,-0.1834444999694824,0.1834444403648376,0.5255605578422546,0.7967091798782349,0.9603412747383118,-0.9604398012161255,-0.7967908978462219,-0.5256145000457764,-0.1834632605314255,0.1834632903337479,0.5256145000457764,0.7967908978462219,0.9604398012161255,-0.9604631662368774,-0.7968102693557739,-0.5256272554397583,-0.1834677159786224,0.1834677755832672,0.5256272554397583,0.7968102693557739,0.9604631662368774,-0.9605657458305359,-0.7968953847885132,-0.5256834626197815,-0.1834874451160431,0.1834871768951416,0.5256832242012024,0.7968951463699341,0.9605655074119568,-0.9605719447135925,-0.7969005107879639,-0.5256867408752441,-0.1834883540868759,0.1834887713193893,0.5256870985031128,0.7969008684158325,0.9605723023414612,-0.9604910612106323,-0.7968334555625916,-0.5256426334381104,-0.1834731847047806,0.1834729164838791,0.5256423950195312,0.7968332171440125,0.9604908227920532,-0.9604040384292603,-0.7967612743377686,-0.52559494972229,-0.1834564805030823,0.1834563910961151,0.5255948305130005,0.796761155128479,0.9604039192199707,-0.9604105949401855,-0.7967666983604431,-0.5255985260009766,-0.183457687497139,0.1834577172994614,0.5255985260009766,0.7967666983604431,0.9604105949401855;0.6106024980545044,0.5206894874572754,0.372759610414505,0.1950541138648987,0.01657819747924805,-0.1395252645015717,-0.2573243081569672,-0.3252948224544525,0.642516016960144,0.5604742765426636,0.4251153171062469,0.2623451948165894,0.09877792000770569,-0.0442747175693512,-0.1521510183811188,-0.2144118249416351,0.6953988075256348,0.6264002323150635,0.5118720531463623,0.3738507628440857,0.2349880039691925,0.1135613918304443,0.02212777733802795,-0.03067174553871155,0.7621225118637085,0.7095808386802673,0.6213354468345642,0.5145405530929565,0.4068482518196106,0.3127078413963318,0.2420203983783722,0.2011584937572479,0.8336777687072754,0.7987846732139587,0.7387252449989319,0.6654177904129028,0.5911529660224915,0.526274561882019,0.4778355658054352,0.4497756659984589,0.9004014730453491,0.8819652795791626,0.8481886386871338,0.8061075806617737,0.7630132436752319,0.7254210114479065,0.697728157043457,0.6816059350967407,0.9532842636108398,0.9478912353515625,0.9349453449249268,0.91761314868927,0.8992233276367188,0.8832571506500244,0.8720070123672485,0.8653459548950195,0.9851977825164795,0.9876760244369507,0.9873011112213135,0.9849042296409607,0.981423020362854,0.9785076379776001,0.9771802425384521,0.9762289524078369;0.00199875351972878,0.005473889410495758,0.01016175653785467,0.01509964466094971,0.01844503544270992,0.01848724484443665,0.01447052787989378,0.006944628432393074,0.004391354974359274,0.01202639099210501,0.02232585847377777,0.03317462652921677,0.04052460938692093,0.04061734676361084,0.03179242834448814,0.01525767426937819,0.006194910500198603,0.01696570217609406,0.03149522095918655,0.04679964482784271,0.05716830492019653,0.05729913339018822,0.04484976828098297,0.0215240903198719,0.007162849418818951,0.01961654797196388,0.03641626238822937,0.05411196872591972,0.06610070168972015,0.0662519708275795,0.05185742676258087,0.02488717250525951,0.007162897847592831,0.01961668208241463,0.03641651198267937,0.05411233752965927,0.06610115617513657,0.06625241786241531,0.05185778066515923,0.02488734200596809,0.006195090245455503,0.01696619391441345,0.03149613365530968,0.04680099710822105,0.05716996267437935,0.05730079114437103,0.04485107213258743,0.02152471244335175,0.004391191527247429,0.01202594209462404,0.02232502400875092,0.03317338973283768,0.04052310064435005,0.04061583057045937,0.03179124370217323,0.01525710429996252,0.001998897641897202,0.005474284291267395,0.01016248948872089,0.01510073430836201,0.01844636537134647,0.01848857849836349,0.01447157189249992,0.00694512901827693
23;9e71237cdf2f4382f6a710dd85355af3;0.9966742396354675,0.9967197775840759,0.9967952966690063,0.9968906044960022,0.9969927668571472,0.9970880746841431,0.9971635937690735,0.9972091317176819,0.9715491533279419,0.973809540271759,0.9775550961494446,0.982280969619751,0.9873490333557129,0.9920749068260193,0.9958204627037048,0.998080849647522,0.9328681230545044,0.9383518695831299,0.9474388360977173,0.9589040875434875,0.9711995720863342,0.9826648235321045,0.9917517900466919,0.9972355365753174,0.88338702917099,0.8930880427360535,0.909163236618042,0.9294458031654358,0.95119708776474,0.9714796543121338,0.9875548481941223,0.9972558617591858,0.8310140371322632,0.8451850414276123,0.8686673045158386,0.8982955813407898,0.9300692677497864,0.9596975445747375,0.9831798076629639,0.997350811958313,0.7839800119400024,0.8021460175514221,0.8322480916976929,0.8702288269996643,0.910959780216217,0.9489405155181885,0.9790425896644592,0.9972085952758789,0.7479553818702698,0.7691854238510132,0.804364800453186,0.8487517237663269,0.8963527083396912,0.940739631652832,0.9759190082550049,0.9971490502357483,0.7265841960906982,0.7496225237846375,0.7877984046936035,0.8359659910202026,0.8876214027404785,0.9357889890670776,0.9739648699760437,0.9970031976699829;0.4748551547527313,0.4737945795059204,0.4725061655044556,0.4734168648719788,0.4746909439563751,0.4750219285488129,0.4742616415023804,0.4749782085418701,0.5189099311828613,0.518056333065033,0.5169509649276733,0.5177013874053955,0.5187692046165466,0.5190406441688538,0.5183749198913574,0.5189707279205322,0.5919114351272583,0.5914008617401123,0.5905988812446594,0.5910835862159729,0.5918096303939819,0.5919824242591858,0.5914732813835144,0.5918689966201782,0.6840195059776306,0.6839418411254883,0.6835225820541382,0.6836720705032349,0.6839669346809387,0.684015154838562,0.6837036609649658,0.6838469505310059,0.7827972769737244,0.7831836938858032,0.7831748723983765,0.7829649448394775,0.7827973961830139,0.7827121019363403,0.7826124429702759,0.7824850082397461,0.8749053478240967,0.8757246732711792,0.8760985732078552,0.8755534291267395,0.8749547004699707,0.8747448325157166,0.8748428225517273,0.8744629621505737,0.9479068517684937,0.9490692019462585,0.9497464895248413,0.9489356279373169,0.947995126247406,0.9476866126060486,0.9479411840438843,0.9473612308502197,0.9919615983963013,0.9933309555053711,0.9941912889480591,0.9932201504707336,0.9920734167098999,0.9917052984237671,0.9920544624328613,0.9913537502288818;7.684230922677671e-07,1.696020945018972e-06,2.402423660896602e-06,2.767480737020378e-06,2.754592287601554e-06,2.379390252826852e-06,1.690328986114764e-06,7.673369282201747e-07,8.372991578653455e-05,0.0001848040265031159,0.0002617760619614273,0.0003015538386534899,0.0003001494624186307,0.00025926623493433,0.0001841838238760829,8.361156505998224e-05,0.0002865549176931381,0.0006324682617560029,0.0008958950638771057,0.001032029511407018,0.001027223188430071,0.000887305592186749,0.0006303456611931324,0.0002861499087885022,0.0005860725068487227,0.001293546753004193,0.001832316978834569,0.002110744128003716,0.00210091401822865,0.001814749208278954,0.001289205509237945,0.0005852440954186022,0.0008561201975680888,0.001889581209979951,0.002676603151485324,0.003083322662860155,0.00306896329857409,0.002650941023603082,0.001883239718154073,0.0008549100602976978,0.0009492645622231066,0.002095164265483618,0.00296781281940639,0.00341878249309957,0.003402860602363944,0.002939358586445451,0.002088132780045271,0.0009479227010160685,0.0007864171057008207,0.001735736266709864,0.002458681352436543,0.002832286758348346,0.002819096203893423,0.002435108413919806,0.00172991119325161,0.0007853055140003562,0.0003884707402903587,0.0008574111270718277,0.001214528107084334,0.001399080036208034,0.001392564154230058,0.001202883664518595,0.0008545336895622313,0.0003879216674249619
24;f98c6489e96a73c08ba73e4e2c799a2f;-0.9602223634719849,-0.7966105341911316,-0.5254955291748047,-0.1834217607975006,0.1834217011928558,0.5254954099655151,0.796610414981842,0.9602222442626953,-0.9603115916252136,-0.7966845631599426,-0.5255443453788757,-0.183438777923584,0.1834388077259064,0.5255443453788757,0.7966845631599426,0.9603115916252136,-0.960256814956665,-0.796639084815979,-0.5255143642425537,-0.1834283024072647,0.1834283620119095,0.5255143642425537,0.796639084815979,0.960256814956665,-0.9602670073509216,-0.7966476082801819,-0.5255199670791626,-0.1834303885698318,0.1834301203489304,0.5255197286605835,0.7966473698616028,0.9602667689323425,-0.9602659344673157,-0.7966466546058655,-0.5255192518234253,-0.1834298968315125,0.1834303140640259,0.5255196094512939,0.7966470122337341,0.9602662920951843,-0.9602730870246887,-0.796652615070343,-0.52552330493927,-0.183431550860405,0.1834312826395035,0.5255230665206909,0.7966523766517639,0.9602728486061096,-0.9602623581886292,-0.7966437339782715,-0.5255174040794373,-0.1834294199943542,0.1834293305873871,0.5255172848701477,0.7966436147689819,0.9602622389793396,-0.9602509140968323,-0.7966341972351074,-0.5255111455917358,-0.1834271848201752,0.1834272146224976,0.5255111455917358,0.7966341972351074,0.9602509140968323;-0.9778261184692383,-0.9776929616928101,-0.9794157147407532,-0.9817780256271362,-0.9855784773826599,-0.9889431595802307,-0.9898890256881714,-0.9899882674217224,-0.8914785981178284,-0.8950571417808533,-0.903386116027832,-0.9156079292297363,-0.9322575330734253,-0.9505217671394348,-0.9661101698875427,-0.9765204191207886,-0.7483953237533569,-0.7581243515014648,-0.7774002552032471,-0.8059598803520203,-0.8439013957977295,-0.8868550658226013,-0.9267071485519409,-0.9542033076286316,-0.5678629279136658,-0.58535236120224,-0.6184402704238892,-0.667613685131073,-0.7324199080467224,-0.806524932384491,-0.8769912719726562,-0.9260451793670654,-0.3742581307888031,-0.4000697731971741,-0.447969913482666,-0.5192498564720154,-0.6128659844398499,-0.7203781008720398,-0.8236753940582275,-0.8958481550216675,-0.1937257647514343,-0.2272977530956268,-0.2890099287033081,-0.3809036612510681,-0.5013844966888428,-0.6400479674339294,-0.7739595174789429,-0.8676900267601013,-0.05064249038696289,-0.09036499261856079,-0.1630240976810455,-0.2712556123733521,-0.413028359413147,-0.5763812661170959,-0.7345564961433411,-0.8453729152679443,0.03570505976676941,-0.007729172706604004,-0.086994469165802,-0.2050854861736298,-0.3597074151039124,-0.5379598736763,-0.7107776403427124,-0.8319050669670105;0.005407296121120453,0.01136824395507574,0.01475481130182743,0.01484627090394497,0.01196335721760988,0.007456315215677023,0.003271261928603053,0.0008433903567492962,0.01187997125089169,0.0249763261526823,0.03241670504212379,0.03261763975024223,0.02628380618989468,0.01638171821832657,0.00718704704195261,0.001852950430475175,0.016757782548666,0.03523138910531998,0.0457267165184021,0.04601015523076057,0.0370757058262825,0.02310790680348873,0.01013798639178276,0.002613755641505122,0.01937427558004856,0.04073227569460869,0.05286630988121033,0.05319400876760483,0.04286456480622292,0.02671588584780693,0.01172089204192162,0.003021857235580683,0.01937426254153252,0.0407322496175766,0.05286626890301704,0.05319396778941154,0.04286453127861023,0.02671586535871029,0.01172088272869587,0.003021854907274246,0.01675806194543839,0.03523197770118713,0.04572748765349388,0.04601093009114265,0.03707632794976234,0.02310829609632492,0.01013815682381392,0.002613799646496773,0.01187936030328274,0.02497504279017448,0.03241503983736038,0.03261596709489822,0.02628245763480663,0.01638087816536427,0.007186678238213062,0.001852855319157243,0.005407457239925861,0.0113685829564929,0.01475525088608265,0.01484671235084534,0.01196371391415596,0.007456537336111069,0.003271359484642744,0.0008434155024588108
25;c911783c6f928ba623f2b30bcbf7db83;-0.9603531956672668,-0.7967190742492676,-0.5255671143531799,-0.1834467649459839,0.1834467053413391,0.5255669951438904,0.796718955039978,0.9603530764579773,-0.9603440761566162,-0.7967115044593811,-0.5255621075630188,-0.1834449917078018,0.1834450215101242,0.5255621075630188,0.7967115044593811,0.9603440761566162,-0.9602484703063965,-0.7966321706771851,-0.525509774684906,-0.183426707983017,0.1834267675876617,0.525509774684906,0.7966321706771851,0.9602484703063965,-0.9602449536323547,-0.7966293096542358,-0.525507926940918,-0.183426171541214,0.1834259033203125,0.5255076885223389,0.7966290712356567,0.9602447152137756,-0.9602333903312683,-0.7966196537017822,-0.5255014300346375,-0.1834236830472946,0.183424100279808,0.5255017876625061,0.7966200113296509,0.960233747959137,-0.9603407979011536,-0.7967087626457214,-0.5255603790283203,-0.1834444850683212,0.1834442168474197,0.5255601406097412,0.7967085242271423,0.9603405594825745,-0.9603238701820374,-0.7966947555541992,-0.5255510807037354,-0.1834411770105362,0.183441087603569,0.5255509614944458,0.7966946363449097,0.9603237509727478,-0.9604256153106689,-0.7967791557312012,-0.5256067514419556,-0.1834605485200882,0.1834605783224106,0.5256067514419556,0.7967791557312012,0.9604256153106689;0.07248908281326294,0.02948880195617676,-0.04943561553955078,-0.1668667495250702,-0.3212904930114746,-0.4999931156635284,-0.6724603176116943,-0.7934759259223938,0.1499143540859222,0.1106535792350769,0.03825944662094116,-0.06947246193885803,-0.2110565900802612,-0.3749080002307892,-0.5329079627990723,-0.6437405347824097,0.2782129049301147,0.2451486587524414,0.1835756897926331,0.09191599488258362,-0.02839207649230957,-0.1676340699195862,-0.3016609251499176,-0.3956195712089539,0.4400908946990967,0.4148450493812561,0.3669254183769226,0.2955445051193237,0.2020810544490814,0.09388944506645203,-0.009889855980873108,-0.08255813270807266,0.6136906147003174,0.5968292355537415,0.5635516047477722,0.513917863368988,0.4492428600788116,0.3743500411510468,0.303008496761322,0.2531722784042358,0.7755686044692993,0.7665256261825562,0.7469013333320618,0.7175463438034058,0.6797159910202026,0.635873556137085,0.5947796106338501,0.5662336945533752,0.9038671255111694,0.9010207056999207,0.8922175765037537,0.8789348602294922,0.8623805046081543,0.8431475162506104,0.8260265588760376,0.8143546581268311,0.9812924265861511,0.9821854829788208,0.9799126386642456,0.9763290882110596,0.9726144075393677,0.9682326316833496,0.9655789136886597,0.9640900492668152;0.004849222954362631,0.01116738934069872,0.01702100969851017,0.02185485884547234,0.02473601512610912,0.02427816204726696,0.0192008875310421,0.009378078393638134,0.01065277680754662,0.02453253231942654,0.03739177063107491,0.04801077768206596,0.05434010550379753,0.05333429202437401,0.04218053072690964,0.02060177177190781,0.01502607390284538,0.03460390120744705,0.05274226143956184,0.06772070378065109,0.07664840668439865,0.07522967457771301,0.05949695035815239,0.02905943989753723,0.01737193949520588,0.04000625014305115,0.06097636371850967,0.07829323410987854,0.08861473202705383,0.08697450906038284,0.06878560036420822,0.03359619155526161,0.01737173646688461,0.04000578075647354,0.06097564473748207,0.07829231768846512,0.08861369639635086,0.08697348833084106,0.06878478825092316,0.03359579667448997,0.01502751652151346,0.03460722416639328,0.05274732038378716,0.06772720068693161,0.07665576785802841,0.07523690164089203,0.05950266495347023,0.02906223200261593,0.01065255235880613,0.0245320126414299,0.03739098086953163,0.04800976812839508,0.05433895438909531,0.05333316326141357,0.04217964038252831,0.02060133777558804,0.004849588498473167,0.01116823218762875,0.01702229306101799,0.02185650914907455,0.02473788149654865,0.0242799911648035,0.0192023366689682,0.009378786198794842
26;f5f6edafb4b092756eb6acc36ead3b95;-0.116694301366806,-0.02338460087776184,0.1312353312969208,0.3263238072395325,0.5355387926101685,0.7306272983551025,0.8852472305297852,0.9785568714141846,-0.1192932426929474,-0.02573254704475403,0.1293033361434937,0.3249166011810303,0.5346943736076355,0.7303076386451721,0.8853435516357422,0.9789042472839355,-0.1188632845878601,-0.02551013231277466,0.1291819214820862,0.3243613839149475,0.5336739420890808,0.7288534045219421,0.883545458316803,0.9768986105918884,-0.1181906163692474,-0.02504566311836243,0.1293013393878937,0.3240454792976379,0.5328911542892456,0.7276352643966675,0.8819823265075684,0.9751272201538086,-0.116545170545578,-0.02373534440994263,0.1300563216209412,0.3240997493267059,0.5321939587593079,0.726237416267395,0.8800290822982788,0.9728388786315918,-0.1158492267131805,-0.02321827411651611,0.130277007818222,0.323946475982666,0.5316396355628967,0.7253091335296631,0.8788043856620789,0.9714353084564209,-0.1161044836044312,-0.02351811528205872,0.1299032270908356,0.3234794437885284,0.5310726165771484,0.7246488332748413,0.8780701160430908,0.9706565141677856,-0.1166535913944244,-0.02402475476264954,0.1294670104980469,0.3231320381164551,0.5308204293251038,0.724485456943512,0.8779772520065308,0.9706060886383057;0.9957617521286011,0.9734770059585571,0.9316716194152832,0.8740395307540894,0.80190110206604,0.7214599847793579,0.6496123075485229,0.6006080508232117,0.9959947466850281,0.9754382371902466,0.9372323155403137,0.8843714594841003,0.8182628750801086,0.744618833065033,0.678473949432373,0.6334568858146667,0.9963808059692383,0.97868812084198,0.9464466571807861,0.9014921188354492,0.8453752994537354,0.7829944491386414,0.7262996435165405,0.6878893971443176,0.9968679547309875,0.982788622379303,0.9580727219581604,0.9230937361717224,0.8795838356018066,0.8314141035079956,0.7866426706314087,0.7565685510635376,0.9973903298377991,0.9871860146522522,0.9705405831336975,0.9462595582008362,0.9162694215774536,0.8833398818969727,0.8513551950454712,0.8302206993103027,0.9978774785995483,0.9912865161895752,0.9821666479110718,0.9678611755371094,0.9504779577255249,0.9317595362663269,0.9116982221603394,0.8988998532295227,0.9982635378837585,0.9945363998413086,0.9913809895515442,0.9849818348884583,0.9775903820991516,0.9701351523399353,0.9595239162445068,0.9533323645591736,0.9984965324401855,0.996497631072998,0.9969416856765747,0.9953137636184692,0.9939521551132202,0.9932940006256104,0.9883855581283569,0.9861811995506287;8.32093610370066e-06,0.0001538747164886445,0.0006154451402835548,0.001322053023613989,0.002093614544719458,0.002563181798905134,0.002264430513605475,0.001173172029666603,1.832878479035571e-05,0.0003389446064829826,0.001355660380795598,0.002912127180024981,0.004611670505255461,0.005646000616252422,0.004987931344658136,0.00258418289013207,2.579855754447635e-05,0.0004770792438648641,0.001908150385133922,0.004098945297300816,0.006491125095635653,0.007946990430355072,0.007020729128271341,0.003637349000200629,2.975980532937683e-05,0.0005503325373865664,0.002201138064265251,0.004728319123387337,0.007487807422876358,0.00916721299290657,0.008098729886114597,0.004195846617221832,2.96527268801583e-05,0.0005483523709699512,0.002193218329921365,0.004711306188255548,0.007460865657776594,0.009134229272603989,0.008069589734077454,0.004180749878287315,2.559896711318288e-05,0.0004733882960863411,0.001893387991003692,0.004067233297973871,0.006440906785428524,0.007885508239269257,0.006966412998735905,0.003609208622947335,1.813791277527343e-05,0.00033541489392519,0.001341542694717646,0.002881800988689065,0.004563644994050264,0.005587204359471798,0.004935987759381533,0.002557271625846624,8.260222784883808e-06,0.0001527519634691998,0.0006109545356594026,0.001312406617216766,0.002078338526189327,0.002544479444622993,0.002247907919809222,0.001164612011052668
