number;id;nodes_x;nodes_y;weights
1;a6a068a075e6d37a96b3922d38cc56b0;-0.8220455050468445,-0.5871753692626953,-0.3523052036762238,-0.1174350678920746,0.1174350678920746,0.3523052036762238,0.5871753692626953,0.8220455050468445,-0.7620842456817627,-0.5443459153175354,-0.3266075551509857,-0.1088691800832748,0.1088691800832748,0.3266075551509857,0.5443459153175354,0.7620842456817627,-0.6779828667640686,-0.4842734634876251,-0.290564090013504,-0.09685469418764114,0.09685469418764114,0.290564090013504,0.4842734634876251,0.6779828667640686,-0.5920446515083313,-0.4228890240192413,-0.2537334263324738,-0.08457780629396439,0.08457780629396439,0.2537334263324738,0.4228890240192413,0.5920446515083313,-0.5167824625968933,-0.3691303133964539,-0.2214781939983368,-0.07382606714963913,0.07382606714963913,0.2214781939983368,0.3691303133964539,0.5167824625968933,-0.4596611559391022,-0.3283294141292572,-0.1969976425170898,-0.06566587835550308,0.06566587835550308,0.1969976425170898,0.3283294141292572,0.4596611559391022,-0.4203217625617981,-0.3002298176288605,-0.180137887597084,-0.06004596501588821,0.06004596501588821,0.180137887597084,0.3002298176288605,0.4203217625617981,-0.3995113968849182,-0.2853652834892273,-0.1712191700935364,-0.05707305669784546,0.05707305669784546,0.1712191700935364,0.2853652834892273,0.3995113968849182;-0.9602898359298706,-0.9602898359298706,-0.9602898359298706,-0.9602898359298706,-0.9602898359298706,-0.9602898359298706,-0.9602898359298706,-0.9602898359298706,-0.685921311378479,-0.685921311378479,-0.685921311378479,-0.685921311378479,-0.685921311378479,-0.685921311378479,-0.685921311378479,-0.685921311378479,-0.4115527868270874,-0.4115527868270874,-0.4115527868270874,-0.4115527868270874,-0.4115527868270874,-0.4115527868270874,-0.4115527868270874,-0.4115527868270874,-0.1371842622756958,-0.1371842622756958,-0.1371842622756958,-0.1371842622756958,-0.1371842622756958,-0.1371842622756958,-0.1371842622756958,-0.1371842622756958,0.1371842622756958,0.1371842622756958,0.1371842622756958,0.1371842622756958,0.1371842622756958,0.1371842622756958,0.1371842622756958,0.1371842622756958,0.4115527868270874,0.4115527868270874,0.4115527868270874,0.4115527868270874,0.4115527868270874,0.4115527868270874,0.4115527868270874,0.4115527868270874,0.685921311378479,0.685921311378479,0.685921311378479,0.685921311378479,0.685921311378479,0.685921311378479,0.685921311378479,0.685921311378479,0.9602898359298706,0.9602898359298706,0.9602898359298706,0.9602898359298706,0.9602898359298706,0.9602898359298706,0.9602898359298706,0.9602898359298706;0.008772016502916813,0.01927055604755878,0.02718442492187023,0.03142856806516647,0.03142856806516647,0.02718442492187023,0.01927055604755878,0.008772016502916813,0.01786493137478828,0.03924606740474701,0.05536331981420517,0.06400686502456665,0.06400686502456665,0.05536331981420517,0.03924606740474701,0.01786493137478828,0.02242038212716579,0.04925358667969704,0.06948063522577286,0.08032823354005814,0.08032823354005814,0.06948063522577286,0.04925358667969704,0.02242038212716579,0.02263513952493668,0.04972536861896515,0.07014616578817368,0.08109766989946365,0.08109766989946365,0.07014616578817368,0.04972536861896515,0.02263513952493668,0.01975770480930805,0.04340415447950363,0.06122900918126106,0.07078833132982254,0.07078833132982254,0.06122900918126106,0.04340415447950363,0.01975770480930805,0.0152006484568119,0.03339311480522156,0.04710672050714493,0.05446121096611023,0.05446121096611023,0.04710672050714493,0.03339311480522156,0.0152006484568119,0.00985326711088419,0.02164587005972862,0.03053521737456322,0.03530249744653702,0.03530249744653702,0.03053521737456322,0.02164587005972862,0.00985326711088419,0.004263170994818211,0.009365426376461983,0.01321154180914164,0.0152741800993681,0.0152741800993681,0.01321154180914164,0.009365426376461983,0.004263170994818211
2;d04baa82e0f807196c45450786d616ab;-0.132970467209816,-0.09497890621423721,-0.05698734521865845,-0.01899578049778938,0.01899578049778938,0.05698734521865845,0.09497890621423721,0.132970467209816,-0.1950160413980484,-0.1392971724271774,-0.08357830345630646,-0.02785943448543549,0.02785943448543549,0.08357830345630646,0.1392971724271774,0.1950160413980484,-0.2803242802619934,-0.2002316117286682,-0.1201389729976654,-0.0400463230907917,0.0400463230907917,0.1201389729976654,0.2002316117286682,0.2803242802619934,-0.3672804236412048,-0.262343168258667,-0.157405897974968,-0.05246863514184952,0.05246863514184952,0.157405897974968,0.262343168258667,0.3672804236412048,-0.443264901638031,-0.3166177868843079,-0.1899706721305847,-0.06332355737686157,0.06332355737686157,0.1899706721305847,0.3166177868843079,0.443264901638031,-0.5013982653617859,-0.3581416010856628,-0.2148849666118622,-0.07162832468748093,0.07162832468748093,0.2148849666118622,0.3581416010856628,0.5013982653617859,-0.5414673686027527,-0.386762410402298,-0.2320574373006821,-0.07735247910022736,0.07735247910022736,0.2320574373006821,0.386762410402298,0.5414673686027527,-0.5627244710922241,-0.4019460678100586,-0.2411676347255707,-0.08038920909166336,0.08038920909166336,0.2411676347255707,0.4019460678100586,0.5627244710922241;-0.9602894186973572,-0.9602896571159363,-0.9602896571159363,-0.9602896571159363,-0.9602896571159363,-0.9602896571159363,-0.9602894186973572,-0.9602893590927124,-0.6859210133552551,-0.6859211921691895,-0.6859211921691895,-0.6859211921691895,-0.6859211921691895,-0.6859211921691895,-0.6859210133552551,-0.6859210133552551,-0.4115526080131531,-0.4115527272224426,-0.4115527272224426,-0.4115527272224426,-0.4115527272224426,-0.4115527272224426,-0.4115526080131531,-0.4115525782108307,-0.137184202671051,-0.1371842324733734,-0.1371842324733734,-0.1371842324733734,-0.1371842324733734,-0.1371842324733734,-0.137184202671051,-0.137184202671051,0.137184202671051,0.1371842324733734,0.1371842324733734,0.1371842324733734,0.1371842324733734,0.1371842324733734,0.137184202671051,0.137184202671051,0.4115526080131531,0.4115527272224426,0.4115527272224426,0.4115527272224426,0.4115527272224426,0.4115527272224426,0.4115526080131531,0.4115525782108307,0.6859210133552551,0.6859211921691895,0.6859211921691895,0.6859211921691895,0.6859211921691895,0.6859211921691895,0.6859210133552551,0.6859210133552551,0.9602894186973572,0.9602896571159363,0.9602896571159363,0.9602896571159363,0.9602896571159363,0.9602896571159363,0.9602894186973572,0.9602893590927124;0.001418922212906182,0.00311711966060102,0.004397232551127672,0.005083746276795864,0.005083746276795864,0.004397232551127672,0.003117119194939733,0.001418922212906182,0.004571603145450354,0.01004299987107515,0.01416737586259842,0.01637924276292324,0.01637924276292324,0.01416737586259842,0.01004299707710743,0.004571603145450354,0.009270108304917812,0.02036477997899055,0.02872801758348942,0.03321315348148346,0.03321315348148346,0.02872801758348942,0.02036477625370026,0.009270107373595238,0.01404191553592682,0.03084759227931499,0.04351582378149033,0.0503096915781498,0.0503096915781498,0.04351582378149033,0.0308475848287344,0.01404191460460424,0.01694696396589279,0.03722946718335152,0.05251855403184891,0.06071796268224716,0.06071796268224716,0.05251855403184891,0.03722945973277092,0.01694696396589279,0.016580855473876,0.03642519190907478,0.05138398706912994,0.05940626189112663,0.05940626189112663,0.05138398706912994,0.03642518445849419,0.016580855473876,0.01269318163394928,0.02788466028869152,0.03933610394597054,0.04547741264104843,0.04547741264104843,0.03933610394597054,0.02788465470075607,0.01269317977130413,0.006004809401929379,0.01319149788469076,0.01860887184739113,0.02151416428387165,0.02151416428387165,0.01860887184739113,0.01319149509072304,0.006004808470606804
3;9c469d7854cdb09290680f17cdd18fee;-0.5547529458999634,-0.3962520956993103,-0.2377512603998184,-0.07925041764974594,0.07925041764974594,0.2377512603998184,0.3962520956993103,0.5547529458999634,-0.5562235116958618,-0.3973024785518646,-0.238381490111351,-0.07946049422025681,0.07946049422025681,0.238381490111351,0.3973024785518646,0.5562235116958618,-0.5565664172172546,-0.3975474238395691,-0.2385284602642059,-0.07950948178768158,0.07950948178768158,0.2385284602642059,0.3975474238395691,0.5565664172172546,-0.5562207102775574,-0.397300511598587,-0.2383803129196167,-0.07946010679006577,0.07946010679006577,0.2383803129196167,0.397300511598587,0.5562207102775574,-0.5563127398490906,-0.3973662257194519,-0.2384197413921356,-0.07947324216365814,0.07947324216365814,0.2384197413921356,0.3973662257194519,0.5563127398490906,-0.5565945506095886,-0.3975675404071808,-0.2385405302047729,-0.07951350510120392,0.07951350510120392,0.2385405302047729,0.3975675404071808,0.5565945506095886,-0.5564215183258057,-0.397443950176239,-0.2384663671255112,-0.07948879152536392,0.07948879152536392,0.2384663671255112,0.397443950176239,0.5564215183258057,-0.556232213973999,-0.397308737039566,-0.2383852452039719,-0.07946174591779709,0.07946174591779709,0.2383852452039719,0.397308737039566,0.556232213973999;-0.4908949136734009,-0.4639180600643158,-0.4131011366844177,-0.3426589667797089,-0.2538795173168182,-0.1590240001678467,-0.07166436314582825,-0.01481171138584614,-0.3506392240524292,-0.3313700258731842,-0.2950722277164459,-0.2447564005851746,-0.1813425123691559,-0.1135885715484619,-0.05118883028626442,-0.01057979371398687,-0.2103835344314575,-0.198822021484375,-0.1770433336496353,-0.1468538343906403,-0.1088055074214935,-0.06815314292907715,-0.03071329742670059,-0.006347876507788897,-0.07012784481048584,-0.0662740096449852,-0.0590144470334053,-0.04895127937197685,-0.03626850247383118,-0.02271771430969238,-0.01023776642978191,-0.002115958835929632,0.07012784481048584,0.0662740096449852,0.0590144470334053,0.04895127937197685,0.03626850247383118,0.02271771430969238,0.01023776642978191,0.002115958835929632,0.2103835344314575,0.198822021484375,0.1770433336496353,0.1468538343906403,0.1088055074214935,0.06815314292907715,0.03071329742670059,0.006347876507788897,0.3506392240524292,0.3313700258731842,0.2950722277164459,0.2447564005851746,0.1813425123691559,0.1135885715484619,0.05118883028626442,0.01057979371398687,0.4908949136734009,0.4639180600643158,0.4131011366844177,0.3426589667797089,0.2538795173168182,0.1590240001678467,0.07166436314582825,0.01481171138584614;0.003026142716407776,0.006282564252614975,0.00789183471351862,0.007568121887743473,0.005607298575341702,0.003037975402548909,0.0009705075062811375,9.130742546403781e-05,0.006665518041700125,0.0138382576406002,0.01738291047513485,0.01666988618671894,0.01235088799148798,0.006691582035273314,0.002137683564797044,0.0002011178585235029,0.00940865371376276,0.01953327469527721,0.02453669719398022,0.02353023365139961,0.01743379049003124,0.00944544468075037,0.003017428796738386,0.0002838861546479166,0.01087081525474787,0.02256886288523674,0.02834984660148621,0.02718697488307953,0.02014310471713543,0.01091332267969847,0.003486355300992727,0.0003280037781223655,0.01087261270731688,0.0225725956261158,0.02835453487932682,0.02719146944582462,0.0201464369893074,0.01091512758284807,0.003486931789666414,0.0003280580276623368,0.009409129619598389,0.01953426189720631,0.02453793957829475,0.02353142388164997,0.01743467152118683,0.009445921517908573,0.003017581300809979,0.0002839005319401622,0.006667891051620245,0.01384318433701992,0.01738910004496574,0.01667582243680954,0.01235528569668531,0.00669396435841918,0.002138444688171148,0.0002011894539464265,0.003034211928024888,0.006299317348748446,0.007912878878414631,0.007588302716612816,0.005622250959277153,0.003046076279133558,0.0009730954770930111,9.155090810963884e-05
4;c462ab1cc4dd0821f5a42dd03d2c9dc0;-0.9492242932319641,-0.6780173778533936,-0.4068104028701782,-0.1356034725904465,0.1356034725904465,0.4068104028701782,0.6780173778533936,0.9492242932319641,-0.9488036036491394,-0.677716851234436,-0.4066300988197327,-0.1355433762073517,0.1355433762073517,0.4066300988197327,0.677716851234436,0.9488036036491394,-0.9488959312438965,-0.6777827739715576,-0.4066696763038635,-0.1355565637350082,0.1355565637350082,0.4066696763038635,0.6777827739715576,0.9488959312438965,-0.9487696886062622,-0.6776926517486572,-0.4066155850887299,-0.1355385333299637,0.1355385333299637,0.4066155850887299,0.6776926517486572,0.9487696886062622,-0.9485380053520203,-0.677527129650116,-0.4065162837505341,-0.1355054378509521,0.1355054378509521,0.4065162837505341,0.677527129650116,0.9485380053520203,-0.9480583667755127,-0.677184522151947,-0.4063107371330261,-0.1354369074106216,0.1354369074106216,0.4063107371330261,0.677184522151947,0.9480583667755127,-0.947725236415863,-0.6769465804100037,-0.4061679542064667,-0.1353893131017685,0.1353893131017685,0.4061679542064667,0.6769465804100037,0.947725236415863,-0.948529839515686,-0.677521288394928,-0.4065127968788147,-0.1355042606592178,0.1355042606592178,0.4065127968788147,0.677521288394928,0.948529839515686;-0.01236303988844156,-0.04203802347183228,-0.08438723534345627,-0.1480922549962997,-0.2313057780265808,-0.3329647481441498,-0.437527060508728,-0.5186033248901367,-0.008830742910504341,-0.03002715855836868,-0.06027659773826599,-0.1057801768183708,-0.1652184128761292,-0.2378319650888443,-0.3125193417072296,-0.37043097615242,-0.00529844593256712,-0.01801629550755024,-0.03616596013307571,-0.06346810609102249,-0.09913104772567749,-0.1426991820335388,-0.18751160800457,-0.2222585827112198,-0.001766148605383933,-0.006005431525409222,-0.01205531973391771,-0.02115603536367416,-0.03304368257522583,-0.04756639152765274,-0.0625038668513298,-0.07408619672060013,0.001766148605383933,0.006005431525409222,0.01205531973391771,0.02115603536367416,0.03304368257522583,0.04756639152765274,0.0625038668513298,0.07408619672060013,0.00529844593256712,0.01801629550755024,0.03616596013307571,0.06346810609102249,0.09913104772567749,0.1426991820335388,0.18751160800457,0.2222585827112198,0.008830742910504341,0.03002715855836868,0.06027659773826599,0.1057801768183708,0.1652184128761292,0.2378319650888443,0.3125193417072296,0.37043097615242,0.01236303988844156,0.04203802347183228,0.08438723534345627,0.1480922549962997,0.2313057780265808,0.3329647481441498,0.437527060508728,0.5186033248901367;0.0001304053439525887,0.0009741081157699227,0.002758465707302094,0.005596642848104239,0.008741415105760098,0.01088401395827532,0.01013840921223164,0.005470227915793657,0.0002863503177650273,0.002138993237167597,0.006057172082364559,0.01228937692940235,0.0191948190331459,0.02389964275062084,0.02226240560412407,0.01201178878545761,0.0004039855557493865,0.003017710987478495,0.008545512333512306,0.01733796298503876,0.0270802229642868,0.03371782600879669,0.03140800073742867,0.01694633811712265,0.0004669952904805541,0.003488383954390883,0.009878357872366905,0.02004216983914375,0.03130393475294113,0.03897680342197418,0.0363067165017128,0.01958946324884892,0.0004668812616728246,0.003487532259896398,0.009875944815576077,0.02003727667033672,0.03129628673195839,0.03896728530526161,0.03629785031080246,0.01958467811346054,0.0004036289756186306,0.003015047404915094,0.008537969551980495,0.01732265762984753,0.02705631963908672,0.03368806466460228,0.03138028085231781,0.01693138107657433,0.0002860248496290296,0.002136562252417207,0.006050287745893002,0.01227540895342827,0.01917300373315811,0.02387247793376446,0.02223710343241692,0.0119981374591589,0.0001303099270444363,0.0009733954793773592,0.002756447531282902,0.005592548288404942,0.008735019713640213,0.01087605115026236,0.0101309921592474,0.005466225557029247
5;86791adeb24851ae9bd3f4419416f295;-0.9602898359298706,-0.685921311378479,-0.4115527868270874,-0.1371842622756958,0.1371842622756958,0.4115527868270874,0.685921311378479,0.9602898359298706,-0.9602898359298706,-0.685921311378479,-0.4115527868270874,-0.1371842622756958,0.1371842622756958,0.4115527868270874,0.685921311378479,0.9602898359298706,-0.9602898359298706,-0.685921311378479,-0.4115527868270874,-0.1371842622756958,0.1371842622756958,0.4115527868270874,0.685921311378479,0.9602898359298706,-0.9602898359298706,-0.685921311378479,-0.4115527868270874,-0.1371842622756958,0.1371842622756958,0.4115527868270874,0.685921311378479,0.9602898359298706,-0.9602898359298706,-0.685921311378479,-0.4115527868270874,-0.1371842622756958,0.1371842622756958,0.4115527868270874,0.685921311378479,0.9602898359298706,-0.9602898359298706,-0.685921311378479,-0.4115527868270874,-0.1371842622756958,0.1371842622756958,0.4115527868270874,0.685921311378479,0.9602898359298706,-0.9602898359298706,-0.685921311378479,-0.4115527868270874,-0.1371842622756958,0.1371842622756958,0.4115527868270874,0.685921311378479,0.9602898359298706,-0.9602898359298706,-0.685921311378479,-0.4115527868270874,-0.1371842622756958,0.1371842622756958,0.4115527868270874,0.685921311378479,0.9602898359298706;-0.9081507921218872,-0.8931882977485657,-0.8700259327888489,-0.8464540839195251,-0.8200839161872864,-0.7987254858016968,-0.7826295495033264,-0.7732328176498413,-0.6486791372299194,-0.6379916667938232,-0.6214470863342285,-0.6046100854873657,-0.5857741832733154,-0.5705181956291199,-0.5590211153030396,-0.5523091554641724,-0.3892074823379517,-0.3827950060367584,-0.3728682696819305,-0.3627660572528839,-0.3514645099639893,-0.3423109352588654,-0.3354126811027527,-0.3313854932785034,-0.1297358274459839,-0.1275983303785324,-0.1242894157767296,-0.1209220141172409,-0.1171548441052437,-0.1141036450862885,-0.111804224550724,-0.1104618310928345,0.1297358274459839,0.1275983303785324,0.1242894157767296,0.1209220141172409,0.1171548441052437,0.1141036450862885,0.111804224550724,0.1104618310928345,0.3892074823379517,0.3827950060367584,0.3728682696819305,0.3627660572528839,0.3514645099639893,0.3423109352588654,0.3354126811027527,0.3313854932785034,0.6486791372299194,0.6379916667938232,0.6214470863342285,0.6046100854873657,0.5857741832733154,0.5705181956291199,0.5590211153030396,0.5523091554641724,0.9081507921218872,0.8931882977485657,0.8700259327888489,0.8464540839195251,0.8200839161872864,0.7987254858016968,0.7826295495033264,0.7732328176498413;0.009690842591226101,0.02093829959630966,0.02877110242843628,0.03236176073551178,0.03135357052087784,0.02641325071454048,0.01834655925631523,0.008251138031482697,0.02128905244171619,0.04599770903587341,0.06320498138666153,0.07109302282333374,0.06887820363044739,0.05802520737051964,0.04030411690473557,0.01812627911567688,0.03003186360001564,0.06488766521215439,0.08916147798299789,0.100288912653923,0.09716453403234482,0.08185451477766037,0.05685587972402573,0.0255702268332243,0.03472055867314339,0.07501818984746933,0.1030817255377769,0.1159464195370674,0.1123342588543892,0.09463396668434143,0.0657324492931366,0.02956235408782959,0.03472055867314339,0.07501818984746933,0.1030817255377769,0.1159464195370674,0.1123342588543892,0.09463396668434143,0.0657324492931366,0.02956235408782959,0.03003186360001564,0.06488766521215439,0.08916147798299789,0.100288912653923,0.09716453403234482,0.08185451477766037,0.05685587972402573,0.0255702268332243,0.02128905244171619,0.04599770903587341,0.06320498138666153,0.07109302282333374,0.06887820363044739,0.05802520737051964,0.04030411690473557,0.01812627911567688,0.009690842591226101,0.02093829959630966,0.02877110242843628,0.03236176073551178,0.03135357052087784,0.02641325071454048,0.01834655925631523,0.008251138031482697
6;7ab7046e3fa23fd4161c3d644e6640d6;-0.9602833986282349,-0.6859167218208313,-0.4115500450134277,-0.137183353304863,0.137183353304863,0.4115500450134277,0.6859167218208313,0.9602833986282349,-0.9602832198143005,-0.685916543006897,-0.4115499556064606,-0.1371833086013794,0.1371833086013794,0.4115499556064606,0.685916543006897,0.9602832198143005,-0.9602833986282349,-0.6859167218208313,-0.4115500450134277,-0.137183353304863,0.137183353304863,0.4115500450134277,0.6859167218208313,0.9602833986282349,-0.9602826237678528,-0.6859161853790283,-0.4115496873855591,-0.1371832340955734,0.1371832340955734,0.4115496873855591,0.6859161853790283,0.9602826237678528,-0.9602821469306946,-0.6859158277511597,-0.4115495085716248,-0.1371831595897675,0.1371831595897675,0.4115495085716248,0.6859158277511597,0.9602821469306946,-0.96028071641922,-0.6859148144721985,-0.4115488827228546,-0.1371829658746719,0.1371829658746719,0.4115488827228546,0.6859148144721985,0.96028071641922,-0.9602790474891663,-0.685913622379303,-0.4115481674671173,-0.1371827274560928,0.1371827274560928,0.4115481674671173,0.685913622379303,0.9602790474891663,-0.9602751135826111,-0.6859108209609985,-0.4115464687347412,-0.1371821612119675,0.1371821612119675,0.4115464687347412,0.6859108209609985,0.9602751135826111;-0.04297878220677376,-0.0657513365149498,-0.08657778799533844,-0.1132873147726059,-0.1382969915866852,-0.1607522368431091,-0.1776357591152191,-0.189492255449295,-0.03069913014769554,-0.04696524143218994,-0.06184127926826477,-0.08091951161623001,-0.09878356754779816,-0.1148230284452438,-0.1268826872110367,-0.1353516131639481,-0.01841947808861732,-0.02817914634943008,-0.0371047668159008,-0.04855170473456383,-0.05927014350891113,-0.06889381259679794,-0.07612961530685425,-0.08121097087860107,-0.006139826029539108,-0.009393048472702503,-0.01236825529485941,-0.01618390157818794,-0.01975671388208866,-0.02296460419893265,-0.02537653781473637,-0.02707032300531864,0.006139826029539108,0.009393048472702503,0.01236825529485941,0.01618390157818794,0.01975671388208866,0.02296460419893265,0.02537653781473637,0.02707032300531864,0.01841947808861732,0.02817914634943008,0.0371047668159008,0.04855170473456383,0.05927014350891113,0.06889381259679794,0.07612961530685425,0.08121097087860107,0.03069913014769554,0.04696524143218994,0.06184127926826477,0.08091951161623001,0.09878356754779816,0.1148230284452438,0.1268826872110367,0.1353516131639481,0.04297878220677376,0.0657513365149498,0.08657778799533844,0.1132873147726059,0.1382969915866852,0.1607522368431091,0.1776357591152191,0.189492255449295;0.0004586218856275082,0.001541345845907927,0.002863043220713735,0.00433118874207139,0.005287356209009886,0.005315919872373343,0.004164145328104496,0.002022051252424717,0.001007510232739151,0.003386060707271099,0.006289593875408173,0.00951484777033329,0.01161537691950798,0.01167812570929527,0.009147882461547852,0.004442084580659866,0.001421266468241811,0.004776621703058481,0.008872553706169128,0.01342232804745436,0.01638548634946346,0.01647400483489037,0.01290466170758009,0.006266324780881405,0.001643158961087465,0.005522362422198057,0.01025776471942663,0.01551786437630653,0.01894363947212696,0.01904597692191601,0.01491937786340714,0.007244642823934555,0.001643158146180212,0.005522360093891621,0.01025775913149118,0.01551785692572594,0.01894363015890121,0.01904596760869026,0.01491937041282654,0.007244638632982969,0.001421262393705547,0.004776608198881149,0.008872529491782188,0.01342229079455137,0.01638543978333473,0.01647396013140678,0.01290462538599968,0.0062663066200912,0.001007505925372243,0.003386046504601836,0.006289566867053509,0.009514806792140007,0.01161532755941153,0.01167807541787624,0.009147843345999718,0.004442065954208374,0.000458617927506566,0.001541332458145916,0.002863018540665507,0.004331151489168406,0.005287311039865017,0.005315874237567186,0.004164109472185373,0.002022033790126443
7;5e9ca2a2b1419a14102e743419fc21cc;-0.8394757509231567,-0.5996255278587341,-0.3597753047943115,-0.1199251040816307,0.1199251040816307,0.3597753047943115,0.5996255278587341,0.8394757509231567,-0.7738564014434814,-0.5527545809745789,-0.3316527307033539,-0.1105509176850319,0.1105509176850319,0.3316527307033539,0.5527545809745789,0.7738564014434814,-0.6715705394744873,-0.4796932339668274,-0.2878159284591675,-0.09593864530324936,0.09593864530324936,0.2878159284591675,0.4796932339668274,0.6715705394744873,-0.5431952476501465,-0.3879966139793396,-0.2327979654073715,-0.07759932428598404,0.07759932428598404,0.2327979654073715,0.3879966139793396,0.5431952476501465,-0.4117625951766968,-0.2941161394119263,-0.1764696836471558,-0.05882322788238525,0.05882322788238525,0.1764696836471558,0.2941161394119263,0.4117625951766968,-0.2937649488449097,-0.209832102060318,-0.1258992552757263,-0.04196641966700554,0.04196641966700554,0.1258992552757263,0.209832102060318,0.2937649488449097,-0.2025366574525833,-0.1446690410375595,-0.08680142462253571,-0.0289338082075119,0.0289338082075119,0.08680142462253571,0.1446690410375595,0.2025366574525833,-0.1484350711107254,-0.1060250550508499,-0.06361503154039383,-0.02120500989258289,0.02120500989258289,0.06361503154039383,0.1060250550508499,0.1484350711107254;-0.9602888822555542,-0.9602891206741333,-0.9602891206741333,-0.9602892398834229,-0.9602891206741333,-0.9602891206741333,-0.9602891206741333,-0.9602885246276855,-0.6859205961227417,-0.685920774936676,-0.6859208345413208,-0.6859208941459656,-0.6859208345413208,-0.6859208345413208,-0.685920774936676,-0.6859203577041626,-0.411552369594574,-0.4115524590015411,-0.4115524888038635,-0.4115525484085083,-0.4115524888038635,-0.4115524888038635,-0.4115524590015411,-0.411552220582962,-0.1371841281652451,-0.1371841579675674,-0.1371841579675674,-0.1371841877698898,-0.1371841579675674,-0.1371841579675674,-0.1371841579675674,-0.1371840685606003,0.1371841281652451,0.1371841579675674,0.1371841579675674,0.1371841877698898,0.1371841579675674,0.1371841579675674,0.1371841579675674,0.1371840685606003,0.411552369594574,0.4115524590015411,0.4115524888038635,0.4115525484085083,0.4115524888038635,0.4115524888038635,0.4115524590015411,0.411552220582962,0.6859205961227417,0.685920774936676,0.6859208345413208,0.6859208941459656,0.6859208345413208,0.6859208345413208,0.685920774936676,0.6859203577041626,0.9602888822555542,0.9602891206741333,0.9602891206741333,0.9602892398834229,0.9602891206741333,0.9602891206741333,0.9602891206741333,0.9602885246276855;0.008958004415035248,0.01967914402484894,0.02776081301271915,0.03209494426846504,0.03209494054317474,0.02776081301271915,0.01967914402484894,0.008958001621067524,0.01814087852835655,0.03985228389501572,0.05621849372982979,0.06499555706977844,0.06499554961919785,0.05621849372982979,0.03985228389501572,0.01814087107777596,0.02220830880105495,0.04878770932555199,0.06882344186306,0.07956843823194504,0.07956843078136444,0.06882344186306,0.04878770932555199,0.02220830135047436,0.02076750248670578,0.04562251269817352,0.06435838341712952,0.07440628856420517,0.07440628111362457,0.06435838341712952,0.04562251269817352,0.02076749503612518,0.01574255339801311,0.03458359465003014,0.04878609627485275,0.0564027838408947,0.0564027801156044,0.04878609627485275,0.03458359465003014,0.01574254781007767,0.009714576415717602,0.02134119719266891,0.03010542318224907,0.03480560705065727,0.03480560332536697,0.03010542318224907,0.02134119719266891,0.009714572690427303,0.004747900180518627,0.01043029222637415,0.01471371948719025,0.0170108862221241,0.01701088435947895,0.01471371948719025,0.01043029222637415,0.004747898317873478,0.00158394337631762,0.003479642095044255,0.004908632952719927,0.005674988962709904,0.005674988497048616,0.004908632952719927,0.003479642095044255,0.001583942910656333
8;b162bd935fa02286f7fe201ceaa327c6;-0.1177540048956871,-0.08410999923944473,-0.05046600103378296,-0.01682200096547604,0.01682200096547604,0.05046600103378296,0.08410999923944473,0.1177540048956871,-0.1829227209091187,-0.1306590884923935,-0.07839545607566833,-0.02613181807100773,0.02613181807100773,0.07839545607566833,0.1306590884923935,0.1829227209091187,-0.2872436940670013,-0.2051740735769272,-0.1231044456362724,-0.04103481397032738,0.04103481397032738,0.1231044456362724,0.2051740735769272,0.2872436940670013,-0.4160363674163818,-0.2971688210964203,-0.1783013045787811,-0.05943376570940018,0.05943376570940018,0.1783013045787811,0.2971688210964203,0.4160363674163818,-0.5480400919914246,-0.391457200050354,-0.2348743230104446,-0.07829143851995468,0.07829143851995468,0.2348743230104446,0.391457200050354,0.5480400919914246,-0.6659752726554871,-0.4756966531276703,-0.2854179739952087,-0.09513932466506958,0.09513932466506958,0.2854179739952087,0.4756966531276703,0.6659752726554871,-0.7579846978187561,-0.54141765832901,-0.3248505890369415,-0.1082835346460342,0.1082835346460342,0.3248505890369415,0.54141765832901,0.7579846978187561,-0.8112765550613403,-0.5794832706451416,-0.3476899564266205,-0.11589664965868,0.11589664965868,0.3476899564266205,0.5794832706451416,0.8112765550613403;-0.9602859020233154,-0.9602867364883423,-0.9602876305580139,-0.9602878093719482,-0.9602874517440796,-0.9602874517440796,-0.9602876305580139,-0.9602874517440796,-0.6859185099601746,-0.6859191060066223,-0.6859197020530701,-0.6859198808670044,-0.6859195828437805,-0.6859195828437805,-0.6859197020530701,-0.6859195828437805,-0.4115510880947113,-0.4115514755249023,-0.411551833152771,-0.4115519225597382,-0.4115517437458038,-0.4115517437458038,-0.411551833152771,-0.4115517437458038,-0.1371836960315704,-0.13718381524086,-0.1371839493513107,-0.1371839791536331,-0.1371839195489883,-0.1371839195489883,-0.1371839493513107,-0.1371839195489883,0.1371836960315704,0.13718381524086,0.1371839493513107,0.1371839791536331,0.1371839195489883,0.1371839195489883,0.1371839493513107,0.1371839195489883,0.4115510880947113,0.4115514755249023,0.411551833152771,0.4115519225597382,0.4115517437458038,0.4115517437458038,0.411551833152771,0.4115517437458038,0.6859185099601746,0.6859191060066223,0.6859197020530701,0.6859198808670044,0.6859195828437805,0.6859195828437805,0.6859197020530701,0.6859195828437805,0.9602859020233154,0.9602867364883423,0.9602876305580139,0.9602878093719482,0.9602874517440796,0.9602874517440796,0.9602876305580139,0.9602874517440796;0.001256543328054249,0.002760404022410512,0.003894027322530746,0.004501979798078537,0.004501977935433388,0.003894026624038815,0.002760406583547592,0.001256545423530042,0.004288093652576208,0.009420185349881649,0.01328880060464144,0.01536350511014462,0.01536349859088659,0.01328879874199629,0.009420193731784821,0.004288100637495518,0.009498894214630127,0.02086739614605904,0.02943707071244717,0.0340329110622406,0.03403289616107941,0.02943706512451172,0.02086741477251053,0.009498909115791321,0.01590589992702007,0.03494245558977127,0.04929237812757492,0.05698812007904053,0.05698809772729874,0.04929237067699432,0.03494248911738396,0.01590592600405216,0.02095266617834568,0.04602931067347527,0.06493230164051056,0.07506981492042542,0.07506978511810303,0.06493229418992996,0.04602935537695885,0.02095269970595837,0.02202321030199528,0.04838111624121666,0.06824992597103119,0.07890539616346359,0.0789053663611412,0.06824991106987,0.04838115721940994,0.02202324755489826,0.01776875741779804,0.03903482109308243,0.05506537109613419,0.06366240978240967,0.06366238743066788,0.05506536364555359,0.03903485834598541,0.01776878535747528,0.008657066151499748,0.01901804655790329,0.02682824246585369,0.03101678192615509,0.03101677075028419,0.02682823874056339,0.01901806332170963,0.008657080121338367
9;e0beaea894bc6ef9bb57456b39a0fea5;-0.7305624485015869,-0.5218303203582764,-0.3130981922149658,-0.1043660640716553,0.1043660640716553,0.3130981922149658,0.5218303203582764,0.7305624485015869,-0.730247437953949,-0.5216053128242493,-0.3129631876945496,-0.1043210625648499,0.1043210625648499,0.3129631876945496,0.5216053128242493,0.730247437953949,-0.730444073677063,-0.5217458009719849,-0.313047468662262,-0.1043491587042809,0.1043491587042809,0.313047468662262,0.5217458009719849,0.730444073677063,-0.7297621965408325,-0.5212587118148804,-0.3127552270889282,-0.1042517349123955,0.1042517349123955,0.3127552270889282,0.5212587118148804,0.7297621965408325,-0.7318174839019775,-0.5227267742156982,-0.3136360645294189,-0.1045453548431396,0.1045453548431396,0.3136360645294189,0.5227267742156982,0.7318174839019775,-0.7309370040893555,-0.5220978260040283,-0.3132587075233459,-0.1044195666909218,0.1044195666909218,0.3132587075233459,0.5220978260040283,0.7309370040893555,-0.7320755124092102,-0.5229110717773438,-0.3137466311454773,-0.1045822128653526,0.1045822128653526,0.3137466311454773,0.5229110717773438,0.7320755124092102,-0.7311648726463318,-0.5222606658935547,-0.3133563697338104,-0.1044521257281303,0.1044521257281303,0.3133563697338104,0.5222606658935547,0.7311648726463318;-0.7023771405220032,-0.678843080997467,-0.6315015554428101,-0.5566688776016235,-0.4501229822635651,-0.3115698993206024,-0.1591019779443741,-0.03366301953792572,-0.5016979575157166,-0.4848879277706146,-0.4510725438594818,-0.3976206183433533,-0.3215164244174957,-0.2225499153137207,-0.1136442646384239,-0.02404501289129257,-0.3010187745094299,-0.2909327447414398,-0.2706435322761536,-0.238572359085083,-0.1929098516702652,-0.1335299462080002,-0.06818655878305435,-0.014427007175982,-0.1003395915031433,-0.09697758406400681,-0.09021451324224472,-0.07952412217855453,-0.06430328637361526,-0.04450998455286026,-0.02272885292768478,-0.004809002391993999,0.1003395915031433,0.09697758406400681,0.09021451324224472,0.07952412217855453,0.06430328637361526,0.04450998455286026,0.02272885292768478,0.004809002391993999,0.3010187745094299,0.2909327447414398,0.2706435322761536,0.238572359085083,0.1929098516702652,0.1335299462080002,0.06818655878305435,0.014427007175982,0.5016979575157166,0.4848879277706146,0.4510725438594818,0.3976206183433533,0.3215164244174957,0.2225499153137207,0.1136442646384239,0.02404501289129257,0.7023771405220032,0.678843080997467,0.6315015554428101,0.5566688776016235,0.4501229822635651,0.3115698993206024,0.1591019779443741,0.03366301953792572;0.005702022928744555,0.01210661791265011,0.0158874336630106,0.01619126088917255,0.01309226918965578,0.007838533259928226,0.002837454900145531,0.0002732824068516493,0.01252092514187098,0.02658461034297943,0.03488681465387344,0.03555397689342499,0.02874898165464401,0.01721243560314178,0.006230693776160479,0.0006000938010402024,0.01766767166554928,0.03751225769519806,0.04922708868980408,0.05016849562525749,0.04056629538536072,0.0242876335978508,0.008791831322014332,0.000846763257868588,0.02040695026516914,0.04332832992076874,0.05685948953032494,0.05794685706496239,0.04685588553547859,0.02805330231785774,0.01015495788305998,0.0009780493564903736,0.02046442404389381,0.04345035925507545,0.05701962485909462,0.05811005830764771,0.04698785021901131,0.02813231013715267,0.01018355786800385,0.0009808039758354425,0.01767959259450436,0.03753756731748581,0.04926030710339546,0.05020234733819962,0.04059366509318352,0.02430402301251888,0.008797763846814632,0.0008473346242681146,0.01255227066576481,0.02665115892887115,0.03497414290904999,0.03564298152923584,0.02882095053792,0.01725552417337894,0.006246291566640139,0.0006015960243530571,0.005706724710762501,0.01211660075932741,0.01590053550899029,0.01620461419224739,0.01310306508094072,0.007844996638596058,0.002839794615283608,0.0002735077287070453
10;b8c54ff4220583c23f543c02db5f54e2;-0.9602898359298706,-0.685921311378479,-0.4115527868270874,-0.1371842622756958,0.1371842622756958,0.4115527868270874,0.685921311378479,0.9602898359298706,-0.9602898359298706,-0.685921311378479,-0.4115527868270874,-0.1371842622756958,0.1371842622756958,0.4115527868270874,0.685921311378479,0.9602898359298706,-0.9602898359298706,-0.685921311378479,-0.4115527868270874,-0.1371842622756958,0.1371842622756958,0.4115527868270874,0.685921311378479,0.9602898359298706,-0.9602898359298706,-0.685921311378479,-0.4115527868270874,-0.1371842622756958,0.1371842622756958,0.4115527868270874,0.685921311378479,0.9602898359298706,-0.9602898359298706,-0.685921311378479,-0.4115527868270874,-0.1371842622756958,0.1371842622756958,0.4115527868270874,0.685921311378479,0.9602898359298706,-0.9602898359298706,-0.685921311378479,-0.4115527868270874,-0.1371842622756958,0.1371842622756958,0.4115527868270874,0.685921311378479,0.9602898359298706,-0.9602898359298706,-0.685921311378479,-0.4115527868270874,-0.1371842622756958,0.1371842622756958,0.4115527868270874,0.685921311378479,0.9602898359298706,-0.9602898359298706,-0.685921311378479,-0.4115527868270874,-0.1371842622756958,0.1371842622756958,0.4115527868270874,0.685921311378479,0.9602898359298706;-0.5584284067153931,-0.5379810929298401,-0.5006215572357178,-0.4456687569618225,-0.3746195435523987,-0.2939255237579346,-0.2166726887226105,-0.1619462519884109,-0.3988774120807648,-0.3842721879482269,-0.3575868308544159,-0.3183348476886749,-0.2675853967666626,-0.2099468111991882,-0.1547662019729614,-0.1156758964061737,-0.2393264621496201,-0.2305633127689362,-0.2145520895719528,-0.191000908613205,-0.1605512350797653,-0.1259680837392807,-0.09285972267389297,-0.06940554082393646,-0.07977548241615295,-0.07685443758964539,-0.07151736319065094,-0.06366696953773499,-0.05351707711815834,-0.04198936000466347,-0.03095324151217937,-0.02313517965376377,0.07977548241615295,0.07685443758964539,0.07151736319065094,0.06366696953773499,0.05351707711815834,0.04198936000466347,0.03095324151217937,0.02313517965376377,0.2393264621496201,0.2305633127689362,0.2145520895719528,0.191000908613205,0.1605512350797653,0.1259680837392807,0.09285972267389297,0.06940554082393646,0.3988774120807648,0.3842721879482269,0.3575868308544159,0.3183348476886749,0.2675853967666626,0.2099468111991882,0.1547662019729614,0.1156758964061737,0.5584284067153931,0.5379810929298401,0.5006215572357178,0.4456687569618225,0.3746195435523987,0.2939255237579346,0.2166726887226105,0.1619462519884109;0.005958968307822943,0.01261145994067192,0.0165551770478487,0.01703887619078159,0.01432251092046499,0.009719896130263805,0.005079284776002169,0.001728122355416417,0.01309079024940729,0.02770512923598289,0.03636877611279488,0.03743137419223785,0.03146400302648544,0.02135287970304489,0.01115828193724155,0.003796376753598452,0.01846680603921413,0.0390828400850296,0.0513043999671936,0.05280337482690811,0.04438537731766701,0.03012190014123917,0.01574067398905754,0.005355441011488438,0.02134991995990276,0.04518461227416992,0.05931424722075462,0.0610472559928894,0.05131500214338303,0.03482465445995331,0.0181981697678566,0.006191554013639688,0.02134991995990276,0.04518461227416992,0.05931424722075462,0.0610472559928894,0.05131500214338303,0.03482465445995331,0.0181981697678566,0.006191554013639688,0.01846680603921413,0.0390828400850296,0.0513043999671936,0.05280337482690811,0.04438537731766701,0.03012190014123917,0.01574067398905754,0.005355441011488438,0.01309079024940729,0.02770512923598289,0.03636877611279488,0.03743137419223785,0.03146400302648544,0.02135287970304489,0.01115828193724155,0.003796376753598452,0.005958968307822943,0.01261145994067192,0.0165551770478487,0.01703887619078159,0.01432251092046499,0.009719896130263805,0.005079284776002169,0.001728122355416417
11;372a56cac67dbaa6ce4091cd1fdc1159;-0.9602898359298706,-0.685921311378479,-0.4115527868270874,-0.1371842622756958,0.1371842622756958,0.4115527868270874,0.685921311378479,0.9602898359298706,-0.9602898359298706,-0.685921311378479,-0.4115527868270874,-0.1371842622756958,0.1371842622756958,0.4115527868270874,0.685921311378479,0.9602898359298706,-0.9602898359298706,-0.685921311378479,-0.4115527868270874,-0.1371842622756958,0.1371842622756958,0.4115527868270874,0.685921311378479,0.9602898359298706,-0.9602898359298706,-0.685921311378479,-0.4115527868270874,-0.1371842622756958,0.1371842622756958,0.4115527868270874,0.685921311378479,0.9602898359298706,-0.9602898359298706,-0.685921311378479,-0.4115527868270874,-0.1371842622756958,0.1371842622756958,0.4115527868270874,0.685921311378479,0.9602898359298706,-0.9602898359298706,-0.685921311378479,-0.4115527868270874,-0.1371842622756958,0.1371842622756958,0.4115527868270874,0.685921311378479,0.9602898359298706,-0.9602898359298706,-0.685921311378479,-0.4115527868270874,-0.1371842622756958,0.1371842622756958,0.4115527868270874,0.685921311378479,0.9602898359298706,-0.9602898359298706,-0.685921311378479,-0.4115527868270874,-0.1371842622756958,0.1371842622756958,0.4115527868270874,0.685921311378479,0.9602898359298706;-0.4039495587348938,-0.4243667721748352,-0.4614647030830383,-0.5160118937492371,-0.5865030288696289,-0.665732741355896,-0.7426223754882812,-0.7967797517776489,-0.2885353863239288,-0.3031191229820251,-0.3296176493167877,-0.3685799241065979,-0.4189307391643524,-0.4755233824253082,-0.5304445624351501,-0.5691283941268921,-0.1731212437152863,-0.1818714737892151,-0.1977705806493759,-0.2211479693651199,-0.2513584494590759,-0.2853140234947205,-0.318266749382019,-0.3414770364761353,-0.05770707875490189,-0.06062382459640503,-0.06592352688312531,-0.07371598482131958,-0.08378615230321884,-0.09510467201471329,-0.1060889139771461,-0.1138256788253784,0.05770707875490189,0.06062382459640503,0.06592352688312531,0.07371598482131958,0.08378615230321884,0.09510467201471329,0.1060889139771461,0.1138256788253784,0.1731212437152863,0.1818714737892151,0.1977705806493759,0.2211479693651199,0.2513584494590759,0.2853140234947205,0.318266749382019,0.3414770364761353,0.2885353863239288,0.3031191229820251,0.3296176493167877,0.3685799241065979,0.4189307391643524,0.4755233824253082,0.5304445624351501,0.5691283941268921,0.4039495587348938,0.4243667721748352,0.4614647030830383,0.5160118937492371,0.5865030288696289,0.665732741355896,0.7426223754882812,0.7967797517776489;0.004310530610382557,0.009948091581463814,0.01526029035449028,0.01972824521362782,0.0224232729524374,0.02201527915894985,0.01740870252251625,0.008502406999468803,0.009469466283917427,0.02185418084263802,0.03352413699030876,0.04333943873643875,0.04925993457436562,0.04836364462971687,0.03824381530284882,0.01867827214300632,0.01335830800235271,0.03082907572388649,0.04729155078530312,0.06113771721720695,0.06948959082365036,0.06822522729635239,0.05394947156310081,0.02634890750050545,0.01544386055320501,0.03564223647117615,0.0546748973429203,0.07068278640508652,0.08033858984708786,0.07887682318687439,0.06237227842211723,0.03046260587871075,0.01544386055320501,0.03564223647117615,0.0546748973429203,0.07068278640508652,0.08033858984708786,0.07887682318687439,0.06237227842211723,0.03046260587871075,0.01335830800235271,0.03082907572388649,0.04729155078530312,0.06113771721720695,0.06948959082365036,0.06822522729635239,0.05394947156310081,0.02634890750050545,0.009469466283917427,0.02185418084263802,0.03352413699030876,0.04333943873643875,0.04925993457436562,0.04836364462971687,0.03824381530284882,0.01867827214300632,0.004310530610382557,0.009948091581463814,0.01526029035449028,0.01972824521362782,0.0224232729524374,0.02201527915894985,0.01740870252251625,0.008502406999468803
12;c2f7797bc14d819a0c24c6b87c4e0a1c;-0.6606621742248535,-0.4719015657901764,-0.2831409573554993,-0.09438031166791916,0.09438031166791916,0.2831409573554993,0.4719015657901764,0.6606621742248535,-0.6621537804603577,-0.4729669690132141,-0.2837801873683929,-0.09459339082241058,0.09459339082241058,0.2837801873683929,0.4729669690132141,0.6621537804603577,-0.6619064807891846,-0.4727903604507446,-0.2836742103099823,-0.09455806761980057,0.09455806761980057,0.2836742103099823,0.4727903604507446,0.6619064807891846,-0.6615220904350281,-0.4725157618522644,-0.2835094630718231,-0.09450315684080124,0.09450315684080124,0.2835094630718231,0.4725157618522644,0.6615220904350281,-0.6615971922874451,-0.4725694060325623,-0.2835416495800018,-0.09451388567686081,0.09451388567686081,0.2835416495800018,0.4725694060325623,0.6615971922874451,-0.6615341901779175,-0.4725244045257568,-0.2835146486759186,-0.09450487792491913,0.09450487792491913,0.2835146486759186,0.4725244045257568,0.6615341901779175,-0.6612396240234375,-0.4723140001296997,-0.2833884060382843,-0.0944628044962883,0.0944628044962883,0.2833884060382843,0.4723140001296997,0.6612396240234375,-0.658466100692749,-0.4703329205513,-0.2821997702121735,-0.09406658262014389,0.09406658262014389,0.2821997702121735,0.4703329205513,0.658466100692749;-0.009026047773659229,-0.04272307455539703,-0.09379751980304718,-0.1528600007295609,-0.2082516252994537,-0.2533187866210938,-0.2861473560333252,-0.304717630147934,-0.00644717738032341,-0.03051648288965225,-0.06699822843074799,-0.1091857105493546,-0.1487511694431305,-0.1809419840574265,-0.2043909579515457,-0.2176554650068283,-0.00386830628849566,-0.01830988936126232,-0.04019893705844879,-0.06551142781972885,-0.08925069868564606,-0.1085651963949203,-0.1226345747709274,-0.1305932700634003,-0.001289435429498553,-0.006103296298533678,-0.0133996456861496,-0.02183714136481285,-0.02975023165345192,-0.03618839755654335,-0.04087819159030914,-0.04353109374642372,0.001289435429498553,0.006103296298533678,0.0133996456861496,0.02183714136481285,0.02975023165345192,0.03618839755654335,0.04087819159030914,0.04353109374642372,0.00386830628849566,0.01830988936126232,0.04019893705844879,0.06551142781972885,0.08925069868564606,0.1085651963949203,0.1226345747709274,0.1305932700634003,0.00644717738032341,0.03051648288965225,0.06699822843074799,0.1091857105493546,0.1487511694431305,0.1809419840574265,0.2043909579515457,0.2176554650068283,0.009026047773659229,0.04272307455539703,0.09379751980304718,0.1528600007295609,0.2082516252994537,0.2533187866210938,0.2861473560333252,0.304717630147934;6.626411050092429e-05,0.0006890298100188375,0.002133992267772555,0.004020681604743004,0.005477650091052055,0.00576326809823513,0.004614931531250477,0.0022370635997504,0.0001458990736864507,0.001517092925496399,0.004698583856225014,0.008852662518620491,0.01206058822572231,0.01268945727497339,0.01016106922179461,0.004925524815917015,0.0002057388337561861,0.002139321062713861,0.006625684443861246,0.01248353719711304,0.01700717583298683,0.01789397373795509,0.01432858034968376,0.00694570317864418,0.0002377214550506324,0.002471883781254292,0.007655664347112179,0.01442413497716188,0.01965098641812801,0.02067563682794571,0.01655599474906921,0.008025431074202061,0.000237748448853381,0.002472164575010538,0.007656533271074295,0.01442577317357063,0.01965321786701679,0.02067798376083374,0.01655787415802479,0.008026341907680035,0.0002056231023743749,0.002138117561116815,0.006621957290917635,0.01247651409357786,0.01699760928750038,0.01788390800356865,0.01432051975280046,0.006941796280443668,0.0001456976606277749,0.001514998497441411,0.004692097660154104,0.008840440772473812,0.01204393804073334,0.01267193909734488,0.01014704164117575,0.00491872476413846,6.60438381601125e-05,0.0006867393967695534,0.002126898616552353,0.004007316660135984,0.005459441337734461,0.00574411079287529,0.004599590785801411,0.002229627221822739
13;e4666d7885f2f45be9f58617a3839c55;-0.5871866941452026,-0.4194190800189972,-0.2516514360904694,-0.08388381451368332,0.08388381451368332,0.2516514360904694,0.4194190800189972,0.5871866941452026,-0.564667284488678,-0.4033337831497192,-0.2420002818107605,-0.08066675812005997,0.08066675812005997,0.2420002818107605,0.4033337831497192,0.564667284488678,-0.5210623741149902,-0.3721874356269836,-0.2233124524354935,-0.07443748414516449,0.07443748414516449,0.2233124524354935,0.3721874356269836,0.5210623741149902,-0.4559057652950287,-0.3256469666957855,-0.1953881829977036,-0.06512939184904099,0.06512939184904099,0.1953881829977036,0.3256469666957855,0.4559057652950287,-0.3634980320930481,-0.2596414387226105,-0.155784860253334,-0.05192828923463821,0.05192828923463821,0.155784860253334,0.2596414387226105,0.3634980320930481,-0.2468349188566208,-0.176310658454895,-0.1057863980531693,-0.03526213392615318,0.03526213392615318,0.1057863980531693,0.176310658454895,0.2468349188566208,-0.1215212196111679,-0.08680087327957153,-0.05208052322268486,-0.01736017502844334,0.01736017502844334,0.05208052322268486,0.08680087327957153,0.1215212196111679,-0.02632080391049385,-0.01880057528614998,-0.01128034479916096,-0.003760115010663867,0.003760115010663867,0.01128034479916096,0.01880057528614998,0.02632080391049385;-0.864240825176239,-0.8642542362213135,-0.8638356328010559,-0.8635507225990295,-0.8635627031326294,-0.8640492558479309,-0.8635851740837097,-0.864464282989502,-0.617314875125885,-0.6173244714736938,-0.6170254349708557,-0.6168219447135925,-0.6168305277824402,-0.6171780824661255,-0.6168465614318848,-0.6174744963645935,-0.370388925075531,-0.3703946769237518,-0.3702152669429779,-0.3700931668281555,-0.3700982928276062,-0.3703068196773529,-0.3701079487800598,-0.3704847097396851,-0.1234629824757576,-0.1234648898243904,-0.1234050840139389,-0.1233643889427185,-0.1233661025762558,-0.1234356090426445,-0.1233693137764931,-0.1234949007630348,0.1234629824757576,0.1234648898243904,0.1234050840139389,0.1233643889427185,0.1233661025762558,0.1234356090426445,0.1233693137764931,0.1234949007630348,0.370388925075531,0.3703946769237518,0.3702152669429779,0.3700931668281555,0.3700982928276062,0.3703068196773529,0.3701079487800598,0.3704847097396851,0.617314875125885,0.6173244714736938,0.6170254349708557,0.6168219447135925,0.6168305277824402,0.6171780824661255,0.6168465614318848,0.6174744963645935,0.864240825176239,0.8642542362213135,0.8638356328010559,0.8635507225990295,0.8635627031326294,0.8640492558479309,0.8635851740837097,0.864464282989502;0.005639131646603346,0.01238835882395506,0.01746744103729725,0.02018786780536175,0.02018814720213413,0.01747176051139832,0.01237876899540424,0.005640589632093906,0.01191306486725807,0.02617128193378448,0.03690120577812195,0.04264830052852631,0.04264889284968376,0.03691033273935318,0.0261510219424963,0.01191614381968975,0.01550766825675964,0.03406811133027077,0.0480356402695179,0.05551684275269508,0.05551761016249657,0.04804752022027969,0.03404173627495766,0.01551167760044336,0.01568686962127686,0.03446178883314133,0.04859071969985962,0.05615837872028351,0.05615915358066559,0.04860274121165276,0.03443511202931404,0.01569092646241188,0.0125072905793786,0.0274767130613327,0.03874184563755989,0.04477560892701149,0.04477623105049133,0.03875142708420753,0.02745544351637363,0.01251052506268024,0.007346210535615683,0.01613856665790081,0.02275518886744976,0.02629914507269859,0.02629951015114784,0.02276081778109074,0.01612607203423977,0.007348109968006611,0.002563792979344726,0.005632283166050911,0.007941453717648983,0.009178278036415577,0.009178405627608299,0.007943418808281422,0.005627923179417849,0.002564456081017852,0.0002527756441850215,0.0005553115624934435,0.0007829828537069261,0.000904926797375083,0.0009049393120221794,0.0007831765105947852,0.0005548816989175975,0.0002528409822843969
14;b82cb4a2b13b42c5d4a9a76d868c5d30;-0.3003685772418976,-0.2145489901304245,-0.1287293881177902,-0.04290979728102684,0.04290979728102684,0.1287293881177902,0.2145489901304245,0.3003685772418976,-0.2814252376556396,-0.2010180205106735,-0.1206108182668686,-0.04020360484719276,0.04020360484719276,0.1206108182668686,0.2010180205106735,0.2814252376556396,-0.249259740114212,-0.1780426800251007,-0.1068256050348282,-0.03560853376984596,0.03560853376984596,0.1068256050348282,0.1780426800251007,0.249259740114212,-0.2045504748821259,-0.146107479929924,-0.08766449242830276,-0.02922149747610092,0.02922149747610092,0.08766449242830276,0.146107479929924,0.2045504748821259,-0.1504971086978912,-0.1074979305267334,-0.06449875980615616,-0.02149958722293377,0.02149958722293377,0.06449875980615616,0.1074979305267334,0.1504971086978912,-0.09257610142230988,-0.06612578779459,-0.03967547416687012,-0.01322515774518251,0.01322515774518251,0.03967547416687012,0.06612578779459,0.09257610142230988,-0.04125361889600754,-0.02946686930954456,-0.01768012158572674,-0.005893373861908913,0.005893373861908913,0.01768012158572674,0.02946686930954456,0.04125361889600754,-0.008532529696822166,-0.006094664335250854,-0.003656798740848899,-0.0012189329136163,0.0012189329136163,0.003656798740848899,0.006094664335250854,0.008532529696822166;-0.4547602534294128,-0.4546169340610504,-0.4529562294483185,-0.4528021216392517,-0.4534910321235657,-0.4530890285968781,-0.4524122476577759,-0.4534881412982941,-0.3248287439346313,-0.324726402759552,-0.3235401511192322,-0.3234300911426544,-0.3239221572875977,-0.3236350417137146,-0.3231515884399414,-0.3239201009273529,-0.194897249341011,-0.19483582675457,-0.1941240876913071,-0.1940580457448959,-0.1943532973527908,-0.1941810250282288,-0.1938909590244293,-0.1943520605564117,-0.06496574729681015,-0.0649452805519104,-0.06470803171396255,-0.06468601524829865,-0.06478442996740341,-0.06472700834274292,-0.06463032215833664,-0.06478402018547058,0.06496574729681015,0.0649452805519104,0.06470803171396255,0.06468601524829865,0.06478442996740341,0.06472700834274292,0.06463032215833664,0.06478402018547058,0.194897249341011,0.19483582675457,0.1941240876913071,0.1940580457448959,0.1943532973527908,0.1941810250282288,0.1938909590244293,0.1943520605564117,0.3248287439346313,0.324726402759552,0.3235401511192322,0.3234300911426544,0.3239221572875977,0.3236350417137146,0.3231515884399414,0.3239201009273529,0.4547602534294128,0.4546169340610504,0.4529562294483185,0.4528021216392517,0.4534910321235657,0.4530890285968781,0.4524122476577759,0.4534881412982941;0.001517882803454995,0.003333467058837414,0.004685249179601669,0.005414886400103569,0.005423124879598618,0.004686622880399227,0.003317300928756595,0.001513636787422001,0.003124219831079245,0.006861190777271986,0.00964353047311306,0.01114532444626093,0.01116228103637695,0.009646357968449593,0.006827916949987411,0.003115480532869697,0.003903521923348308,0.008572639897465706,0.01204900350421667,0.01392540242522955,0.01394658908247948,0.01205253601074219,0.008531065657734871,0.003892602398991585,0.003703474765643477,0.00813330989331007,0.01143151707947254,0.0132117560133338,0.01323185674846172,0.01143486984074116,0.00809386745095253,0.003693114966154099,0.002724815160036087,0.005984046496450901,0.008410688489675522,0.00972049031406641,0.009735280647873878,0.008413154631853104,0.005955026485025883,0.00271719298325479,0.001449784263968468,0.003183913882821798,0.004475049674510956,0.005171952303498983,0.00517982104793191,0.004476361908018589,0.003168473253026605,0.001445728703401983,0.0004579737433232367,0.001005769590847194,0.001413627760484815,0.001633772975765169,0.001636258675716817,0.00141404231544584,0.001000892021693289,0.0004566926218103617,4.311829252401367e-05,9.469335054745898e-05,0.0001330932427663356,0.0001538199576316401,0.0001540539815323427,0.0001331322710029781,9.423412848263979e-05,4.299767533666454e-05
15;c7a14376ff2627413a7afdb816ee5572;-0.7782172560691833,-0.555869460105896,-0.3335216641426086,-0.1111738905310631,0.1111738905310631,0.3335216641426086,0.555869460105896,0.7782172560691833,-0.7779912948608398,-0.555708110332489,-0.333424836397171,-0.1111416146159172,0.1111416146159172,0.333424836397171,0.555708110332489,0.7779912948608398,-0.778025209903717,-0.5557323098182678,-0.3334393799304962,-0.1111464574933052,0.1111464574933052,0.3334393799304962,0.5557323098182678,0.778025209903717,-0.7776828408241272,-0.5554877519607544,-0.3332926630973816,-0.111097551882267,0.111097551882267,0.3332926630973816,0.5554877519607544,0.7776828408241272,-0.7780121564865112,-0.5557229518890381,-0.3334337770938873,-0.111144594848156,0.111144594848156,0.3334337770938873,0.5557229518890381,0.7780121564865112,-0.7780899405479431,-0.5557785034179688,-0.3334671258926392,-0.111155703663826,0.111155703663826,0.3334671258926392,0.5557785034179688,0.7780899405479431,-0.7779638171195984,-0.5556884407997131,-0.3334130644798279,-0.1111376881599426,0.1111376881599426,0.3334130644798279,0.5556884407997131,0.7779638171195984,-0.7782845497131348,-0.555917501449585,-0.3335505127906799,-0.1111835092306137,0.1111835092306137,0.3335505127906799,0.555917501449585,0.7782845497131348;-0.01792457699775696,-0.08831188827753067,-0.1861192435026169,-0.2847211360931396,-0.3673756718635559,-0.4299741089344025,-0.4709409177303314,-0.4933153688907623,-0.01280326955020428,-0.06307991594076157,-0.1329423189163208,-0.2033722400665283,-0.2624112069606781,-0.3071243464946747,-0.3363863825798035,-0.3523681163787842,-0.007681962102651596,-0.03784795105457306,-0.07976538687944412,-0.1220233365893364,-0.1574467122554779,-0.1842746138572693,-0.2018318176269531,-0.2114208787679672,-0.002560653956606984,-0.01261598337441683,-0.02658846229314804,-0.04067444801330566,-0.0524822399020195,-0.061424870043993,-0.06727727502584457,-0.07047362625598907,0.002560653956606984,0.01261598337441683,0.02658846229314804,0.04067444801330566,0.0524822399020195,0.061424870043993,0.06727727502584457,0.07047362625598907,0.007681962102651596,0.03784795105457306,0.07976538687944412,0.1220233365893364,0.1574467122554779,0.1842746138572693,0.2018318176269531,0.2114208787679672,0.01280326955020428,0.06307991594076157,0.1329423189163208,0.2033722400665283,0.2624112069606781,0.3071243464946747,0.3363863825798035,0.3523681163787842,0.01792457699775696,0.08831188827753067,0.1861192435026169,0.2847211360931396,0.3673756718635559,0.4299741089344025,0.4709409177303314,0.4933153688907623;0.0001550068991491571,0.001677706837654114,0.004987858235836029,0.008821591734886169,0.01138249970972538,0.01152298878878355,0.008946709334850311,0.004266058094799519,0.0003404236631467938,0.003684552619233727,0.01095425430685282,0.01937383785843849,0.02499806322157383,0.02530660293996334,0.01964861899614334,0.009369048289954662,0.000480246904771775,0.005197920370846987,0.01545352954417467,0.02733131498098373,0.03526559472084045,0.03570086136460304,0.02771895751357079,0.01321722567081451,0.0005549807101488113,0.006006796378642321,0.01785833574831486,0.0315844863653183,0.04075346514582634,0.04125646129250526,0.03203245252370834,0.01527402829378843,0.000555215694475919,0.006009339820593596,0.01786589622497559,0.03159786015748978,0.04077072069048882,0.04127392917871475,0.03204601630568504,0.01528049632906914,0.0004802868643309921,0.005198352970182896,0.01545481383800507,0.0273335874080658,0.03526853024959564,0.03570383042097092,0.02772126533091068,0.01321832556277514,0.0003404116432648152,0.003684422466903925,0.01095386780798435,0.01937315240502357,0.02499718219041824,0.02530570887029171,0.01964792422950268,0.009368716739118099,0.0001550203160149977,0.00167785189114511,0.004988289438188076,0.00882235448807478,0.01138348411768675,0.01152398530393839,0.008947483263909817,0.004266426898539066
16;a17c9d2e4ea7cce7a03918940cb72d87;-0.1230725795030594,-0.08790898323059082,-0.05274539068341255,-0.01758179627358913,0.01758179627358913,0.05274539068341255,0.08790898323059082,0.1230725795030594,-0.1128684356808662,-0.08062031120061874,-0.04837218672037125,-0.01612406224012375,0.01612406224012375,0.04837218672037125,0.08062031120061874,0.1128684356808662,-0.09714800864458084,-0.06939143687486649,-0.04163486137986183,-0.01387828774750233,0.01387828774750233,0.04163486137986183,0.06939143687486649,0.09714800864458084,-0.07827683538198471,-0.05591202527284622,-0.03354721516370773,-0.01118240505456924,0.01118240505456924,0.03354721516370773,0.05591202527284622,0.07827683538198471,-0.0550500825047493,-0.03932148963212967,-0.02359289303421974,-0.007864297367632389,0.007864297367632389,0.02359289303421974,0.03932148963212967,0.0550500825047493,-0.03332574293017387,-0.02380410395562649,-0.01428246218711138,-0.004760820418596268,0.004760820418596268,0.01428246218711138,0.02380410395562649,0.03332574293017387,-0.01520915701985359,-0.01086368411779404,-0.006518210284411907,-0.002172736683860421,0.002172736683860421,0.006518210284411907,0.01086368411779404,0.01520915701985359,-0.003871051128953695,-0.002765036420896649,-0.001659021829254925,-0.0005530072958208621,0.0005530072958208621,0.001659021829254925,0.002765036420896649,0.003871051128953695;-0.399147629737854,-0.3983722031116486,-0.3990772664546967,-0.4008979499340057,-0.4008506238460541,-0.4017686545848846,-0.4037542343139648,-0.4048206508159637,-0.285105437040329,-0.2845515608787537,-0.2850551903247833,-0.2863556742668152,-0.2863218784332275,-0.286977618932724,-0.288395881652832,-0.2891576290130615,-0.1710632741451263,-0.1707309484481812,-0.17103311419487,-0.1718134135007858,-0.1717931181192398,-0.1721865683794022,-0.1730375289916992,-0.1734945625066757,-0.05702108889818192,-0.05691031366586685,-0.05701103806495667,-0.05727113783359528,-0.05726437643170357,-0.05739552155137062,-0.05767917633056641,-0.05783152207732201,0.05702108889818192,0.05691031366586685,0.05701103806495667,0.05727113783359528,0.05726437643170357,0.05739552155137062,0.05767917633056641,0.05783152207732201,0.1710632741451263,0.1707309484481812,0.17103311419487,0.1718134135007858,0.1717931181192398,0.1721865683794022,0.1730375289916992,0.1734945625066757,0.285105437040329,0.2845515608787537,0.2850551903247833,0.2863556742668152,0.2863218784332275,0.286977618932724,0.288395881652832,0.2891576290130615,0.399147629737854,0.3983722031116486,0.3990772664546967,0.4008979499340057,0.4008506238460541,0.4017686545848846,0.4037542343139648,0.4048206508159637;0.0005458786035887897,0.001196868368424475,0.001691376324743032,0.001964362105354667,0.001964130206033587,0.001702783047221601,0.001213038107380271,0.0005536371027119458,0.001099770655855536,0.002411306137219071,0.003407581709325314,0.003957560751587152,0.003957093227654696,0.003430562559515238,0.00244388310238719,0.001115401508286595,0.00133533263579011,0.002927788766101003,0.004137458279728889,0.004805237986147404,0.004804670810699463,0.004165361635386944,0.002967343432828784,0.001354311476461589,0.001243922277353704,0.002727366518229246,0.003854228183627129,0.004476295318454504,0.00447576679289341,0.003880221163854003,0.002764213364571333,0.001261601923033595,0.0008748184773139656,0.001918086665682495,0.002710579195991158,0.003148063085973263,0.003147691255435348,0.002728859661146998,0.001944000134244561,0.0008872520993463695,0.000458073744084686,0.001004351419396698,0.001419317559339106,0.00164839334320277,0.001648198696784675,0.001428889576345682,0.001017920323647559,0.0004645842709578574,0.0001481954095652327,0.0003249264264013618,0.0004591757315210998,0.0005332860164344311,0.0005332230939529836,0.0004622724372893572,0.0003293161862529814,0.0001503016974311322,1.716973929433152e-05,3.764557914109901e-05,5.319953561411239e-05,6.17858677287586e-05,6.177856994327158e-05,5.355832036002539e-05,3.815417221630923e-05,1.741377127473243e-05
17;d867dcf7063faaeb15b41bc2985ce00b;-0.9602898359298706,-0.685921311378479,-0.4115527868270874,-0.1371842622756958,0.1371842622756958,0.4115527868270874,0.685921311378479,0.9602898359298706,-0.9602898359298706,-0.685921311378479,-0.4115527868270874,-0.1371842622756958,0.1371842622756958,0.4115527868270874,0.685921311378479,0.9602898359298706,-0.9602898359298706,-0.685921311378479,-0.4115527868270874,-0.1371842622756958,0.1371842622756958,0.4115527868270874,0.685921311378479,0.9602898359298706,-0.9602898359298706,-0.685921311378479,-0.4115527868270874,-0.1371842622756958,0.1371842622756958,0.4115527868270874,0.685921311378479,0.9602898359298706,-0.9602898359298706,-0.685921311378479,-0.4115527868270874,-0.1371842622756958,0.1371842622756958,0.4115527868270874,0.685921311378479,0.9602898359298706,-0.9602898359298706,-0.685921311378479,-0.4115527868270874,-0.1371842622756958,0.1371842622756958,0.4115527868270874,0.685921311378479,0.9602898359298706,-0.9602898359298706,-0.685921311378479,-0.4115527868270874,-0.1371842622756958,0.1371842622756958,0.4115527868270874,0.685921311378479,0.9602898359298706,-0.9602898359298706,-0.685921311378479,-0.4115527868270874,-0.1371842622756958,0.1371842622756958,0.4115527868270874,0.685921311378479,0.9602898359298706;-0.3978211879730225,-0.3944368362426758,-0.3904286026954651,-0.3840919435024261,-0.3780984878540039,-0.371883749961853,-0.3670834898948669,-0.3629292547702789,-0.2841579914093018,-0.2817406058311462,-0.2788775861263275,-0.2743513882160187,-0.270070344209671,-0.2656312584877014,-0.2622024714946747,-0.2592351734638214,-0.1704947948455811,-0.1690443605184555,-0.1673265397548676,-0.1646108329296112,-0.1620422005653381,-0.1593787521123886,-0.157321497797966,-0.1555411070585251,-0.05683159828186035,-0.05634812265634537,-0.05577551573514938,-0.05487027391791344,-0.05401406809687614,-0.0531262494623661,-0.05244049802422523,-0.05184703692793846,0.05683159828186035,0.05634812265634537,0.05577551573514938,0.05487027391791344,0.05401406809687614,0.0531262494623661,0.05244049802422523,0.05184703692793846,0.1704947948455811,0.1690443605184555,0.1673265397548676,0.1646108329296112,0.1620422005653381,0.1593787521123886,0.157321497797966,0.1555411070585251,0.2841579914093018,0.2817406058311462,0.2788775861263275,0.2743513882160187,0.270070344209671,0.2656312584877014,0.2622024714946747,0.2592351734638214,0.3978211879730225,0.3944368362426758,0.3904286026954651,0.3840919435024261,0.3780984878540039,0.371883749961853,0.3670834898948669,0.3629292547702789;0.004245135001838207,0.009246467612683773,0.01291118003427982,0.01468466129153967,0.01445551868528128,0.01229791529476643,0.008605244569480419,0.003872804343700409,0.009325804188847542,0.02031284011900425,0.02836356125771999,0.03225958347320557,0.0317561961710453,0.02701632864773273,0.0189041867852211,0.008507859893143177,0.01315564755350351,0.02865474857389927,0.04001167044043541,0.04550767689943314,0.04479756578803062,0.03811116889119148,0.02666760236024857,0.01200179755687714,0.0152095602825284,0.03312844410538673,0.04625845327973366,0.05261252075433731,0.05179154500365257,0.04406123608350754,0.03083105571568012,0.0138755664229393,0.0152095602825284,0.03312844410538673,0.04625845327973366,0.05261252075433731,0.05179154500365257,0.04406123608350754,0.03083105571568012,0.0138755664229393,0.01315564755350351,0.02865474857389927,0.04001167044043541,0.04550767689943314,0.04479756578803062,0.03811116889119148,0.02666760236024857,0.01200179755687714,0.009325804188847542,0.02031284011900425,0.02836356125771999,0.03225958347320557,0.0317561961710453,0.02701632864773273,0.0189041867852211,0.008507859893143177,0.004245135001838207,0.009246467612683773,0.01291118003427982,0.01468466129153967,0.01445551868528128,0.01229791529476643,0.008605244569480419,0.003872804343700409
18;0a96c8d6dc0ed2d3d4032f3df7e72eef;-0.9602898359298706,-0.685921311378479,-0.4115527868270874,-0.1371842622756958,0.1371842622756958,0.4115527868270874,0.685921311378479,0.9602898359298706,-0.9602898359298706,-0.685921311378479,-0.4115527868270874,-0.1371842622756958,0.1371842622756958,0.4115527868270874,0.685921311378479,0.9602898359298706,-0.9602898359298706,-0.685921311378479,-0.4115527868270874,-0.1371842622756958,0.1371842622756958,0.4115527868270874,0.685921311378479,0.9602898359298706,-0.9602898359298706,-0.685921311378479,-0.4115527868270874,-0.1371842622756958,0.1371842622756958,0.4115527868270874,0.685921311378479,0.9602898359298706,-0.9602898359298706,-0.685921311378479,-0.4115527868270874,-0.1371842622756958,0.1371842622756958,0.4115527868270874,0.685921311378479,0.9602898359298706,-0.9602898359298706,-0.685921311378479,-0.4115527868270874,-0.1371842622756958,0.1371842622756958,0.4115527868270874,0.685921311378479,0.9602898359298706,-0.9602898359298706,-0.685921311378479,-0.4115527868270874,-0.1371842622756958,0.1371842622756958,0.4115527868270874,0.685921311378479,0.9602898359298706,-0.9602898359298706,-0.685921311378479,-0.4115527868270874,-0.1371842622756958,0.1371842622756958,0.4115527868270874,0.685921311378479,0.9602898359298706;-0.5653064250946045,-0.5678781867027283,-0.5714864134788513,-0.5770038962364197,-0.5819371938705444,-0.5875293016433716,-0.5923752188682556,-0.5949145555496216,-0.403790295124054,-0.4056272804737091,-0.408204585313797,-0.4121456146240234,-0.4156694114208221,-0.4196637868881226,-0.4231251776218414,-0.4249389469623566,-0.2422741800546646,-0.2433763593435287,-0.2449227571487427,-0.2472873777151108,-0.2494016587734222,-0.2517982721328735,-0.2538751065731049,-0.2549633681774139,-0.08075805753469467,-0.08112545311450958,-0.08164092153310776,-0.08242912590503693,-0.08313388377428055,-0.08393275737762451,-0.08462503552436829,-0.08498778939247131,0.08075805753469467,0.08112545311450958,0.08164092153310776,0.08242912590503693,0.08313388377428055,0.08393275737762451,0.08462503552436829,0.08498778939247131,0.2422741800546646,0.2433763593435287,0.2449227571487427,0.2472873777151108,0.2494016587734222,0.2517982721328735,0.2538751065731049,0.2549633681774139,0.403790295124054,0.4056272804737091,0.408204585313797,0.4121456146240234,0.4156694114208221,0.4196637868881226,0.4231251776218414,0.4249389469623566,0.5653064250946045,0.5678781867027283,0.5714864134788513,0.5770038962364197,0.5819371938705444,0.5875293016433716,0.5923752188682556,0.5949145555496216;0.006032363511621952,0.01331231370568275,0.01889862678945065,0.0220600999891758,0.02224871143698692,0.0194291528314352,0.01388657931238413,0.006348310504108667,0.01325202640146017,0.02924477867782116,0.04151691496372223,0.04846210405230522,0.04887645319104195,0.04268238320946693,0.03050633706152439,0.01394610572606325,0.01869425736367702,0.04125478491187096,0.05856673419475555,0.06836412101984024,0.06894862651824951,0.06021082773804665,0.04303442686796188,0.01967337541282177,0.02161288075149059,0.04769564419984818,0.06771040707826614,0.07903740555047989,0.07971316576004028,0.06961118429899216,0.04975313320755959,0.02274486236274242,0.02161288075149059,0.04769564419984818,0.06771040707826614,0.07903740555047989,0.07971316576004028,0.06961118429899216,0.04975313320755959,0.02274486236274242,0.01869425736367702,0.04125478491187096,0.05856673419475555,0.06836412101984024,0.06894862651824951,0.06021082773804665,0.04303442686796188,0.01967337541282177,0.01325202640146017,0.02924477867782116,0.04151691496372223,0.04846210405230522,0.04887645319104195,0.04268238320946693,0.03050633706152439,0.01394610572606325,0.006032363511621952,0.01331231370568275,0.01889862678945065,0.0220600999891758,0.02224871143698692,0.0194291528314352,0.01388657931238413,0.006348310504108667
19;1917fa1202fd8f18b45641f183544c2f;-0.007672659121453762,-0.005480471067130566,-0.003288282547146082,-0.00109609414357692,0.00109609414357692,0.003288282547146082,0.005480471067130566,0.007672659121453762,-0.03155066817998886,-0.02253619208931923,-0.0135217159986496,-0.004507238510996103,0.004507238510996103,0.0135217159986496,0.02253619208931923,0.03155066817998886,-0.07264197617769241,-0.05188712477684021,-0.03113227523863316,-0.01037742476910353,0.01037742476910353,0.03113227523863316,0.05188712477684021,0.07264197617769241,-0.119797982275486,-0.08556999266147614,-0.05134199187159538,-0.01711399853229523,0.01711399853229523,0.05134199187159538,0.08556999266147614,0.119797982275486,-0.1652504205703735,-0.1180360168218613,-0.0708216056227684,-0.02360720187425613,0.02360720187425613,0.0708216056227684,0.1180360168218613,0.1652504205703735,-0.2055919021368027,-0.1468513607978821,-0.08811081945896149,-0.02937027253210545,0.02937027253210545,0.08811081945896149,0.1468513607978821,0.2055919021368027,-0.235624298453331,-0.1683030724525452,-0.1009818464517593,-0.03366061300039291,0.03366061300039291,0.1009818464517593,0.1683030724525452,0.235624298453331,-0.2506271004676819,-0.1790193617343903,-0.107411615550518,-0.03580386936664581,0.03580386936664581,0.107411615550518,0.1790193617343903,0.2506271004676819;-0.2695559561252594,-0.2695035338401794,-0.2711496651172638,-0.2699463963508606,-0.2707053124904633,-0.2715234756469727,-0.2709877192974091,-0.2715452015399933,-0.1925399750471115,-0.1925025284290314,-0.1936783343553543,-0.1928188651800156,-0.1933609396219254,-0.1939453482627869,-0.1935626715421677,-0.1939608603715897,-0.1155239790678024,-0.1155015155673027,-0.1162069961428642,-0.1156913191080093,-0.1160165667533875,-0.1163672059774399,-0.1161376014351845,-0.1163765117526054,-0.03850799426436424,-0.03850050270557404,-0.03873566538095474,-0.03856377303600311,-0.03867219015955925,-0.03878906741738319,-0.03871253505349159,-0.03879217058420181,0.03850799426436424,0.03850050270557404,0.03873566538095474,0.03856377303600311,0.03867219015955925,0.03878906741738319,0.03871253505349159,0.03879217058420181,0.1155239790678024,0.1155015155673027,0.1162069961428642,0.1156913191080093,0.1160165667533875,0.1163672059774399,0.1161376014351845,0.1163765117526054,0.1925399750471115,0.1925025284290314,0.1936783343553543,0.1928188651800156,0.1933609396219254,0.1939453482627869,0.1935626715421677,0.1939608603715897,0.2695559561252594,0.2695035338401794,0.2711496651172638,0.2699463963508606,0.2707053124904633,0.2715234756469727,0.2709877192974091,0.2715452015399933;2.298243816767354e-05,5.047849845141172e-05,7.164352427935228e-05,8.246124343713745e-05,8.269306999864057e-05,7.174229540396482e-05,5.075649096397683e-05,2.315204073966015e-05,0.0002076125383609906,0.000455998961115256,0.0006471939268521965,0.000744916032999754,0.0007470103446394205,0.000648086192086339,0.0004585102724377066,0.0002091446513077244,0.0006743083940818906,0.001481047132983804,0.002102032536640763,0.002419425873085856,0.002426228020340204,0.002104930579662323,0.001489203656092286,0.0006792846252210438,0.001285656238906085,0.002823807997629046,0.004007797222584486,0.004612949211150408,0.004625917878001928,0.004013322293758392,0.002839359221979976,0.001295143971219659,0.001773445750586689,0.003895186353474855,0.00552839133888483,0.006363143678754568,0.00638103298842907,0.005536013282835484,0.003916637971997261,0.001786533277481794,0.001908433041535318,0.004191671963781118,0.00594918942078948,0.006847478915005922,0.006866729818284512,0.005957391113042831,0.004214755725115538,0.001922516617923975,0.001550475950352848,0.003405456664040685,0.004833324812352657,0.005563125479966402,0.00557876517996192,0.004839987959712744,0.003424211172387004,0.001561918063089252,0.000750720442738384,0.001648877980187535,0.002340232720598578,0.00269359303638339,0.002701165620237589,0.00234345905482769,0.00165795860812068,0.000756260531488806
20;8975ef7df607253689476eae7028baf9;-0.05193127319216728,-0.03709376603364944,-0.02225626073777676,-0.007418753579258919,0.007418753579258919,0.02225626073777676,0.03709376603364944,0.05193127319216728,-0.1946406662464142,-0.1390290409326553,-0.08341743052005768,-0.02780580893158913,0.02780580893158913,0.08341743052005768,0.1390290409326553,0.1946406662464142,-0.3612748682498932,-0.2580534815788269,-0.1548320949077606,-0.05161069706082344,0.05161069706082344,0.1548320949077606,0.2580534815788269,0.3612748682498932,-0.4978411793708801,-0.3556008338928223,-0.2133605033159256,-0.07112016528844833,0.07112016528844833,0.2133605033159256,0.3556008338928223,0.4978411793708801,-0.596152663230896,-0.425823301076889,-0.2554939985275269,-0.08516466617584229,0.08516466617584229,0.2554939985275269,0.425823301076889,0.596152663230896,-0.6606499552726746,-0.4718928337097168,-0.2831356823444366,-0.09437856823205948,0.09437856823205948,0.2831356823444366,0.4718928337097168,0.6606499552726746,-0.7000546455383301,-0.5000390410423279,-0.3000234067440033,-0.1000078022480011,0.1000078022480011,0.3000234067440033,0.5000390410423279,0.7000546455383301,-0.7247493267059326,-0.5176780819892883,-0.3106068670749664,-0.1035356223583221,0.1035356223583221,0.3106068670749664,0.5176780819892883,0.7247493267059326;-0.7444576025009155,-0.7450582981109619,-0.7462286353111267,-0.7466658353805542,-0.7474873065948486,-0.7469662427902222,-0.7452029585838318,-0.7448515295982361,-0.5317554473876953,-0.5321845412254333,-0.5330204963684082,-0.5333327651023865,-0.5339195132255554,-0.5335472822189331,-0.5322878360748291,-0.5320367813110352,-0.3190532624721527,-0.31931072473526,-0.3198122978210449,-0.319999635219574,-0.3203517198562622,-0.3201283812522888,-0.3193727135658264,-0.319222092628479,-0.1063510850071907,-0.1064369007945061,-0.106604091823101,-0.1066665500402451,-0.1067839041352272,-0.1067094579339027,-0.1064575687050819,-0.1064073592424393,0.1063510850071907,0.1064369007945061,0.106604091823101,0.1066665500402451,0.1067839041352272,0.1067094579339027,0.1064575687050819,0.1064073592424393,0.3190532624721527,0.31931072473526,0.3198122978210449,0.319999635219574,0.3203517198562622,0.3201283812522888,0.3193727135658264,0.319222092628479,0.5317554473876953,0.5321845412254333,0.5330204963684082,0.5333327651023865,0.5339195132255554,0.5335472822189331,0.5322878360748291,0.5320367813110352,0.7444576025009155,0.7450582981109619,0.7462286353111267,0.7466658353805542,0.7474873065948486,0.7469662427902222,0.7452029585838318,0.7448515295982361;0.0004296058614272624,0.0009445290197618306,0.001334513304755092,0.001543766702525318,0.001545465202070773,0.001335832290351391,0.0009447123156860471,0.00042983319144696,0.00353728118352592,0.007777046412229538,0.0109880929812789,0.01271103974431753,0.01272502448409796,0.01099895313382149,0.00777855608612299,0.003539153141900897,0.009261892177164555,0.02036314457654953,0.02877083234488964,0.03328213840723038,0.03331875428557396,0.0287992712110281,0.0203670971095562,0.009266792796552181,0.01475561037659645,0.03244160115718842,0.04583633318543434,0.05302353575825691,0.05308187380433083,0.04588163644075394,0.03244790062308311,0.01476341858506203,0.01766948401927948,0.03884802758693695,0.05488789454102516,0.06349439173936844,0.0635642483830452,0.05494214221835136,0.03885556757450104,0.01767883263528347,0.01693687774240971,0.03723732382059097,0.05261215195059776,0.06086180731654167,0.06092876940965652,0.05266415700316429,0.03724455460906029,0.01694584079086781,0.01272236742079258,0.02797132544219494,0.03952033817768097,0.04571717977523804,0.04576747864484787,0.03955940157175064,0.0279767569154501,0.0127290990203619,0.005995550658553839,0.01318178325891495,0.01862437464296818,0.02154470421373844,0.02156840823590755,0.01864278502762318,0.01318434160202742,0.005998722743242979
21;96ddb7ad56e07aa198b48366f12c121a;-0.9602898359298706,-0.685921311378479,-0.4115527868270874,-0.1371842622756958,0.1371842622756958,0.4115527868270874,0.685921311378479,0.9602898359298706,-0.9602898359298706,-0.685921311378479,-0.4115527868270874,-0.1371842622756958,0.1371842622756958,0.4115527868270874,0.685921311378479,0.9602898359298706,-0.9602898359298706,-0.685921311378479,-0.4115527868270874,-0.1371842622756958,0.1371842622756958,0.4115527868270874,0.685921311378479,0.9602898359298706,-0.9602898359298706,-0.685921311378479,-0.4115527868270874,-0.1371842622756958,0.1371842622756958,0.4115527868270874,0.685921311378479,0.9602898359298706,-0.9602898359298706,-0.685921311378479,-0.4115527868270874,-0.1371842622756958,0.1371842622756958,0.4115527868270874,0.685921311378479,0.9602898359298706,-0.9602898359298706,-0.685921311378479,-0.4115527868270874,-0.1371842622756958,0.1371842622756958,0.4115527868270874,0.685921311378479,0.9602898359298706,-0.9602898359298706,-0.685921311378479,-0.4115527868270874,-0.1371842622756958,0.1371842622756958,0.4115527868270874,0.685921311378479,0.9602898359298706,-0.9602898359298706,-0.685921311378479,-0.4115527868270874,-0.1371842622756958,0.1371842622756958,0.4115527868270874,0.685921311378479,0.9602898359298706;-0.7728974223136902,-0.7263265252113342,-0.6536425948143005,-0.5669124722480774,-0.4787402153015137,-0.4014618396759033,-0.3435955345630646,-0.3094200789928436,-0.5520696043968201,-0.518804669380188,-0.4668875932693481,-0.4049374759197235,-0.341957300901413,-0.2867584526538849,-0.2454253882169724,-0.2210143357515335,-0.3312417566776276,-0.3112828135490417,-0.2801325619220734,-0.2429624795913696,-0.2051743865013123,-0.1720550656318665,-0.1472552269697189,-0.1326086074113846,-0.1104139238595963,-0.1037609353661537,-0.09337751567363739,-0.08098749071359634,-0.06839145720005035,-0.05735168978571892,-0.04908507689833641,-0.04420286789536476,0.1104139238595963,0.1037609353661537,0.09337751567363739,0.08098749071359634,0.06839145720005035,0.05735168978571892,0.04908507689833641,0.04420286789536476,0.3312417566776276,0.3112828135490417,0.2801325619220734,0.2429624795913696,0.2051743865013123,0.1720550656318665,0.1472552269697189,0.1326086074113846,0.5520696043968201,0.518804669380188,0.4668875932693481,0.4049374759197235,0.341957300901413,0.2867584526538849,0.2454253882169724,0.2210143357515335,0.7728974223136902,0.7263265252113342,0.6536425948143005,0.5669124722480774,0.4787402153015137,0.4014618396759033,0.3435955345630646,0.3094200789928436;0.008247558958828449,0.01702669262886047,0.02161546982824802,0.02167428284883499,0.01830326952040195,0.01327604055404663,0.008054635487496853,0.003301809774711728,0.01811841689050198,0.03740460425615311,0.04748533293604851,0.04761453717947006,0.04020901769399643,0.02916509471833706,0.01769459806382656,0.007253487128764391,0.02555913664400578,0.0527656190097332,0.06698621064424515,0.0671684741973877,0.05672172084450722,0.04114237427711487,0.02496126852929592,0.01023228839039803,0.02954953163862228,0.06100359931588173,0.07744436711072922,0.07765509188175201,0.06557735055685043,0.04756568372249603,0.02885832265019417,0.0118297953158617,0.02954953163862228,0.06100359931588173,0.07744436711072922,0.07765509188175201,0.06557735055685043,0.04756568372249603,0.02885832265019417,0.0118297953158617,0.02555913664400578,0.0527656190097332,0.06698621064424515,0.0671684741973877,0.05672172084450722,0.04114237427711487,0.02496126852929592,0.01023228839039803,0.01811841689050198,0.03740460425615311,0.04748533293604851,0.04761453717947006,0.04020901769399643,0.02916509471833706,0.01769459806382656,0.007253487128764391,0.008247558958828449,0.01702669262886047,0.02161546982824802,0.02167428284883499,0.01830326952040195,0.01327604055404663,0.008054635487496853,0.003301809774711728
22;1ebda8d24d83ec4312619f4fe54d034f;-0.9602898359298706,-0.685921311378479,-0.4115527868270874,-0.1371842622756958,0.1371842622756958,0.4115527868270874,0.685921311378479,0.9602898359298706,-0.9602898359298706,-0.685921311378479,-0.4115527868270874,-0.1371842622756958,0.1371842622756958,0.4115527868270874,0.685921311378479,0.9602898359298706,-0.9602898359298706,-0.685921311378479,-0.4115527868270874,-0.1371842622756958,0.1371842622756958,0.4115527868270874,0.685921311378479,0.9602898359298706,-0.9602898359298706,-0.685921311378479,-0.4115527868270874,-0.1371842622756958,0.1371842622756958,0.4115527868270874,0.685921311378479,0.9602898359298706,-0.9602898359298706,-0.685921311378479,-0.4115527868270874,-0.1371842622756958,0.1371842622756958,0.4115527868270874,0.685921311378479,0.9602898359298706,-0.9602898359298706,-0.685921311378479,-0.4115527868270874,-0.1371842622756958,0.1371842622756958,0.4115527868270874,0.685921311378479,0.9602898359298706,-0.9602898359298706,-0.685921311378479,-0.4115527868270874,-0.1371842622756958,0.1371842622756958,0.4115527868270874,0.685921311378479,0.9602898359298706,-0.9602898359298706,-0.685921311378479,-0.4115527868270874,-0.1371842622756958,0.1371842622756958,0.4115527868270874,0.685921311378479,0.9602898359298706;-0.1886682361364365,-0.2341534197330475,-0.3069905638694763,-0.3942632079124451,-0.4802612364292145,-0.5572507977485657,-0.6143176555633545,-0.6481626629829407,-0.1347630321979523,-0.1672524362802505,-0.2192789614200592,-0.281616598367691,-0.3430437445640564,-0.3980362713336945,-0.4387983381748199,-0.4629733562469482,-0.08085781335830688,-0.1003514677286148,-0.1315673738718033,-0.1689699441194534,-0.2058262377977371,-0.2388217598199844,-0.263278990983963,-0.2777840197086334,-0.02695260569453239,-0.03345048800110817,-0.04385579377412796,-0.05632331594824791,-0.06860874593257904,-0.07960725575685501,-0.08775966614484787,-0.09259466826915741,0.02695260569453239,0.03345048800110817,0.04385579377412796,0.05632331594824791,0.06860874593257904,0.07960725575685501,0.08775966614484787,0.09259466826915741,0.08085781335830688,0.1003514677286148,0.1315673738718033,0.1689699441194534,0.2058262377977371,0.2388217598199844,0.263278990983963,0.2777840197086334,0.1347630321979523,0.1672524362802505,0.2192789614200592,0.281616598367691,0.3430437445640564,0.3980362713336945,0.4387983381748199,0.4629733562469482,0.1886682361364365,0.2341534197330475,0.3069905638694763,0.3942632079124451,0.4802612364292145,0.5572507977485657,0.6143176555633545,0.6481626629829407;0.002013271674513817,0.005489071365445852,0.01015194691717625,0.01507353130728006,0.0183614194393158,0.01842786371707916,0.01440095808357,0.006916519720107317,0.004422798752784729,0.01205851044505835,0.02230201661586761,0.03311385959386826,0.04033676534891129,0.04048273339867592,0.03163633495569229,0.0151943601667881,0.006239116657525301,0.01701059937477112,0.03146082162857056,0.04671278223395348,0.05690193176269531,0.0571078434586525,0.04462848603725433,0.02143425121903419,0.007213192526251078,0.01966636255383492,0.03637261316180229,0.05400577560067177,0.06578569114208221,0.06602375209331512,0.05159606039524078,0.02478065341711044,0.007213192526251078,0.01966636255383492,0.03637261316180229,0.05400577560067177,0.06578569114208221,0.06602375209331512,0.05159606039524078,0.02478065341711044,0.006239116657525301,0.01701059937477112,0.03146082162857056,0.04671278223395348,0.05690193176269531,0.0571078434586525,0.04462848603725433,0.02143425121903419,0.004422798752784729,0.01205851044505835,0.02230201661586761,0.03311385959386826,0.04033676534891129,0.04048273339867592,0.03163633495569229,0.0151943601667881,0.002013271674513817,0.005489071365445852,0.01015194691717625,0.01507353130728006,0.0183614194393158,0.01842786371707916,0.01440095808357,0.006916519720107317
23;9e71237cdf2f4382f6a710dd85355af3;-0.003210954600945115,-0.002293539000675082,-0.001376123400405049,-0.0004587078001350164,0.0004587078001350164,0.001376123400405049,0.002293539000675082,0.003210954600945115,-0.015476337634027,-0.01105452701449394,-0.006632715929299593,-0.002210905309766531,0.002210905309766531,0.006632715929299593,0.01105452701449394,0.015476337634027,-0.03455410897731781,-0.02468150667846203,-0.01480890344828367,-0.004936301149427891,0.004936301149427891,0.01480890344828367,0.02468150667846203,0.03455410897731781,-0.05735829472541809,-0.04097020998597145,-0.02458212710916996,-0.00819404236972332,0.00819404236972332,0.02458212710916996,0.04097020998597145,0.05735829472541809,-0.0825018510222435,-0.05892989039421082,-0.03535793349146843,-0.01178597845137119,0.01178597845137119,0.03535793349146843,0.05892989039421082,0.0825018510222435,-0.1042036414146423,-0.0744311735033989,-0.04465870559215546,-0.01488623488694429,0.01488623488694429,0.04465870559215546,0.0744311735033989,0.1042036414146423,-0.1225686147809029,-0.08754900842905045,-0.05252940580248833,-0.01750980131328106,0.01750980131328106,0.05252940580248833,0.08754900842905045,0.1225686147809029,-0.1325894296169281,-0.09470672905445099,-0.05682403966784477,-0.01894134655594826,0.01894134655594826,0.05682403966784477,0.09470672905445099,0.1325894296169281;-0.2484020888805389,-0.2509922981262207,-0.2523743510246277,-0.252423495054245,-0.2524859309196472,-0.2538816034793854,-0.2556001543998718,-0.2565145492553711,-0.1774300634860992,-0.1792802214622498,-0.1802673786878586,-0.1803025007247925,-0.1803470849990845,-0.1813440024852753,-0.1825715303421021,-0.1832246780395508,-0.1064580380916595,-0.1075681298971176,-0.1081604287028313,-0.1081814989447594,-0.1082082539796829,-0.1088064014911652,-0.1095429137349129,-0.1099348068237305,-0.03548601269721985,-0.03585604205727577,-0.03605347499251366,-0.03606050089001656,-0.03606941550970078,-0.03626880049705505,-0.03651430457830429,-0.03664493560791016,0.03548601269721985,0.03585604205727577,0.03605347499251366,0.03606050089001656,0.03606941550970078,0.03626880049705505,0.03651430457830429,0.03664493560791016,0.1064580380916595,0.1075681298971176,0.1081604287028313,0.1081814989447594,0.1082082539796829,0.1088064014911652,0.1095429137349129,0.1099348068237305,0.1774300634860992,0.1792802214622498,0.1802673786878586,0.1803025007247925,0.1803470849990845,0.1813440024852753,0.1825715303421021,0.1832246780395508,0.2484020888805389,0.2509922981262207,0.2523743510246277,0.252423495054245,0.2524859309196472,0.2538816034793854,0.2556001543998718,0.2565145492553711;8.86320231074933e-06,1.967390744539443e-05,2.790624057524838e-05,3.226936314604245e-05,3.22773412335664e-05,2.807290729833767e-05,2.003508961934131e-05,9.152661732514389e-06,9.384680743096396e-05,0.0002083144645439461,0.0002954814117401838,0.0003416796971578151,0.0003417642146814615,0.0002972461516037583,0.0002121388097293675,9.691170271253213e-05,0.0002955812960863113,0.000656110409181565,0.0009306527208536863,0.001076159533113241,0.001076425542123616,0.0009362107957713306,0.0006681555532850325,0.0003052345127798617,0.000567254435736686,0.001259151147678494,0.001786029315553606,0.002065273933112621,0.002065784530714154,0.001796696218661964,0.001282267272472382,0.0005857801297679543,0.0008159157587215304,0.001811112044379115,0.002568952040746808,0.002970606088638306,0.002971340669319034,0.002584294881671667,0.001844361308030784,0.000842562410980463,0.0008913743658922613,0.001978609478101134,0.002806537318974733,0.003245337400585413,0.003246139967814088,0.002823299029842019,0.002014933852478862,0.0009204853558912873,0.0007432425627484918,0.001649797079153359,0.002340137027204037,0.002706015482544899,0.00270668463781476,0.002354113152250648,0.001680084737017751,0.0007675157976336777,0.0003659867797978222,0.0008123914012685418,0.001152327749878168,0.001332493498921394,0.001332822954282165,0.001159209990873933,0.0008273057173937559,0.0003779393446166068
24;f98c6489e96a73c08ba73e4e2c799a2f;-0.9602891206741333,-0.6859208345413208,-0.4115524888038635,-0.1371841579675674,0.1371841579675674,0.4115524888038635,0.6859208345413208,0.9602891206741333,-0.9602893590927124,-0.6859210133552551,-0.4115525782108307,-0.137184202671051,0.137184202671051,0.4115525782108307,0.6859210133552551,0.9602893590927124,-0.9602894186973572,-0.6859210133552551,-0.4115526080131531,-0.137184202671051,0.137184202671051,0.4115526080131531,0.6859210133552551,0.9602894186973572,-0.9602896571159363,-0.6859211921691895,-0.4115527272224426,-0.1371842324733734,0.1371842324733734,0.4115527272224426,0.6859211921691895,0.9602896571159363,-0.9602896571159363,-0.6859211921691895,-0.4115527272224426,-0.1371842324733734,0.1371842324733734,0.4115527272224426,0.6859211921691895,0.9602896571159363,-0.9602897167205811,-0.6859212517738342,-0.4115527272224426,-0.1371842473745346,0.1371842473745346,0.4115527272224426,0.6859212517738342,0.9602897167205811,-0.9602896571159363,-0.6859211921691895,-0.4115527272224426,-0.1371842324733734,0.1371842324733734,0.4115527272224426,0.6859211921691895,0.9602896571159363,-0.9602894186973572,-0.6859210133552551,-0.4115526080131531,-0.137184202671051,0.137184202671051,0.4115526080131531,0.6859210133552551,0.9602894186973572;-0.5046122074127197,-0.4823565781116486,-0.4441680610179901,-0.3872296810150146,-0.3140764236450195,-0.230526402592659,-0.1498129069805145,-0.08938739448785782,-0.3604373037815094,-0.3445404171943665,-0.3172628879547119,-0.2765926122665405,-0.2243402898311615,-0.1646617203950882,-0.1070092171430588,-0.06384813785552979,-0.2162623852491379,-0.2067242562770844,-0.1903577446937561,-0.1659555733203888,-0.1346041709184647,-0.0987970307469368,-0.06420552730560303,-0.03830888494849205,-0.07208745926618576,-0.06890808045864105,-0.0634525790810585,-0.05531852319836617,-0.04486805945634842,-0.0329323448240757,-0.02140184305608273,-0.01276962831616402,0.07208745926618576,0.06890808045864105,0.0634525790810585,0.05531852319836617,0.04486805945634842,0.0329323448240757,0.02140184305608273,0.01276962831616402,0.2162623852491379,0.2067242562770844,0.1903577446937561,0.1659555733203888,0.1346041709184647,0.0987970307469368,0.06420552730560303,0.03830888494849205,0.3604373037815094,0.3445404171943665,0.3172628879547119,0.2765926122665405,0.2243402898311615,0.1646617203950882,0.1070092171430588,0.06384813785552979,0.5046122074127197,0.4823565781116486,0.4441680610179901,0.3872296810150146,0.3140764236450195,0.230526402592659,0.1498129069805145,0.08938739448785782;0.005384694319218397,0.01130749192088842,0.01468829251825809,0.01480461284518242,0.0120078083127737,0.007623329292982817,0.003511941758915782,0.0009538488811813295,0.01182921510189772,0.02484054863452911,0.03226757049560547,0.03252310305833817,0.02637902088463306,0.01674710027873516,0.007715111132711172,0.002095436211675406,0.01668713800609112,0.03504185751080513,0.04551894962787628,0.04587941989302635,0.03721213713288307,0.02362466044723988,0.01088348962366581,0.00295597268268466,0.01929240673780441,0.04051274433732033,0.05262555927038193,0.05304231867194176,0.04302185773849487,0.02731304243206978,0.01258266624063253,0.003417471889406443,0.01929240673780441,0.04051274433732033,0.05262555927038193,0.05304231867194176,0.04302185773849487,0.02731304243206978,0.01258266624063253,0.003417471889406443,0.01668714359402657,0.03504187241196632,0.04551896080374718,0.04587943479418755,0.03721215203404427,0.02362466603517532,0.01088349334895611,0.002955973614007235,0.01182921789586544,0.02484055422246456,0.03226757794618607,0.03252311423420906,0.02637902833521366,0.01674710400402546,0.007715112995356321,0.002095436910167336,0.005384695250540972,0.01130749471485615,0.01468829717487097,0.01480461657047272,0.012007812038064,0.007623331621289253,0.003511942690238357,0.0009538491722196341
25;c911783c6f928ba623f2b30bcbf7db83;-0.9602898359298706,-0.685921311378479,-0.4115527868270874,-0.1371842622756958,0.1371842622756958,0.4115527868270874,0.685921311378479,0.9602898359298706,-0.9602898359298706,-0.685921311378479,-0.4115527868270874,-0.1371842622756958,0.1371842622756958,0.4115527868270874,0.685921311378479,0.9602898359298706,-0.9602898359298706,-0.685921311378479,-0.4115527868270874,-0.1371842622756958,0.1371842622756958,0.4115527868270874,0.685921311378479,0.9602898359298706,-0.9602898359298706,-0.685921311378479,-0.4115527868270874,-0.1371842622756958,0.1371842622756958,0.4115527868270874,0.685921311378479,0.9602898359298706,-0.9602898359298706,-0.685921311378479,-0.4115527868270874,-0.1371842622756958,0.1371842622756958,0.4115527868270874,0.685921311378479,0.9602898359298706,-0.9602898359298706,-0.685921311378479,-0.4115527868270874,-0.1371842622756958,0.1371842622756958,0.4115527868270874,0.685921311378479,0.9602898359298706,-0.9602898359298706,-0.685921311378479,-0.4115527868270874,-0.1371842622756958,0.1371842622756958,0.4115527868270874,0.685921311378479,0.9602898359298706,-0.9602898359298706,-0.685921311378479,-0.4115527868270874,-0.1371842622756958,0.1371842622756958,0.4115527868270874,0.685921311378479,0.9602898359298706;-0.4545059502124786,-0.4753650724887848,-0.513293445110321,-0.5704963803291321,-0.6465973258018494,-0.7335729002952576,-0.8197604417800903,-0.8800620436668396,-0.3246471285820007,-0.3395464718341827,-0.36663818359375,-0.4074974358081818,-0.4618552327156067,-0.5239806175231934,-0.585543155670166,-0.6286157369613647,-0.1947882622480392,-0.2037278860807419,-0.2199829071760178,-0.2444984614849091,-0.277113139629364,-0.3143883943557739,-0.3513258993625641,-0.3771694600582123,-0.06492942571640015,-0.06790930032730103,-0.07332763820886612,-0.08149948716163635,-0.09237104654312134,-0.1047961264848709,-0.1171086356043816,-0.1257231533527374,0.06492942571640015,0.06790930032730103,0.07332763820886612,0.08149948716163635,0.09237104654312134,0.1047961264848709,0.1171086356043816,0.1257231533527374,0.1947882622480392,0.2037278860807419,0.2199829071760178,0.2444984614849091,0.277113139629364,0.3143883943557739,0.3513258993625641,0.3771694600582123,0.3246471285820007,0.3395464718341827,0.36663818359375,0.4074974358081818,0.4618552327156067,0.5239806175231934,0.585543155670166,0.6286157369613647,0.4545059502124786,0.4753650724887848,0.513293445110321,0.5704963803291321,0.6465973258018494,0.7335729002952576,0.8197604417800903,0.8800620436668396;0.004850015975534916,0.01114360336214304,0.01697422936558723,0.02181130461394787,0.0247208084911108,0.02425870299339294,0.01921698823571205,0.009391108527779579,0.01065461989492178,0.02448050864040852,0.03728935495018959,0.04791554808616638,0.05430720746517181,0.05329204723238945,0.04221629723906517,0.02063059061765671,0.01503016985952854,0.03453396260738373,0.05260303616523743,0.06759310513734818,0.07660963386297226,0.07517758011817932,0.05955333635210991,0.0291029904037714,0.0173767413944006,0.03992554172873497,0.06081563234329224,0.07814601808786392,0.0885702446103096,0.08691460639238358,0.068851038813591,0.03364666551351547,0.0173767413944006,0.03992554172873497,0.06081563234329224,0.07814601808786392,0.0885702446103096,0.08691460639238358,0.068851038813591,0.03364666551351547,0.01503016985952854,0.03453396260738373,0.05260303616523743,0.06759310513734818,0.07660963386297226,0.07517758011817932,0.05955333635210991,0.0291029904037714,0.01065461989492178,0.02448050864040852,0.03728935495018959,0.04791554808616638,0.05430720746517181,0.05329204723238945,0.04221629723906517,0.02063059061765671,0.004850015975534916,0.01114360336214304,0.01697422936558723,0.02181130461394787,0.0247208084911108,0.02425870299339294,0.01921698823571205,0.009391108527779579
